{"learner":{"attributes":{},"feature_names":["day_of_week","hour_of_day"],"feature_types":[],"gradient_booster":{"model":{"cats":{"enc":[],"feature_segments":[],"sorted_idx":[]},"gbtree_model_param":{"num_parallel_tree":"1","num_trees":"50"},"iteration_indptr":[0,1,2,3,4,5,6,7,8,9,10,11,12,13,14,15,16,17,18,19,20,21,22,23,24,25,26,27,28,29,30,31,32,33,34,35,36,37,38,39,40,41,42,43,44,45,46,47,48,49,50],"tree_info":[0,0,0,0,0,0,0,0,0,0,0,0,0,0,0,0,0,0,0,0,0,0,0,0,0,0,0,0,0,0,0,0,0,0,0,0,0,0,0,0,0,0,0,0,0,0,0,0,0,0],"trees":[{"base_weights":[5.246161E-7,1.8282596E0,-6.2556324E0,-8.1845255E0,3.1623642E0,-2.986156E0,-7.9584203E0,-1.025881E1,-6.0650654E0,3.9368744E0,-5.0179553E-1,-4.988408E0,-1.7130069E0,-9.728248E0,-6.509251E0,-8.42632E-1,-1.0543878E0,-5.208575E-1,-9.691187E-1,1.954858E-1,4.793385E-1,-2.5153658E-1,1.8789623E-2,-4.2577028E-1,-5.664296E-1,-3.270049E-3,-4.6693856E-1,-8.690774E-1,-1.0616361E0,-4.6647015E-1,-1.0513365E0],"categories":[],"categories_nodes":[],"categories_segments":[],"categories_sizes":[],"default_left":[0,0,0,0,0,0,0,0,0,0,0,0,0,0,0,0,0,0,0,0,0,0,0,0,0,0,0,0,0,0,0],"id":0,"left_children":[1,3,5,7,9,11,13,15,17,19,21,23,25,27,29,-1,-1,-1,-1,-1,-1,-1,-1,-1,-1,-1,-1,-1,-1,-1,-1],"loss_changes":[6.872444E4,6.2141062E4,7.5420938E3,2.3425898E3,1.1648836E4,1.181915E3,2.2270234E3,5.4808594E1,7.9738965E2,5.7421562E3,9.962011E2,6.5274414E1,1.4255547E3,2.7629297E2,3.599537E3,0E0,0E0,0E0,0E0,0E0,0E0,0E0,0E0,0E0,0E0,0E0,0E0,0E0,0E0,0E0,0E0],"parents":[2147483647,0,0,1,1,2,2,3,3,4,4,5,5,6,6,7,7,8,8,9,9,10,10,11,11,12,12,13,13,14,14],"right_children":[2,4,6,8,10,12,14,16,18,20,22,24,26,28,30,-1,-1,-1,-1,-1,-1,-1,-1,-1,-1,-1,-1,-1,-1,-1,-1],"split_conditions":[2.1E1,5E0,2.2E1,3E0,1.9E1,5E0,5E0,2E0,7E0,1E1,4E0,3E0,7E0,2.3E1,7E0,-8.42632E-1,-1.0543878E0,-5.208575E-1,-9.691187E-1,1.954858E-1,4.793385E-1,-2.5153658E-1,1.8789623E-2,-4.2577028E-1,-5.664296E-1,-3.270049E-3,-4.6693856E-1,-8.690774E-1,-1.0616361E0,-4.6647015E-1,-1.0513365E0],"split_indices":[1,1,1,1,1,0,0,1,0,1,0,0,0,1,0,0,0,0,0,0,0,0,0,0,0,0,0,0,0,0,0],"split_type":[0,0,0,0,0,0,0,0,0,0,0,0,0,0,0,0,0,0,0,0,0,0,0,0,0,0,0,0,0,0,0],"sum_hessian":[6.007E3,4.649E3,1.358E3,5.46E2,4.103E3,4.66E2,8.92E2,2.74E2,2.72E2,3.387E3,7.16E2,1.8E2,2.86E2,3.99E2,4.93E2,4.1E1,2.33E2,2.22E2,5E1,1.023E3,2.364E3,1.82E2,5.34E2,9E1,9E1,1.83E2,1.03E2,1.89E2,2.1E2,3.39E2,1.54E2],"tree_param":{"num_deleted":"0","num_feature":"2","num_nodes":"31","size_leaf_vector":"1"}},{"base_weights":[-1.3072904E-3,1.6448001E0,-5.6336827E0,-7.372265E0,2.8462353E0,-2.6906717E0,-7.16644E0,-8.391623E0,-3.8997166E0,3.6538653E0,-1.08230114E-1,-4.4950485E0,-1.5433444E0,-8.76025E0,-5.861399E0,-9.2398274E-1,-6.758866E-1,1.4232135E-1,-5.166124E-1,1.7595625E-1,4.5339164E-1,7.201344E-2,-1.5440689E-1,-3.8366106E-1,-5.1040906E-1,-2.9448199E-3,-4.2069364E-1,-7.8262705E-1,-9.5597565E-1,-4.1996035E-1,-9.4688123E-1],"categories":[],"categories_nodes":[],"categories_segments":[],"categories_sizes":[],"default_left":[0,0,0,0,0,0,0,0,0,0,0,0,0,0,0,0,0,0,0,0,0,0,0,0,0,0,0,0,0,0,0],"id":1,"left_children":[1,3,5,7,9,11,13,15,17,19,21,23,25,27,29,-1,-1,-1,-1,-1,-1,-1,-1,-1,-1,-1,-1,-1,-1,-1,-1],"loss_changes":[5.5712406E4,5.0396383E4,6.1110547E3,1.9035293E3,9.793012E3,9.598506E2,1.806082E3,5.2198047E2,8.56718E2,5.365035E3,1.0501606E3,5.300171E1,1.1571753E3,2.23875E2,2.9216562E3,0E0,0E0,0E0,0E0,0E0,0E0,0E0,0E0,0E0,0E0,0E0,0E0,0E0,0E0,0E0,0E0],"parents":[2147483647,0,0,1,1,2,2,3,3,4,4,5,5,6,6,7,7,8,8,9,9,10,10,11,11,12,12,13,13,14,14],"right_children":[2,4,6,8,10,12,14,16,18,20,22,24,26,28,30,-1,-1,-1,-1,-1,-1,-1,-1,-1,-1,-1,-1,-1,-1,-1,-1],"split_conditions":[2.1E1,5E0,2.2E1,4E0,1.8E1,5E0,5E0,3E0,2E0,1E1,2E1,3E0,7E0,2.3E1,7E0,-9.2398274E-1,-6.758866E-1,1.4232135E-1,-5.166124E-1,1.7595625E-1,4.5339164E-1,7.201344E-2,-1.5440689E-1,-3.8366106E-1,-5.1040906E-1,-2.9448199E-3,-4.2069364E-1,-7.8262705E-1,-9.5597565E-1,-4.1996035E-1,-9.4688123E-1],"split_indices":[1,1,1,1,1,0,0,1,0,1,1,0,0,1,0,0,0,0,0,0,0,0,0,0,0,0,0,0,0,0,0],"split_type":[0,0,0,0,0,0,0,0,0,0,0,0,0,0,0,0,0,0,0,0,0,0,0,0,0,0,0,0,0,0,0],"sum_hessian":[6.007E3,4.649E3,1.358E3,5.46E2,4.103E3,4.66E2,8.92E2,4.21E2,1.25E2,3.222E3,8.81E2,1.8E2,2.86E2,3.99E2,4.93E2,2.74E2,1.47E2,2.4E1,1.01E2,1.023E3,2.199E3,5.59E2,3.22E2,9E1,9E1,1.83E2,1.03E2,1.89E2,2.1E2,3.39E2,1.54E2],"tree_param":{"num_deleted":"0","num_feature":"2","num_nodes":"31","size_leaf_vector":"1"}},{"base_weights":[-2.1504415E-3,1.480013E0,-5.0735693E0,-6.638648E0,2.561745E0,-2.424426E0,-6.453274E0,-7.5562515E0,-3.5127158E0,3.288674E0,-9.750089E-2,-4.050483E0,-1.390486E0,-7.8885713E0,-5.278026E0,-8.3192044E-1,-6.087547E-1,-1.4161654E-1,-6.4690346E-1,2.1126218E-1,4.4670677E-1,6.482491E-2,-1.3901402E-1,-3.4571657E-1,-4.59929E-1,-2.651926E-3,-3.790288E-1,-7.047762E-1,-8.608312E-1,-3.780879E-1,-8.528039E-1],"categories":[],"categories_nodes":[],"categories_segments":[],"categories_sizes":[],"default_left":[0,0,0,0,0,0,0,0,0,0,0,0,0,0,0,0,0,0,0,0,0,0,0,0,0,0,0,0,0,0,0],"id":2,"left_children":[1,3,5,7,9,11,13,15,17,19,21,23,25,27,29,-1,-1,-1,-1,-1,-1,-1,-1,-1,-1,-1,-1,-1,-1,-1,-1],"loss_changes":[4.516767E4,4.08543E4,4.951547E3,1.5424551E3,7.9336934E3,7.795095E2,1.4647031E3,4.2222852E2,7.7179565E2,4.457164E3,8.5113666E2,4.3036377E1,9.3932214E2,1.8139648E2,2.3714365E3,0E0,0E0,0E0,0E0,0E0,0E0,0E0,0E0,0E0,0E0,0E0,0E0,0E0,0E0,0E0,0E0],"parents":[2147483647,0,0,1,1,2,2,3,3,4,4,5,5,6,6,7,7,8,8,9,9,10,10,11,11,12,12,13,13,14,14],"right_children":[2,4,6,8,10,12,14,16,18,20,22,24,26,28,30,-1,-1,-1,-1,-1,-1,-1,-1,-1,-1,-1,-1,-1,-1,-1,-1],"split_conditions":[2.1E1,5E0,2.2E1,4E0,1.8E1,5E0,5E0,3E0,6E0,1.2E1,2E1,3E0,7E0,2.3E1,7E0,-8.3192044E-1,-6.087547E-1,-1.4161654E-1,-6.4690346E-1,2.1126218E-1,4.4670677E-1,6.482491E-2,-1.3901402E-1,-3.4571657E-1,-4.59929E-1,-2.651926E-3,-3.790288E-1,-7.047762E-1,-8.608312E-1,-3.780879E-1,-8.528039E-1],"split_indices":[1,1,1,1,1,0,0,1,0,1,1,0,0,1,0,0,0,0,0,0,0,0,0,0,0,0,0,0,0,0,0],"split_type":[0,0,0,0,0,0,0,0,0,0,0,0,0,0,0,0,0,0,0,0,0,0,0,0,0,0,0,0,0,0,0],"sum_hessian":[6.007E3,4.649E3,1.358E3,5.46E2,4.103E3,4.66E2,8.92E2,4.21E2,1.25E2,3.222E3,8.81E2,1.8E2,2.86E2,3.99E2,4.93E2,2.74E2,1.47E2,7.4E1,5.1E1,1.614E3,1.608E3,5.59E2,3.22E2,9E1,9E1,1.83E2,1.03E2,1.89E2,2.1E2,3.39E2,1.54E2],"tree_param":{"num_deleted":"0","num_feature":"2","num_nodes":"31","size_leaf_vector":"1"}},{"base_weights":[-2.8721814E-3,1.331658E0,-4.5691433E0,-5.978858E0,2.3057127E0,-2.1845255E0,-5.811078E0,-6.80404E0,-3.1677022E0,2.960011E0,-8.783484E-2,-3.6498857E0,-1.252767E0,-7.103628E0,-4.752715E0,-7.4903095E-1,-5.482905E-1,1.4225371E-1,-4.261705E-1,3.529908E-1,8.3546065E-2,5.835399E-2,-1.2515563E-1,-3.115248E-1,-4.144415E-1,-2.3881586E-3,-3.4149033E-1,-6.3466954E-1,-7.75156E-1,-3.403903E-1,-7.6807374E-1],"categories":[],"categories_nodes":[],"categories_segments":[],"categories_sizes":[],"default_left":[0,0,0,0,0,0,0,0,0,0,0,0,0,0,0,0,0,0,0,0,0,0,0,0,0,0,0,0,0,0,0],"id":3,"left_children":[1,3,5,7,9,11,13,15,17,19,21,23,25,27,29,-1,-1,-1,-1,-1,-1,-1,-1,-1,-1,-1,-1,-1,-1,-1,-1],"loss_changes":[3.6617797E4,3.3125707E4,4.012039E3,1.2473301E3,6.42751E3,6.330515E2,1.1878496E3,3.4153906E2,6.38801E2,3.899379E3,6.89831E2,3.4944336E1,7.6248254E2,1.4698047E2,1.924835E3,0E0,0E0,0E0,0E0,0E0,0E0,0E0,0E0,0E0,0E0,0E0,0E0,0E0,0E0,0E0,0E0],"parents":[2147483647,0,0,1,1,2,2,3,3,4,4,5,5,6,6,7,7,8,8,9,9,10,10,11,11,12,12,13,13,14,14],"right_children":[2,4,6,8,10,12,14,16,18,20,22,24,26,28,30,-1,-1,-1,-1,-1,-1,-1,-1,-1,-1,-1,-1,-1,-1,-1,-1],"split_conditions":[2.1E1,5E0,2.2E1,4E0,1.8E1,5E0,5E0,3E0,2E0,7E0,2E1,3E0,7E0,2.3E1,7E0,-7.4903095E-1,-5.482905E-1,1.4225371E-1,-4.261705E-1,3.529908E-1,8.3546065E-2,5.835399E-2,-1.2515563E-1,-3.115248E-1,-4.144415E-1,-2.3881586E-3,-3.4149033E-1,-6.3466954E-1,-7.75156E-1,-3.403903E-1,-7.6807374E-1],"split_indices":[1,1,1,1,1,0,0,1,0,0,1,0,0,1,0,0,0,0,0,0,0,0,0,0,0,0,0,0,0,0,0],"split_type":[0,0,0,0,0,0,0,0,0,0,0,0,0,0,0,0,0,0,0,0,0,0,0,0,0,0,0,0,0,0,0],"sum_hessian":[6.007E3,4.649E3,1.358E3,5.46E2,4.103E3,4.66E2,8.92E2,4.21E2,1.25E2,3.222E3,8.81E2,1.8E2,2.86E2,3.99E2,4.93E2,2.74E2,1.47E2,2.4E1,1.01E2,2.54E3,6.82E2,5.59E2,3.22E2,9E1,9E1,1.83E2,1.03E2,1.89E2,2.1E2,3.39E2,1.54E2],"tree_param":{"num_deleted":"0","num_feature":"2","num_nodes":"31","size_leaf_vector":"1"}},{"base_weights":[-3.3839864E-3,1.1982316E0,-4.1148696E0,-5.383863E0,2.0752313E0,-1.968364E0,-5.23279E0,-6.1267104E0,-2.8531854E0,2.6641452E0,-7.912746E-2,-3.2889082E0,-1.1286885E0,-6.39679E0,-4.2796874E0,-6.744002E-1,-4.9383193E-1,-1.0378446E-1,-5.416597E-1,1.0690191E-1,3.405393E-1,-1.9773495E-1,3.346632E-2,-2.8071472E-1,-3.7345278E-1,-2.1506564E-3,-3.076696E-1,-5.7153666E-1,-6.9800776E-1,-3.064514E-1,-6.9176185E-1],"categories":[],"categories_nodes":[],"categories_segments":[],"categories_sizes":[],"default_left":[0,0,0,0,0,0,0,0,0,0,0,0,0,0,0,0,0,0,0,0,0,0,0,0,0,0,0,0,0,0,0],"id":4,"left_children":[1,3,5,7,9,11,13,15,17,19,21,23,25,27,29,-1,-1,-1,-1,-1,-1,-1,-1,-1,-1,-1,-1,-1,-1,-1,-1],"loss_changes":[2.9687002E4,2.6853281E4,3.250787E3,1.01082715E3,5.207086E3,5.1411084E2,9.633301E2,2.7626855E2,5.8071497E2,3.8071816E3,6.9344324E2,2.8374146E1,6.1893506E2,1.190918E2,1.5623389E3,0E0,0E0,0E0,0E0,0E0,0E0,0E0,0E0,0E0,0E0,0E0,0E0,0E0,0E0,0E0,0E0],"parents":[2147483647,0,0,1,1,2,2,3,3,4,4,5,5,6,6,7,7,8,8,9,9,10,10,11,11,12,12,13,13,14,14],"right_children":[2,4,6,8,10,12,14,16,18,20,22,24,26,28,30,-1,-1,-1,-1,-1,-1,-1,-1,-1,-1,-1,-1,-1,-1,-1,-1],"split_conditions":[2.1E1,5E0,2.2E1,4E0,1.8E1,5E0,5E0,3E0,6E0,1E1,3E0,3E0,7E0,2.3E1,7E0,-6.744002E-1,-4.9383193E-1,-1.0378446E-1,-5.416597E-1,1.0690191E-1,3.405393E-1,-1.9773495E-1,3.346632E-2,-2.8071472E-1,-3.7345278E-1,-2.1506564E-3,-3.076696E-1,-5.7153666E-1,-6.9800776E-1,-3.064514E-1,-6.9176185E-1],"split_indices":[1,1,1,1,1,0,0,1,0,1,0,0,0,1,0,0,0,0,0,0,0,0,0,0,0,0,0,0,0,0,0],"split_type":[0,0,0,0,0,0,0,0,0,0,0,0,0,0,0,0,0,0,0,0,0,0,0,0,0,0,0,0,0,0,0],"sum_hessian":[6.007E3,4.649E3,1.358E3,5.46E2,4.103E3,4.66E2,8.92E2,4.21E2,1.25E2,3.222E3,8.81E2,1.8E2,2.86E2,3.99E2,4.93E2,2.74E2,1.47E2,7.4E1,5.1E1,1.023E3,2.199E3,1.57E2,7.24E2,9E1,9E1,1.83E2,1.03E2,1.89E2,2.1E2,3.39E2,1.54E2],"tree_param":{"num_deleted":"0","num_feature":"2","num_nodes":"31","size_leaf_vector":"1"}},{"base_weights":[-3.8381224E-3,1.0780793E0,-3.7057605E0,-4.8487926E0,1.8677773E0,-1.7735918E0,-4.7120504E0,-5.5168076E0,-2.5729897E0,2.3403568E0,-3.678813E-1,-2.9636314E0,-1.0168991E0,-5.760285E0,-3.853739E0,-6.072054E-1,-4.447824E-1,-1.5347849E-1,-6.3228965E-1,3.225343E-1,1.2401859E-1,-1.7278993E-1,3.5941012E-2,-3.2105967E-1,-2.1217032E-1,-1.9367634E-3,-2.7719846E-1,-5.146838E-1,-6.2853783E-1,-2.7589634E-1,-6.23032E-1],"categories":[],"categories_nodes":[],"categories_segments":[],"categories_sizes":[],"default_left":[0,0,0,0,0,0,0,0,0,0,0,0,0,0,0,0,0,0,0,0,0,0,0,0,0,0,0,0,0,0,0],"id":5,"left_children":[1,3,5,7,9,11,13,15,17,19,21,23,25,27,29,-1,-1,-1,-1,-1,-1,-1,-1,-1,-1,-1,-1,-1,-1,-1,-1],"loss_changes":[2.4067084E4,2.17731E4,2.6339746E3,8.173926E2,4.3368457E3,4.175171E2,7.812461E2,2.2346973E2,4.8083527E2,3.2946797E3,7.098268E2,3.0822876E1,5.0241238E2,9.649805E1,1.2681118E3,0E0,0E0,0E0,0E0,0E0,0E0,0E0,0E0,0E0,0E0,0E0,0E0,0E0,0E0,0E0,0E0],"parents":[2147483647,0,0,1,1,2,2,3,3,4,4,5,5,6,6,7,7,8,8,9,9,10,10,11,11,12,12,13,13,14,14],"right_children":[2,4,6,8,10,12,14,16,18,20,22,24,26,28,30,-1,-1,-1,-1,-1,-1,-1,-1,-1,-1,-1,-1,-1,-1,-1,-1],"split_conditions":[2.1E1,5E0,2.2E1,4E0,1.9E1,5E0,5E0,3E0,7E0,6E0,5E0,4E0,7E0,2.3E1,7E0,-6.072054E-1,-4.447824E-1,-1.5347849E-1,-6.3228965E-1,3.225343E-1,1.2401859E-1,-1.7278993E-1,3.5941012E-2,-3.2105967E-1,-2.1217032E-1,-1.9367634E-3,-2.7719846E-1,-5.146838E-1,-6.2853783E-1,-2.7589634E-1,-6.23032E-1],"split_indices":[1,1,1,1,1,0,0,1,0,0,0,0,0,1,0,0,0,0,0,0,0,0,0,0,0,0,0,0,0,0,0],"split_type":[0,0,0,0,0,0,0,0,0,0,0,0,0,0,0,0,0,0,0,0,0,0,0,0,0,0,0,0,0,0,0],"sum_hessian":[6.007E3,4.649E3,1.358E3,5.46E2,4.103E3,4.66E2,8.92E2,4.21E2,1.25E2,3.387E3,7.16E2,1.8E2,2.86E2,3.99E2,4.93E2,2.74E2,1.47E2,9.9E1,2.6E1,1.876E3,1.511E3,2.49E2,4.67E2,1.37E2,4.3E1,1.83E2,1.03E2,1.89E2,2.1E2,3.39E2,1.54E2],"tree_param":{"num_deleted":"0","num_feature":"2","num_nodes":"31","size_leaf_vector":"1"}},{"base_weights":[-4.183744E-3,1.1224372E0,-2.904845E0,-4.367273E0,1.9161308E0,-1.386473E0,-4.243132E0,-4.96762E0,-2.3219266E0,2.6360333E0,1.0329114E0,-3.0167215E0,-7.2262394E-1,-3.3407364E0,-5.100602E0,-5.4670566E-1,-4.0060472E-1,1.5329461E-1,-3.2439846E-1,3.0264136E-1,4.916674E-2,-6.3861024E-1,1.6872883E-1,-3.457875E-1,-2.8076193E-1,5.322663E-3,-2.5271356E-1,-4.6348628E-1,-2.3398338E-1,-5.659819E-1,-4.600215E-1],"categories":[],"categories_nodes":[],"categories_segments":[],"categories_sizes":[],"default_left":[0,0,0,0,0,0,0,0,0,0,0,0,0,0,0,0,0,0,0,0,0,0,0,0,0,0,0,0,0,0,0],"id":6,"left_children":[1,3,5,7,9,11,13,15,17,19,21,23,25,27,29,-1,-1,-1,-1,-1,-1,-1,-1,-1,-1,-1,-1,-1,-1,-1,-1],"loss_changes":[1.9637078E4,1.8866104E4,3.4099395E3,6.601367E2,2.4019932E3,8.5170654E2,6.7394434E2,1.8076172E2,4.5282916E2,1.7422266E3,8.263988E3,1.132373E1,7.8695215E2,5.564946E2,1.0156348E2,0E0,0E0,0E0,0E0,0E0,0E0,0E0,0E0,0E0,0E0,0E0,0E0,0E0,0E0,0E0,0E0],"parents":[2147483647,0,0,1,1,2,2,3,3,4,4,5,5,6,6,7,7,8,8,9,9,10,10,11,11,12,12,13,13,14,14],"right_children":[2,4,6,8,10,12,14,16,18,20,22,24,26,28,30,-1,-1,-1,-1,-1,-1,-1,-1,-1,-1,-1,-1,-1,-1,-1,-1],"split_conditions":[2E1,5E0,2.2E1,4E0,6E0,4E0,2.3E1,3E0,2E0,1.8E1,7E0,2E0,7E0,5E0,5E0,-5.4670566E-1,-4.0060472E-1,1.5329461E-1,-3.2439846E-1,3.0264136E-1,4.916674E-2,-6.3861024E-1,1.6872883E-1,-3.457875E-1,-2.8076193E-1,5.322663E-3,-2.5271356E-1,-4.6348628E-1,-2.3398338E-1,-5.659819E-1,-4.600215E-1],"split_indices":[1,1,1,1,0,0,1,1,0,1,1,0,0,0,0,0,0,0,0,0,0,0,0,0,0,0,0,0,0,0,0],"split_type":[0,0,0,0,0,0,0,0,0,0,0,0,0,0,0,0,0,0,0,0,0,0,0,0,0,0,0,0,0,0,0],"sum_hessian":[6.007E3,4.327E3,1.68E3,5.46E2,3.781E3,7.88E2,8.92E2,4.21E2,1.25E2,2.082E3,1.699E3,2.27E2,5.61E2,4.37E2,4.55E2,2.74E2,1.47E2,2.4E1,1.01E2,1.761E3,3.21E2,1.37E2,1.562E3,6.8E1,1.59E2,3.93E2,1.68E2,1.89E2,2.48E2,2.1E2,2.45E2],"tree_param":{"num_deleted":"0","num_feature":"2","num_nodes":"31","size_leaf_vector":"1"}},{"base_weights":[-4.403496E-3,1.0099078E0,-2.6159058E0,-3.9325907E0,1.7244866E0,-1.2489334E0,-3.8207493E0,-4.473103E0,-2.0910923E0,2.1038804E0,3.0766675E-1,-2.7177975E0,-6.508017E-1,-3.008255E0,-4.5927925E0,-4.9223396E-1,-3.60815E-1,-6.1680045E-2,-4.177262E-1,2.4115641E-1,3.3428982E-2,-6.644632E-1,9.938916E-2,-2.4538417E-1,-3.0882165E-1,4.791762E-3,-2.2759178E-1,-4.1738153E-1,-2.1067904E-1,-5.0965196E-1,-4.1420636E-1],"categories":[],"categories_nodes":[],"categories_segments":[],"categories_sizes":[],"default_left":[0,0,0,0,0,0,0,0,0,0,0,0,0,0,0,0,0,0,0,0,0,0,0,0,0,0,0,0,0,0,0],"id":7,"left_children":[1,3,5,7,9,11,13,15,17,19,21,23,25,27,29,-1,-1,-1,-1,-1,-1,-1,-1,-1,-1,-1,-1,-1,-1,-1,-1],"loss_changes":[1.5917092E4,1.5292432E4,2.7638135E3,5.351035E2,2.0323018E3,6.914263E2,5.463467E2,1.4621582E2,3.8495184E2,1.6233604E3,3.823276E3,1.47146E1,6.382601E2,4.514182E2,8.24209E1,0E0,0E0,0E0,0E0,0E0,0E0,0E0,0E0,0E0,0E0,0E0,0E0,0E0,0E0,0E0,0E0],"parents":[2147483647,0,0,1,1,2,2,3,3,4,4,5,5,6,6,7,7,8,8,9,9,10,10,11,11,12,12,13,13,14,14],"right_children":[2,4,6,8,10,12,14,16,18,20,22,24,26,28,30,-1,-1,-1,-1,-1,-1,-1,-1,-1,-1,-1,-1,-1,-1,-1,-1],"split_conditions":[2E1,5E0,2.2E1,4E0,7E0,4E0,2.3E1,3E0,6E0,1.8E1,7E0,3E0,7E0,5E0,5E0,-4.9223396E-1,-3.60815E-1,-6.1680045E-2,-4.177262E-1,2.4115641E-1,3.3428982E-2,-6.644632E-1,9.938916E-2,-2.4538417E-1,-3.0882165E-1,4.791762E-3,-2.2759178E-1,-4.1738153E-1,-2.1067904E-1,-5.0965196E-1,-4.1420636E-1],"split_indices":[1,1,1,1,0,0,1,1,0,1,1,0,0,0,0,0,0,0,0,0,0,0,0,0,0,0,0,0,0,0,0],"split_type":[0,0,0,0,0,0,0,0,0,0,0,0,0,0,0,0,0,0,0,0,0,0,0,0,0,0,0,0,0,0,0],"sum_hessian":[6.007E3,4.327E3,1.68E3,5.46E2,3.781E3,7.88E2,8.92E2,4.21E2,1.25E2,2.982E3,7.99E2,2.27E2,5.61E2,4.37E2,4.55E2,2.74E2,1.47E2,7.4E1,5.1E1,2.54E3,4.42E2,7.1E1,7.28E2,1.37E2,9E1,3.93E2,1.68E2,1.89E2,2.48E2,2.1E2,2.45E2],"tree_param":{"num_deleted":"0","num_feature":"2","num_nodes":"31","size_leaf_vector":"1"}},{"base_weights":[-4.620761E-3,7.8863764E-1,-2.7188568E0,-3.5417676E0,1.3656218E0,-2.0012398E0,-4.135539E0,-4.0278144E0,-1.8857878E0,1.7184511E0,-3.0348784E-1,-3.0309582E0,-1.2853572E0,-4.5892832E-1,-3.729541E0,-4.4318953E-1,-3.2497725E-1,1.4449959E-1,-2.6836684E-1,8.20789E-2,2.534689E-1,-1.3833165E-1,2.7399225E-2,-2.2503574E-1,-3.758631E-1,-3.7638374E-2,-3.268791E-1,-3.165043E-1,-4.656268E-1],"categories":[],"categories_nodes":[],"categories_segments":[],"categories_sizes":[],"default_left":[0,0,0,0,0,0,0,0,0,0,0,0,0,0,0,0,0,0,0,0,0,0,0,0,0,0,0,0,0],"id":8,"left_children":[1,3,5,7,9,11,13,15,17,19,21,23,25,-1,27,-1,-1,-1,-1,-1,-1,-1,-1,-1,-1,-1,-1,-1,-1],"loss_changes":[1.2937913E4,1.1623211E4,1.3733301E3,4.3267578E2,2.4174126E3,6.624946E2,6.6887695E1,1.1827051E2,3.3873138E2,2.4803262E3,4.4748553E2,2.0170996E2,9.633152E2,0E0,1.13954346E2,0E0,0E0,0E0,0E0,0E0,0E0,0E0,0E0,0E0,0E0,0E0,0E0,0E0,0E0],"parents":[2147483647,0,0,1,1,2,2,3,3,4,4,5,5,6,6,7,7,8,8,9,9,10,10,11,11,12,12,14,14],"right_children":[2,4,6,8,10,12,14,16,18,20,22,24,26,-1,28,-1,-1,-1,-1,-1,-1,-1,-1,-1,-1,-1,-1,-1,-1],"split_conditions":[2.1E1,5E0,2.3E1,4E0,1.9E1,5E0,5E0,3E0,2E0,1.2E1,5E0,2.2E1,7E0,-4.5892832E-1,7E0,-4.4318953E-1,-3.2497725E-1,1.4449959E-1,-2.6836684E-1,8.20789E-2,2.534689E-1,-1.3833165E-1,2.7399225E-2,-2.2503574E-1,-3.758631E-1,-3.7638374E-2,-3.268791E-1,-3.165043E-1,-4.656268E-1],"split_indices":[1,1,1,1,1,0,0,1,0,1,0,1,0,0,0,0,0,0,0,0,0,0,0,0,0,0,0,0,0],"split_type":[0,0,0,0,0,0,0,0,0,0,0,0,0,0,0,0,0,0,0,0,0,0,0,0,0,0,0,0,0],"sum_hessian":[6.007E3,4.649E3,1.358E3,5.46E2,4.103E3,9.03E2,4.55E2,4.21E2,1.25E2,3.387E3,7.16E2,3.69E2,5.34E2,2.1E2,2.45E2,2.74E2,1.47E2,2.4E1,1.01E2,1.614E3,1.773E3,2.49E2,4.67E2,1.8E2,1.89E2,3.67E2,1.67E2,1.55E2,9E1],"tree_param":{"num_deleted":"0","num_feature":"2","num_nodes":"29","size_leaf_vector":"1"}},{"base_weights":[-4.63715E-3,8.2060236E-1,-2.1293437E0,-3.1892216E0,1.4003361E0,-1.0055288E0,-3.1198933E0,-3.6268532E0,-1.6981922E0,2.0161912E0,6.449088E-1,-2.2586253E0,-4.9536604E-1,-2.823109E0,-4.514756E-1,-2.7232656E-1,-3.9100704E-1,-8.596632E-2,-4.740959E-1,2.3175319E-1,3.6097907E-2,-5.6070787E-1,1.1964951E-1,-2.7125567E-1,-2.048751E-1,9.165329E-3,-1.8609887E-1,-3.787664E-1,-1.6800353E-1],"categories":[],"categories_nodes":[],"categories_segments":[],"categories_sizes":[],"default_left":[0,0,0,0,0,0,0,0,0,0,0,0,0,0,0,0,0,0,0,0,0,0,0,0,0,0,0,0,0],"id":9,"left_children":[1,3,5,7,9,11,13,15,17,19,21,23,25,27,-1,-1,-1,-1,-1,-1,-1,-1,-1,-1,-1,-1,-1,-1,-1],"loss_changes":[1.0536126E4,1.0065467E4,1.8681431E3,3.5076953E2,1.7582144E3,5.032755E2,3.5693262E2,9.734668E1,3.174069E2,1.038127E3,5.8691772E3,1.616394E1,4.5069617E2,8.084258E2,0E0,0E0,0E0,0E0,0E0,0E0,0E0,0E0,0E0,0E0,0E0,0E0,0E0,0E0,0E0],"parents":[2147483647,0,0,1,1,2,2,3,3,4,4,5,5,6,6,7,7,8,8,9,9,10,10,11,11,12,12,13,13],"right_children":[2,4,6,8,10,12,14,16,18,20,22,24,26,28,-1,-1,-1,-1,-1,-1,-1,-1,-1,-1,-1,-1,-1,-1,-1],"split_conditions":[2E1,5E0,2.2E1,4E0,6E0,4E0,7E0,3E0,7E0,1.8E1,7E0,2E0,7E0,5E0,-4.514756E-1,-2.7232656E-1,-3.9100704E-1,-8.596632E-2,-4.740959E-1,2.3175319E-1,3.6097907E-2,-5.6070787E-1,1.1964951E-1,-2.7125567E-1,-2.048751E-1,9.165329E-3,-1.8609887E-1,-3.787664E-1,-1.6800353E-1],"split_indices":[1,1,1,1,0,0,0,0,0,1,1,0,0,0,0,0,0,0,0,0,0,0,0,0,0,0,0,0,0],"split_type":[0,0,0,0,0,0,0,0,0,0,0,0,0,0,0,0,0,0,0,0,0,0,0,0,0,0,0,0,0],"sum_hessian":[6.007E3,4.327E3,1.68E3,5.46E2,3.781E3,7.88E2,8.92E2,4.21E2,1.25E2,2.082E3,1.699E3,2.27E2,5.61E2,7.38E2,1.54E2,1.03E2,3.18E2,9.9E1,2.6E1,1.761E3,3.21E2,1.37E2,1.562E3,6.8E1,1.59E2,3.93E2,1.68E2,3.99E2,3.39E2],"tree_param":{"num_deleted":"0","num_feature":"2","num_nodes":"29","size_leaf_vector":"1"}},{"base_weights":[-4.6807528E-3,6.398605E-1,-2.2100613E0,-2.872536E0,1.107853E0,-1.6053334E0,-3.4040616E0,-3.6210158E0,-2.1080508E0,1.4441346E0,-1.2224162E-1,-2.457447E0,-1.0130206E0,-3.7555584E-1,-3.0887368E0,-4.2680892E-1,-2.9477033E-1,-1.7651176E-2,-2.9077742E-1,6.1414964E-2,2.2763172E-1,-1.5392368E-1,1.8673422E-2,-1.8659697E-1,-3.007973E-1,-2.5940374E-2,-2.6577705E-1,-2.6836413E-1,-3.749244E-1],"categories":[],"categories_nodes":[],"categories_segments":[],"categories_sizes":[],"default_left":[0,0,0,0,0,0,0,0,0,0,0,0,0,0,0,0,0,0,0,0,0,0,0,0,0,0,0,0,0],"id":10,"left_children":[1,3,5,7,9,11,13,15,17,19,21,23,25,-1,27,-1,-1,-1,-1,-1,-1,-1,-1,-1,-1,-1,-1,-1,-1],"loss_changes":[8.541539E3,7.646737E3,9.7579443E2,3.0536133E2,1.6978301E3,4.5377563E2,3.8940918E1,1.0723193E2,4.211891E2,2.2247246E3,3.8644226E2,1.1486792E2,6.62449E2,0E0,5.5760254E1,0E0,0E0,0E0,0E0,0E0,0E0,0E0,0E0,0E0,0E0,0E0,0E0,0E0,0E0],"parents":[2147483647,0,0,1,1,2,2,3,3,4,4,5,5,6,6,7,7,8,8,9,9,10,10,11,11,12,12,14,14],"right_children":[2,4,6,8,10,12,14,16,18,20,22,24,26,-1,28,-1,-1,-1,-1,-1,-1,-1,-1,-1,-1,-1,-1,-1,-1],"split_conditions":[2.1E1,5E0,2.3E1,3E0,1.8E1,5E0,5E0,6E0,3E0,1.2E1,3E0,2.2E1,7E0,-3.7555584E-1,7E0,-4.2680892E-1,-2.9477033E-1,-1.7651176E-2,-2.9077742E-1,6.1414964E-2,2.2763172E-1,-1.5392368E-1,1.8673422E-2,-1.8659697E-1,-3.007973E-1,-2.5940374E-2,-2.6577705E-1,-2.6836413E-1,-3.749244E-1],"split_indices":[1,1,1,1,1,0,0,0,0,1,0,1,0,0,0,0,0,0,0,0,0,0,0,0,0,0,0,0,0],"split_type":[0,0,0,0,0,0,0,0,0,0,0,0,0,0,0,0,0,0,0,0,0,0,0,0,0,0,0,0,0],"sum_hessian":[6.007E3,4.649E3,1.358E3,5.46E2,4.103E3,9.03E2,4.55E2,2.74E2,2.72E2,3.222E3,8.81E2,3.69E2,5.34E2,2.1E2,2.45E2,1.37E2,1.37E2,8E1,1.92E2,1.614E3,1.608E3,1.57E2,7.24E2,1.8E2,1.89E2,3.67E2,1.67E2,1.55E2,9E1],"tree_param":{"num_deleted":"0","num_feature":"2","num_nodes":"29","size_leaf_vector":"1"}},{"base_weights":[-4.657989E-3,6.687852E-1,-1.738541E0,-2.5871656E0,1.1395246E0,-8.1986153E-1,-2.548283E0,-2.9664373E0,-1.2963725E0,1.4618887E0,-6.3915E-2,-1.8945212E0,-3.8241976E-1,-2.295142E0,-3.7387545E0,-4.208922E-1,-2.7568963E-1,-5.522375E-2,-4.004414E-1,1.6816291E-1,1.9818183E-2,-5.5779785E-1,4.8077147E-2,-1.6061439E-1,-2.3110218E-1,1.0700854E-2,-1.5211909E-1,-3.070551E-1,-1.376146E-1,-4.1856763E-1,-3.3784398E-1],"categories":[],"categories_nodes":[],"categories_segments":[],"categories_sizes":[],"default_left":[0,0,0,0,0,0,0,0,0,0,0,0,0,0,0,0,0,0,0,0,0,0,0,0,0,0,0,0,0,0,0],"id":11,"left_children":[1,3,5,7,9,11,13,15,17,19,21,23,25,27,29,-1,-1,-1,-1,-1,-1,-1,-1,-1,-1,-1,-1,-1,-1,-1,-1],"loss_changes":[7.016534E3,6.6364917E3,1.248396E3,2.6394434E2,1.4673042E3,3.7018524E2,2.6053076E2,9.826489E1,2.5169737E2,8.280083E2,2.4054302E3,2.3673096E1,3.133917E2,5.223843E2,1.0819092E1,0E0,0E0,0E0,0E0,0E0,0E0,0E0,0E0,0E0,0E0,0E0,0E0,0E0,0E0,0E0,0E0],"parents":[2147483647,0,0,1,1,2,2,3,3,4,4,5,5,6,6,7,7,8,8,9,9,10,10,11,11,12,12,13,13,14,14],"right_children":[2,4,6,8,10,12,14,16,18,20,22,24,26,28,30,-1,-1,-1,-1,-1,-1,-1,-1,-1,-1,-1,-1,-1,-1,-1,-1],"split_conditions":[2E1,5E0,2.2E1,4E0,7E0,4E0,7E0,2E0,7E0,1.8E1,7E0,3E0,7E0,5E0,2.3E1,-4.208922E-1,-2.7568963E-1,-5.522375E-2,-4.004414E-1,1.6816291E-1,1.9818183E-2,-5.5779785E-1,4.8077147E-2,-1.6061439E-1,-2.3110218E-1,1.0700854E-2,-1.5211909E-1,-3.070551E-1,-1.376146E-1,-4.1856763E-1,-3.3784398E-1],"split_indices":[1,1,1,1,0,0,0,0,0,1,1,0,0,0,1,0,0,0,0,0,0,0,0,0,0,0,0,0,0,0,0],"split_type":[0,0,0,0,0,0,0,0,0,0,0,0,0,0,0,0,0,0,0,0,0,0,0,0,0,0,0,0,0,0,0],"sum_hessian":[6.007E3,4.327E3,1.68E3,5.46E2,3.781E3,7.88E2,8.92E2,4.21E2,1.25E2,2.982E3,7.99E2,2.27E2,5.61E2,7.38E2,1.54E2,5.8E1,3.63E2,9.9E1,2.6E1,2.54E3,4.42E2,7.1E1,7.28E2,1.37E2,9E1,3.93E2,1.68E2,3.99E2,3.39E2,6.4E1,9E1],"tree_param":{"num_deleted":"0","num_feature":"2","num_nodes":"31","size_leaf_vector":"1"}},{"base_weights":[-4.7263284E-3,6.0156596E-1,-1.5657189E0,-1.6146191E0,1.1733099E0,-7.385514E-1,-2.2947998E0,-3.3963266E-1,-3.5734851E0,1.3641055E0,1.8929926E-1,-1.7067875E0,-3.4442976E-1,-1.7521194E0,-2.8110263E0,-2.6614103E-1,1.83357E-1,-2.694136E-1,-4.9048468E-1,6.7658246E-2,1.9076356E-1,-8.5817896E-2,4.4725657E-2,-1.4466937E-1,-2.0824595E-1,9.633453E-3,-1.3699724E-1,-1.3961169E-1,-3.773548E-1,-3.0761826E-1,-2.5721687E-1],"categories":[],"categories_nodes":[],"categories_segments":[],"categories_sizes":[],"default_left":[0,0,0,0,0,0,0,0,0,0,0,0,0,0,0,0,0,0,0,0,0,0,0,0,0,0,0,0,0,0,0],"id":12,"left_children":[1,3,5,7,9,11,13,15,17,19,21,23,25,27,29,-1,-1,-1,-1,-1,-1,-1,-1,-1,-1,-1,-1,-1,-1,-1,-1],"loss_changes":[5.6870195E3,5.4858613E3,1.0120698E3,2.216591E3,6.45772E2,3.0049673E2,2.4524512E2,2.7245083E3,3.965415E2,1.0756821E3,1.5169844E2,1.9265137E1,2.5416864E2,3.0993127E2,2.0968018E1,0E0,0E0,0E0,0E0,0E0,0E0,0E0,0E0,0E0,0E0,0E0,0E0,0E0,0E0,0E0,0E0],"parents":[2147483647,0,0,1,1,2,2,3,3,4,4,5,5,6,6,7,7,8,8,9,9,10,10,11,11,12,12,13,13,14,14],"right_children":[2,4,6,8,10,12,14,16,18,20,22,24,26,28,30,-1,-1,-1,-1,-1,-1,-1,-1,-1,-1,-1,-1,-1,-1,-1,-1],"split_conditions":[2E1,7E0,2.2E1,6E0,1.8E1,4E0,2.3E1,4E0,5E0,1.2E1,3E0,3E0,7E0,7E0,5E0,-2.6614103E-1,1.83357E-1,-2.694136E-1,-4.9048468E-1,6.7658246E-2,1.9076356E-1,-8.5817896E-2,4.4725657E-2,-1.4466937E-1,-2.0824595E-1,9.633453E-3,-1.3699724E-1,-1.3961169E-1,-3.773548E-1,-3.0761826E-1,-2.5721687E-1],"split_indices":[1,1,1,0,1,0,1,1,1,1,0,0,0,0,0,0,0,0,0,0,0,0,0,0,0,0,0,0,0,0,0],"split_type":[0,0,0,0,0,0,0,0,0,0,0,0,0,0,0,0,0,0,0,0,0,0,0,0,0,0,0,0,0,0,0],"sum_hessian":[6.007E3,4.327E3,1.68E3,8.87E2,3.44E3,7.88E2,8.92E2,5.38E2,3.49E2,2.881E3,5.59E2,2.27E2,5.61E2,4.37E2,4.55E2,2.6E2,2.78E2,2.12E2,1.37E2,1.273E3,1.608E3,1.1E2,4.49E2,1.37E2,9E1,3.93E2,1.68E2,3.73E2,6.4E1,2.1E2,2.45E2],"tree_param":{"num_deleted":"0","num_feature":"2","num_nodes":"31","size_leaf_vector":"1"}},{"base_weights":[-4.61766E-3,5.412651E-1,-1.4100761E0,-2.1244423E0,9.266698E-1,-6.653047E-1,-2.0665314E0,-2.7084315E0,-1.528393E0,1.4362317E0,3.0176142E-1,-1.3742431E0,-1.9624595E-1,-1.578088E0,-2.5311625E0,-1.19150296E-1,-2.9691264E-1,2.4208969E-2,-2.2635262E-1,1.6347276E-1,3.455922E-2,-4.4179162E-1,7.18277E-2,-1.9827361E-1,-1.197982E-1,3.7369065E-2,-1.23378575E-1,-1.2568788E-1,-3.401999E-1,-2.7700225E-1,-2.3159976E-1],"categories":[],"categories_nodes":[],"categories_segments":[],"categories_sizes":[],"default_left":[0,0,0,0,0,0,0,0,0,0,0,0,0,0,0,0,0,0,0,0,0,0,0,0,0,0,0,0,0,0,0],"id":13,"left_children":[1,3,5,7,9,11,13,15,17,19,21,23,25,27,29,-1,-1,-1,-1,-1,-1,-1,-1,-1,-1,-1,-1,-1,-1,-1,-1],"loss_changes":[4.6101943E3,4.448453E3,8.204817E2,1.8626367E2,1.2038667E3,2.620995E2,1.9866846E2,1.0521228E2,3.558686E2,4.5037842E2,3.345066E3,3.1302307E1,2.8193503E2,2.5232947E2,1.7020508E1,0E0,0E0,0E0,0E0,0E0,0E0,0E0,0E0,0E0,0E0,0E0,0E0,0E0,0E0,0E0,0E0],"parents":[2147483647,0,0,1,1,2,2,3,3,4,4,5,5,6,6,7,7,8,8,9,9,10,10,11,11,12,12,13,13,14,14],"right_children":[2,4,6,8,10,12,14,16,18,20,22,24,26,28,30,-1,-1,-1,-1,-1,-1,-1,-1,-1,-1,-1,-1,-1,-1,-1,-1],"split_conditions":[2E1,5E0,2.2E1,3E0,6E0,5E0,2.3E1,2E0,3E0,1.8E1,7E0,2E0,7E0,7E0,5E0,-1.19150296E-1,-2.9691264E-1,2.4208969E-2,-2.2635262E-1,1.6347276E-1,3.455922E-2,-4.4179162E-1,7.18277E-2,-1.9827361E-1,-1.197982E-1,3.7369065E-2,-1.23378575E-1,-1.2568788E-1,-3.401999E-1,-2.7700225E-1,-2.3159976E-1],"split_indices":[1,1,1,1,0,0,1,1,0,1,1,0,0,0,0,0,0,0,0,0,0,0,0,0,0,0,0,0,0,0,0],"split_type":[0,0,0,0,0,0,0,0,0,0,0,0,0,0,0,0,0,0,0,0,0,0,0,0,0,0,0,0,0,0,0],"sum_hessian":[6.007E3,4.327E3,1.68E3,5.46E2,3.781E3,7.88E2,8.92E2,2.74E2,2.72E2,2.082E3,1.699E3,3.13E2,4.75E2,4.37E2,4.55E2,4.1E1,2.33E2,8E1,1.92E2,1.761E3,3.21E2,1.37E2,1.562E3,6.8E1,2.45E2,3.07E2,1.68E2,3.73E2,6.4E1,2.1E2,2.45E2],"tree_param":{"num_deleted":"0","num_feature":"2","num_nodes":"31","size_leaf_vector":"1"}},{"base_weights":[-4.516822E-3,4.218552E-1,-1.4634024E0,-1.9131283E0,7.3296976E-1,-1.0502944E0,-2.2791615E0,-2.4391012E0,-1.3762941E0,9.9748224E-1,-2.5865263E-1,-1.730216E0,-5.78105E-1,-2.4943328E-1,-2.0853393E0,-3.0168983E-1,-1.8436295E-1,2.1817958E-2,-2.0383464E-1,1.2686747E-1,1.1628385E-3,-4.1086003E-1,9.078677E-3,-1.2911096E-1,-2.1394162E-1,-6.077239E-3,-1.7078686E-1,-1.7945825E-1,-2.5608635E-1],"categories":[],"categories_nodes":[],"categories_segments":[],"categories_sizes":[],"default_left":[0,0,0,0,0,0,0,0,0,0,0,0,0,0,0,0,0,0,0,0,0,0,0,0,0,0,0,0,0],"id":14,"left_children":[1,3,5,7,9,11,13,15,17,19,21,23,25,-1,27,-1,-1,-1,-1,-1,-1,-1,-1,-1,-1,-1,-1,-1,-1],"loss_changes":[3.7377615E3,3.3793823E3,4.5558472E2,1.5109424E2,1.0767229E3,2.892306E2,1.3815918E1,8.905493E1,2.886303E2,8.662195E2,1.1640776E3,6.3720337E1,3.125842E2,0E0,2.9416748E1,0E0,0E0,0E0,0E0,0E0,0E0,0E0,0E0,0E0,0E0,0E0,0E0,0E0,0E0],"parents":[2147483647,0,0,1,1,2,2,3,3,4,4,5,5,6,6,7,7,8,8,9,9,10,10,11,11,12,12,14,14],"right_children":[2,4,6,8,10,12,14,16,18,20,22,24,26,-1,28,-1,-1,-1,-1,-1,-1,-1,-1,-1,-1,-1,-1,-1,-1],"split_conditions":[2.1E1,5E0,2.3E1,3E0,7E0,5E0,5E0,6E0,3E0,1.8E1,7E0,2.2E1,7E0,-2.4943328E-1,7E0,-3.0168983E-1,-1.8436295E-1,2.1817958E-2,-2.0383464E-1,1.2686747E-1,1.1628385E-3,-4.1086003E-1,9.078677E-3,-1.2911096E-1,-2.1394162E-1,-6.077239E-3,-1.7078686E-1,-1.7945825E-1,-2.5608635E-1],"split_indices":[1,1,1,1,0,0,0,0,0,1,1,1,0,0,0,0,0,0,0,0,0,0,0,0,0,0,0,0,0],"split_type":[0,0,0,0,0,0,0,0,0,0,0,0,0,0,0,0,0,0,0,0,0,0,0,0,0,0,0,0,0],"sum_hessian":[6.007E3,4.649E3,1.358E3,5.46E2,4.103E3,9.03E2,4.55E2,2.74E2,2.72E2,3.239E3,8.64E2,3.69E2,5.34E2,2.1E2,2.45E2,1.37E2,1.37E2,8E1,1.92E2,2.54E3,6.99E2,7.1E1,7.93E2,1.8E2,1.89E2,3.67E2,1.67E2,1.55E2,9E1],"tree_param":{"num_deleted":"0","num_feature":"2","num_nodes":"29","size_leaf_vector":"1"}},{"base_weights":[-4.4223913E-3,4.4161975E-1,-1.1528257E0,-1.1819638E0,8.604807E-1,-5.4725283E-1,-1.6865817E0,-1.8426837E-1,-2.7150378E0,4.3377336E-2,1.0624456E0,-1.1643109E0,-1.3905217E-1,-1.4989173E0,-2.5704358E0,-1.9965081E-1,1.5117131E-1,-1.9808169E-1,-3.8286176E-1,-1.1214061E-1,4.5615524E-2,1.4193116E-1,3.498835E-2,-1.7488332E-1,-9.956267E-2,3.3958577E-2,-1.0105399E-1,-2.0999435E-1,-7.874195E-2,-2.898873E-1,-2.3075913E-1],"categories":[],"categories_nodes":[],"categories_segments":[],"categories_sizes":[],"default_left":[0,0,0,0,0,0,0,0,0,0,0,0,0,0,0,0,0,0,0,0,0,0,0,0,0,0,0,0,0,0,0],"id":15,"left_children":[1,3,5,7,9,11,13,15,17,19,21,23,25,27,29,-1,-1,-1,-1,-1,-1,-1,-1,-1,-1,-1,-1,-1,-1,-1,-1],"loss_changes":[3.078025E3,2.944298E3,5.424236E2,1.3577319E3,5.678093E2,1.9857423E2,1.4426709E2,1.6596482E3,2.7858105E2,3.2889578E2,7.0108716E2,2.9219116E1,1.9889565E2,3.143639E2,6.6914062E0,0E0,0E0,0E0,0E0,0E0,0E0,0E0,0E0,0E0,0E0,0E0,0E0,0E0,0E0,0E0,0E0],"parents":[2147483647,0,0,1,1,2,2,3,3,4,4,5,5,6,6,7,7,8,8,9,9,10,10,11,11,12,12,13,13,14,14],"right_children":[2,4,6,8,10,12,14,16,18,20,22,24,26,28,30,-1,-1,-1,-1,-1,-1,-1,-1,-1,-1,-1,-1,-1,-1,-1,-1],"split_conditions":[2E1,7E0,2.2E1,6E0,1E1,5E0,7E0,4E0,5E0,3E0,1.7E1,2E0,7E0,5E0,2.3E1,-1.9965081E-1,1.5117131E-1,-1.9808169E-1,-3.8286176E-1,-1.1214061E-1,4.5615524E-2,1.4193116E-1,3.498835E-2,-1.7488332E-1,-9.956267E-2,3.3958577E-2,-1.0105399E-1,-2.0999435E-1,-7.874195E-2,-2.898873E-1,-2.3075913E-1],"split_indices":[1,1,1,0,1,0,0,1,1,0,1,0,0,0,1,0,0,0,0,0,0,0,0,0,0,0,0,0,0,0,0],"split_type":[0,0,0,0,0,0,0,0,0,0,0,0,0,0,0,0,0,0,0,0,0,0,0,0,0,0,0,0,0,0,0],"sum_hessian":[6.007E3,4.327E3,1.68E3,8.87E2,3.44E3,7.88E2,8.92E2,5.38E2,3.49E2,6.82E2,2.758E3,3.13E2,4.75E2,7.38E2,1.54E2,2.6E2,2.78E2,2.12E2,1.37E2,1.78E2,5.04E2,1.837E3,9.21E2,6.8E1,2.45E2,3.07E2,1.68E2,3.99E2,3.39E2,6.4E1,9E1],"tree_param":{"num_deleted":"0","num_feature":"2","num_nodes":"31","size_leaf_vector":"1"}},{"base_weights":[-4.2582247E-3,3.9733768E-1,-1.0382278E0,-1.5718198E0,6.820367E-1,-7.229039E-1,-1.8837295E0,-7.5339586E-1,-1.8175018E0,1.101703E0,1.6742076E-1,-1.3035268E0,-3.185169E-1,-2.0370822E-1,-1.7445376E0,-1.9042258E-1,1.3394795E-1,-2.4711637E-1,-1.4888617E-1,6.4828835E-2,1.4488097E-1,-3.4485298E-1,4.8657224E-2,-1.048754E-1,-1.7177117E-1,1.8917046E-2,-1.3891765E-1,-1.538037E-1,-2.079368E-1],"categories":[],"categories_nodes":[],"categories_segments":[],"categories_sizes":[],"default_left":[0,0,0,0,0,0,0,0,0,0,0,0,0,0,0,0,0,0,0,0,0,0,0,0,0,0,0,0,0],"id":16,"left_children":[1,3,5,7,9,11,13,15,17,19,21,23,25,-1,27,-1,-1,-1,-1,-1,-1,-1,-1,-1,-1,-1,-1,-1,-1],"loss_changes":[2.4951619E3,2.4274233E3,4.4680432E2,1.08617065E2,8.1660254E2,2.8744507E2,6.1798096E0,3.1084424E2,8.654492E1,3.2689014E2,1.963539E3,5.1276672E1,3.9380045E2,0E0,1.3810852E1,0E0,0E0,0E0,0E0,0E0,0E0,0E0,0E0,0E0,0E0,0E0,0E0,0E0,0E0],"parents":[2147483647,0,0,1,1,2,2,3,3,4,4,5,5,6,6,7,7,8,8,9,9,10,10,11,11,12,12,14,14],"right_children":[2,4,6,8,10,12,14,16,18,20,22,24,26,-1,28,-1,-1,-1,-1,-1,-1,-1,-1,-1,-1,-1,-1,-1,-1],"split_conditions":[2E1,5E0,2.3E1,3E0,6E0,5E0,5E0,2E0,5E0,1.2E1,7E0,2.2E1,7E0,-2.0370822E-1,7E0,-1.9042258E-1,1.3394795E-1,-2.4711637E-1,-1.4888617E-1,6.4828835E-2,1.4488097E-1,-3.4485298E-1,4.8657224E-2,-1.048754E-1,-1.7177117E-1,1.8917046E-2,-1.3891765E-1,-1.538037E-1,-2.079368E-1],"split_indices":[1,1,1,0,0,0,0,0,0,1,1,1,0,0,0,0,0,0,0,0,0,0,0,0,0,0,0,0,0],"split_type":[0,0,0,0,0,0,0,0,0,0,0,0,0,0,0,0,0,0,0,0,0,0,0,0,0,0,0,0,0],"sum_hessian":[6.007E3,4.327E3,1.68E3,5.46E2,3.781E3,1.225E3,4.55E2,1.27E2,4.19E2,2.082E3,1.699E3,5.02E2,7.23E2,2.1E2,2.45E2,8.2E1,4.5E1,1.38E2,2.81E2,9.04E2,1.178E3,1.37E2,1.562E3,3.13E2,1.89E2,4.91E2,2.32E2,1.55E2,9E1],"tree_param":{"num_deleted":"0","num_feature":"2","num_nodes":"29","size_leaf_vector":"1"}},{"base_weights":[-4.082012E-3,3.0970675E-1,-1.0777491E0,-1.415465E0,5.395701E-1,-7.6439494E-1,-1.6965965E0,-1.856429E0,-9.660855E-1,7.575063E-1,-2.7736974E-1,-1.2593802E0,-4.206399E-1,-1.8343396E0,-1.5715543E0,-4.9423102E-2,-2.0929925E-1,-5.124244E-2,-2.9307982E-1,9.801963E-2,-5.194036E-3,-2.0790453E-1,2.1922922E-2,-9.506641E-2,-1.5468447E-1,-5.109368E-3,-1.2276184E-1,-2.0794053E-1,-1.7553797E-1,-1.3852191E-1,-1.8737161E-1],"categories":[],"categories_nodes":[],"categories_segments":[],"categories_sizes":[],"default_left":[0,0,0,0,0,0,0,0,0,0,0,0,0,0,0,0,0,0,0,0,0,0,0,0,0,0,0,0,0,0,0],"id":17,"left_children":[1,3,5,7,9,11,13,15,17,19,21,23,25,27,29,-1,-1,-1,-1,-1,-1,-1,-1,-1,-1,-1,-1,-1,-1,-1,-1],"loss_changes":[2.0244569E3,1.8447386E3,2.6223828E2,1.0660022E2,7.308895E2,1.5328918E2,4.9713135E0,8.7583435E1,2.4182683E2,5.840791E2,7.743801E2,3.1365112E1,1.5948276E2,4.328003E-1,1.1255127E1,0E0,0E0,0E0,0E0,0E0,0E0,0E0,0E0,0E0,0E0,0E0,0E0,0E0,0E0,0E0,0E0],"parents":[2147483647,0,0,1,1,2,2,3,3,4,4,5,5,6,6,7,7,8,8,9,9,10,10,11,11,12,12,13,13,14,14],"right_children":[2,4,6,8,10,12,14,16,18,20,22,24,26,28,30,-1,-1,-1,-1,-1,-1,-1,-1,-1,-1,-1,-1,-1,-1,-1,-1],"split_conditions":[2.1E1,5E0,2.3E1,3E0,7E0,5E0,5E0,2E0,7E0,1.8E1,1E1,2.2E1,7E0,2E0,7E0,-4.9423102E-2,-2.0929925E-1,-5.124244E-2,-2.9307982E-1,9.801963E-2,-5.194036E-3,-2.0790453E-1,2.1922922E-2,-9.506641E-2,-1.5468447E-1,-5.109368E-3,-1.2276184E-1,-2.0794053E-1,-1.7553797E-1,-1.3852191E-1,-1.8737161E-1],"split_indices":[1,1,1,1,0,0,0,1,0,1,1,1,0,0,0,0,0,0,0,0,0,0,0,0,0,0,0,0,0,0,0],"split_type":[0,0,0,0,0,0,0,0,0,0,0,0,0,0,0,0,0,0,0,0,0,0,0,0,0,0,0,0,0,0,0],"sum_hessian":[6.007E3,4.649E3,1.358E3,5.46E2,4.103E3,9.03E2,4.55E2,2.74E2,2.72E2,3.239E3,8.64E2,3.69E2,5.34E2,2.1E2,2.45E2,4.1E1,2.33E2,2.22E2,5E1,2.54E3,6.99E2,1.86E2,6.78E2,1.8E2,1.89E2,3.67E2,1.67E2,4.5E1,1.65E2,1.55E2,9E1],"tree_param":{"num_deleted":"0","num_feature":"2","num_nodes":"31","size_leaf_vector":"1"}},{"base_weights":[-3.9710174E-3,3.2406422E-1,-8.4854716E-1,-5.1301116E-1,8.0028176E-1,-3.9035213E-1,-1.25243E0,-2.0525536E-1,-1.9058586E0,1.1108115E0,1.803752E-1,-1.0326785E0,-1.2906963E-1,-1.0983069E0,-1.9791691E0,-1.4184734E-1,2.4943491E-2,-2.3158096E-1,-1.292173E-1,4.961631E-2,1.4017186E-1,9.3719296E-2,-8.1839286E-2,-7.578265E-2,-1.4381391E-1,1.1855165E-2,-7.0560046E-2,-1.5334742E-1,-5.83115E-2,-2.3557924E-1,-1.6884035E-1],"categories":[],"categories_nodes":[],"categories_segments":[],"categories_sizes":[],"default_left":[0,0,0,0,0,0,0,0,0,0,0,0,0,0,0,0,0,0,0,0,0,0,0,0,0,0,0,0,0,0,0],"id":18,"left_children":[1,3,5,7,9,11,13,15,17,19,21,23,25,27,29,-1,-1,-1,-1,-1,-1,-1,-1,-1,-1,-1,-1,-1,-1,-1,-1],"loss_changes":[1.6647959E3,1.7256813E3,3.1059204E2,6.726001E2,5.309055E2,1.322835E2,9.7848755E1,7.103125E2,6.845654E1,3.2794897E2,6.976933E2,2.4318848E1,8.03155E1,1.6478577E2,1.2996338E1,0E0,0E0,0E0,0E0,0E0,0E0,0E0,0E0,0E0,0E0,0E0,0E0,0E0,0E0,0E0,0E0],"parents":[2147483647,0,0,1,1,2,2,3,3,4,4,5,5,6,6,7,7,8,8,9,9,10,10,11,11,12,12,13,13,14,14],"right_children":[2,4,6,8,10,12,14,16,18,20,22,24,26,28,30,-1,-1,-1,-1,-1,-1,-1,-1,-1,-1,-1,-1,-1,-1,-1,-1],"split_conditions":[2E1,1E1,2.2E1,7E0,1.7E1,4E0,7E0,4E0,7E0,1.2E1,6E0,3E0,7E0,5E0,2.3E1,-1.4184734E-1,2.4943491E-2,-2.3158096E-1,-1.292173E-1,4.961631E-2,1.4017186E-1,9.3719296E-2,-8.1839286E-2,-7.578265E-2,-1.4381391E-1,1.1855165E-2,-7.0560046E-2,-1.5334742E-1,-5.83115E-2,-2.3557924E-1,-1.6884035E-1],"split_indices":[1,1,1,0,1,0,0,1,1,1,0,0,0,0,1,0,0,0,0,0,0,0,0,0,0,0,0,0,0,0,0],"split_type":[0,0,0,0,0,0,0,0,0,0,0,0,0,0,0,0,0,0,0,0,0,0,0,0,0,0,0,0,0,0,0],"sum_hessian":[6.007E3,4.327E3,1.68E3,1.569E3,2.758E3,7.88E2,8.92E2,1.286E3,2.83E2,1.837E3,9.21E2,2.27E2,5.61E2,7.38E2,1.54E2,3.5E2,9.36E2,1.68E2,1.15E2,5.91E2,1.246E3,5.24E2,3.97E2,1.37E2,9E1,3.93E2,1.68E2,3.99E2,3.39E2,6.4E1,9E1],"tree_param":{"num_deleted":"0","num_feature":"2","num_nodes":"31","size_leaf_vector":"1"}},{"base_weights":[-3.7686336E-3,2.9159412E-1,-7.642244E-1,-4.6201473E-1,7.203271E-1,-5.253717E-1,-1.4047272E0,-1.8482116E-1,-1.7165433E0,9.998343E-1,1.6235039E-1,-9.782436E-1,-2.1001258E-1,-1.7259713E-1,-1.3653551E0,-1.628025E-1,1.2577816E-2,-2.085599E-1,-1.16406955E-1,4.4663105E-2,1.2616599E-1,8.43652E-2,-7.367593E-2,-1.4411494E-1,-7.9927884E-2,1.8982247E-2,-1.0533982E-1,-1.3168594E-1,-1.5214185E-1],"categories":[],"categories_nodes":[],"categories_segments":[],"categories_sizes":[],"default_left":[0,0,0,0,0,0,0,0,0,0,0,0,0,0,0,0,0,0,0,0,0,0,0,0,0,0,0,0,0],"id":19,"left_children":[1,3,5,7,9,11,13,15,17,19,21,23,25,-1,27,-1,-1,-1,-1,-1,-1,-1,-1,-1,-1,-1,-1,-1,-1],"loss_changes":[1.3496816E3,1.3986964E3,2.5643115E2,5.456459E2,4.3012708E2,1.7488855E2,3.4110718E0,5.771129E2,5.5478027E1,2.656576E2,5.654063E2,4.0518555E1,2.4434369E2,0E0,1.1070557E0,0E0,0E0,0E0,0E0,0E0,0E0,0E0,0E0,0E0,0E0,0E0,0E0,0E0,0E0],"parents":[2147483647,0,0,1,1,2,2,3,3,4,4,5,5,6,6,7,7,8,8,9,9,10,10,11,11,12,12,14,14],"right_children":[2,4,6,8,10,12,14,16,18,20,22,24,26,-1,28,-1,-1,-1,-1,-1,-1,-1,-1,-1,-1,-1,-1,-1,-1],"split_conditions":[2E1,1E1,2.3E1,7E0,1.7E1,5E0,2E0,3E0,7E0,1.2E1,6E0,2E0,7E0,-1.7259713E-1,7E0,-1.628025E-1,1.2577816E-2,-2.085599E-1,-1.16406955E-1,4.4663105E-2,1.2616599E-1,8.43652E-2,-7.367593E-2,-1.4411494E-1,-7.9927884E-2,1.8982247E-2,-1.0533982E-1,-1.3168594E-1,-1.5214185E-1],"split_indices":[1,1,1,0,1,0,0,1,1,1,0,0,0,0,0,0,0,0,0,0,0,0,0,0,0,0,0,0,0],"split_type":[0,0,0,0,0,0,0,0,0,0,0,0,0,0,0,0,0,0,0,0,0,0,0,0,0,0,0,0,0],"sum_hessian":[6.007E3,4.327E3,1.68E3,1.569E3,2.758E3,1.225E3,4.55E2,1.286E3,2.83E2,1.837E3,9.21E2,5.02E2,7.23E2,4.5E1,4.1E2,2.27E2,1.059E3,1.68E2,1.15E2,5.91E2,1.246E3,5.24E2,3.97E2,1.38E2,3.64E2,4.91E2,2.32E2,3.2E2,9E1],"tree_param":{"num_deleted":"0","num_feature":"2","num_nodes":"29","size_leaf_vector":"1"}},{"base_weights":[-3.568008E-3,1.7578377E-1,-1.031071E0,-1.0482665E0,3.2225636E-1,-8.9943486E-1,-1.6520256E0,-4.0823492E-1,-1.2408278E0,5.260231E-1,-2.615847E-1,-1.5412328E0,-6.4849377E-1,-2.0201182E-1,-1.3709483E-1,-1.4976077E-1,1.5662472E-1,-1.9662642E-1,-8.7885454E-2,9.79012E-3,9.1547675E-2,-7.981443E-2,4.4757687E-3,-1.7813398E-1,-1.3257338E-1,-1.5448178E-2,-1.19052075E-1],"categories":[],"categories_nodes":[],"categories_segments":[],"categories_sizes":[],"default_left":[0,0,0,0,0,0,0,0,0,0,0,0,0,0,0,0,0,0,0,0,0,0,0,0,0,0,0],"id":20,"left_children":[1,3,5,7,9,11,13,15,17,19,21,23,25,-1,-1,-1,-1,-1,-1,-1,-1,-1,-1,-1,-1,-1,-1],"loss_changes":[1.1073623E3,9.175844E2,7.150787E1,6.690863E1,5.4381854E2,1.18019104E2,1.3267212E1,2.7766684E2,1.0855908E2,5.648041E2,1.944865E2,8.349213E0,1.4253635E2,0E0,0E0,0E0,0E0,0E0,0E0,0E0,0E0,0E0,0E0,0E0,0E0,0E0,0E0],"parents":[2147483647,0,0,1,1,2,2,3,3,4,4,5,5,6,6,7,7,8,8,9,9,10,10,11,11,12,12],"right_children":[2,4,6,8,10,12,14,16,18,20,22,24,26,-1,-1,-1,-1,-1,-1,-1,-1,-1,-1,-1,-1,-1,-1],"split_conditions":[2.2E1,5E0,7E0,3E0,1.9E1,3E0,2.3E1,2E0,5E0,1.2E1,5E0,2.3E1,2.3E1,-2.0201182E-1,-1.3709483E-1,-1.4976077E-1,1.5662472E-1,-1.9662642E-1,-8.7885454E-2,9.79012E-3,9.1547675E-2,-7.981443E-2,4.4757687E-3,-1.7813398E-1,-1.3257338E-1,-1.5448178E-2,-1.19052075E-1],"split_indices":[1,1,0,0,1,0,1,0,0,1,0,1,1,0,0,0,0,0,0,0,0,0,0,0,0,0,0],"split_type":[0,0,0,0,0,0,0,0,0,0,0,0,0,0,0,0,0,0,0,0,0,0,0,0,0,0,0],"sum_hessian":[6.007E3,5.115E3,8.92E2,5.46E2,4.569E3,7.38E2,1.54E2,1.27E2,4.19E2,3.387E3,1.182E3,2.06E2,5.32E2,6.4E1,9E1,8.2E1,4.5E1,1.38E2,2.81E2,1.614E3,1.773E3,4.29E2,7.53E2,9.4E1,1.12E2,2.79E2,2.53E2],"tree_param":{"num_deleted":"0","num_feature":"2","num_nodes":"27","size_leaf_vector":"1"}},{"base_weights":[-3.3835303E-3,1.581563E-1,-9.28842E-1,-7.825236E-1,3.1290218E-1,-8.1009376E-1,-1.4890107E0,3.4286392E-1,-1.1425339E0,5.342335E-1,-1.8762407E-1,-1.1459551E0,-4.1258013E-1,-1.821214E-1,-1.2353598E-1,-1.3496512E-1,1.8336712E-1,-6.809824E-2,-1.5851016E-1,7.628512E-2,-2.581749E-2,-7.866469E-2,-5.25239E-3,-1.3886105E-1,-8.811324E-2,3.4828733E-3,-9.4051644E-2],"categories":[],"categories_nodes":[],"categories_segments":[],"categories_sizes":[],"default_left":[0,0,0,0,0,0,0,0,0,0,0,0,0,0,0,0,0,0,0,0,0,0,0,0,0,0,0],"id":21,"left_children":[1,3,5,7,9,11,13,15,17,19,21,23,25,-1,-1,-1,-1,-1,-1,-1,-1,-1,-1,-1,-1,-1,-1],"loss_changes":[8.983334E2,7.449623E2,5.819525E1,2.9331598E2,4.8687695E2,9.8190674E1,1.0811005E1,4.4656046E2,1.10859314E2,5.52187E2,1.0904975E2,2.4480652E1,8.0341896E1,0E0,0E0,0E0,0E0,0E0,0E0,0E0,0E0,0E0,0E0,0E0,0E0,0E0,0E0],"parents":[2147483647,0,0,1,1,2,2,3,3,4,4,5,5,6,6,7,7,8,8,9,9,10,10,11,11,12,12],"right_children":[2,4,6,8,10,12,14,16,18,20,22,24,26,-1,-1,-1,-1,-1,-1,-1,-1,-1,-1,-1,-1,-1,-1],"split_conditions":[2.2E1,6E0,7E0,3E0,1.8E1,5E0,2.3E1,2E0,6E0,7E0,3E0,3E0,2.3E1,-1.821214E-1,-1.2353598E-1,-1.3496512E-1,1.8336712E-1,-6.809824E-2,-1.5851016E-1,7.628512E-2,-2.581749E-2,-7.866469E-2,-5.25239E-3,-1.3886105E-1,-8.811324E-2,3.4828733E-3,-9.4051644E-2],"split_indices":[1,1,0,0,1,0,1,0,0,0,0,0,1,0,0,0,0,0,0,0,0,0,0,0,0,0,0],"split_type":[0,0,0,0,0,0,0,0,0,0,0,0,0,0,0,0,0,0,0,0,0,0,0,0,0,0,0],"sum_hessian":[6.007E3,5.115E3,8.92E2,7.22E2,4.393E3,7.38E2,1.54E2,1.75E2,5.47E2,3.046E3,1.347E3,3.99E2,3.39E2,6.4E1,9E1,8.2E1,9.3E1,2.69E2,2.78E2,2.364E3,6.82E2,2.47E2,1.1E3,2.06E2,1.93E2,1.84E2,1.55E2],"tree_param":{"num_deleted":"0","num_feature":"2","num_nodes":"27","size_leaf_vector":"1"}},{"base_weights":[-3.1837334E-3,1.8611757E-1,-6.509011E-1,-3.792854E-1,4.741723E-1,-4.5885932E-1,-1.0301881E0,-1.4241351E-1,-1.4513799E0,7.809908E-1,2.0469282E-2,-7.5859857E-1,-2.5070533E-1,-1.2915924E-1,-9.9842465E-1,-1.2949698E-1,1.0562914E-2,-5.014324E-2,-1.6376504E-1,1.9968477E-1,6.811172E-2,4.19086E-2,-4.6243846E-2,-5.7588067E-2,-9.286689E-2,-3.529846E-3,-7.210567E-2,-9.6278206E-2,-1.1131813E-1],"categories":[],"categories_nodes":[],"categories_segments":[],"categories_sizes":[],"default_left":[0,0,0,0,0,0,0,0,0,0,0,0,0,0,0,0,0,0,0,0,0,0,0,0,0,0,0,0,0],"id":22,"left_children":[1,3,5,7,9,11,13,15,17,19,21,23,25,-1,27,-1,-1,-1,-1,-1,-1,-1,-1,-1,-1,-1,-1,-1,-1],"loss_changes":[7.3678455E2,7.5751135E2,9.851538E1,3.9849323E2,4.28873E2,5.6212128E1,2.4966736E0,3.6806833E2,4.9431885E1,2.2183179E2,2.396577E2,1.0962906E1,5.4179092E1,0E0,6.0931396E-1,0E0,0E0,0E0,0E0,0E0,0E0,0E0,0E0,0E0,0E0,0E0,0E0,0E0,0E0],"parents":[2147483647,0,0,1,1,2,2,3,3,4,4,5,5,6,6,7,7,8,8,9,9,10,10,11,11,12,12,14,14],"right_children":[2,4,6,8,10,12,14,16,18,20,22,24,26,-1,28,-1,-1,-1,-1,-1,-1,-1,-1,-1,-1,-1,-1,-1,-1],"split_conditions":[2.1E1,1E1,2.3E1,7E0,1.7E1,5E0,2E0,3E0,3E0,2E0,6E0,2.2E1,7E0,-1.2915924E-1,7E0,-1.2949698E-1,1.0562914E-2,-5.014324E-2,-1.6376504E-1,1.9968477E-1,6.811172E-2,4.19086E-2,-4.6243846E-2,-5.7588067E-2,-9.286689E-2,-3.529846E-3,-7.210567E-2,-9.6278206E-2,-1.1131813E-1],"split_indices":[1,1,1,0,1,0,0,1,1,0,0,1,0,0,0,0,0,0,0,0,0,0,0,0,0,0,0,0,0],"split_type":[0,0,0,0,0,0,0,0,0,0,0,0,0,0,0,0,0,0,0,0,0,0,0,0,0,0,0,0,0],"sum_hessian":[6.007E3,4.649E3,1.358E3,1.569E3,3.08E3,9.03E2,4.55E2,1.286E3,2.83E2,1.837E3,1.243E3,3.69E2,5.34E2,4.5E1,4.1E2,2.27E2,1.059E3,4.7E1,2.36E2,1.38E2,1.699E3,6.81E2,5.62E2,1.8E2,1.89E2,3.67E2,1.67E2,3.2E2,9E1],"tree_param":{"num_deleted":"0","num_feature":"2","num_nodes":"29","size_leaf_vector":"1"}},{"base_weights":[-2.9704964E-3,2.2818525E-1,-4.4121808E-1,-3.4156886E-1,6.063188E-1,-8.025604E-1,-2.0064552E-1,-1.2826456E-1,-1.3069952E0,1.2140905E0,3.742807E-1,-1.0615568E0,-7.275481E-1,7.155415E-2,-6.1570203E-1,-9.246859E-2,1.702116E-2,-4.5233384E-2,-1.4745764E-1,-5.274081E-2,1.7299847E-1,5.7623338E-2,-3.7574787E-2,-1.523671E-1,-8.918997E-2,-6.4235255E-2,-9.700273E-2,2.3340045E-2,-1.9410135E-2,-3.2578696E-2,-1.24767244E-1],"categories":[],"categories_nodes":[],"categories_segments":[],"categories_sizes":[],"default_left":[0,0,0,0,0,0,0,0,0,0,0,0,0,0,0,0,0,0,0,0,0,0,0,0,0,0,0,0,0,0,0],"id":23,"left_children":[1,3,5,7,9,11,13,15,17,19,21,23,25,27,29,-1,-1,-1,-1,-1,-1,-1,-1,-1,-1,-1,-1,-1,-1,-1,-1],"loss_changes":[6.0873175E2,8.477604E2,1.802167E2,3.231418E2,3.3307245E2,1.5333435E1,1.4092792E2,3.0609372E2,4.000894E1,5.875866E2,2.596851E2,1.3066818E1,1.2722076E1,3.2463806E1,9.010309E1,0E0,0E0,0E0,0E0,0E0,0E0,0E0,0E0,0E0,0E0,0E0,0E0,0E0,0E0,0E0,0E0],"parents":[2147483647,0,0,1,1,2,2,3,3,4,4,5,5,6,6,7,7,8,8,9,9,10,10,11,11,12,12,13,13,14,14],"right_children":[2,4,6,8,10,12,14,16,18,20,22,24,26,28,30,-1,-1,-1,-1,-1,-1,-1,-1,-1,-1,-1,-1,-1,-1,-1,-1],"split_conditions":[1.9E1,1E1,5E0,7E0,4E0,2E0,2.2E1,4E0,3E0,1.2E1,1.7E1,2.1E1,2.3E1,7E0,7E0,-9.246859E-2,1.702116E-2,-4.5233384E-2,-1.4745764E-1,-5.274081E-2,1.7299847E-1,5.7623338E-2,-3.7574787E-2,-1.523671E-1,-8.918997E-2,-6.4235255E-2,-9.700273E-2,2.3340045E-2,-1.9410135E-2,-3.2578696E-2,-1.24767244E-1],"split_indices":[1,1,0,0,0,0,1,1,1,1,1,1,1,0,0,0,0,0,0,0,0,0,0,0,0,0,0,0,0,0,0],"split_type":[0,0,0,0,0,0,0,0,0,0,0,0,0,0,0,0,0,0,0,0,0,0,0,0,0,0,0,0,0,0,0],"sum_hessian":[6.007E3,3.933E3,2.074E3,1.569E3,2.364E3,8.28E2,1.246E3,1.286E3,2.83E2,6.52E2,1.712E3,1.83E2,6.45E2,7.53E2,4.93E2,3.5E2,9.36E2,4.7E1,2.36E2,1.49E2,5.03E2,1.349E3,3.63E2,4.7E1,1.36E2,4.8E2,1.65E2,4.68E2,2.85E2,3.39E2,1.54E2],"tree_param":{"num_deleted":"0","num_feature":"2","num_nodes":"31","size_leaf_vector":"1"}},{"base_weights":[-2.7872191E-3,2.0533437E-1,-3.9736435E-1,-3.075827E-1,5.457464E-1,-7.227901E-1,-1.807041E-1,-1.1549672E-1,-1.1769739E0,1.0928653E0,3.3686465E-1,-9.567141E-1,-6.550427E-1,6.440386E-2,-5.5445045E-1,-1.0739775E-1,9.077604E-3,-1.4807643E-1,-7.242364E-2,-4.750196E-2,1.5573294E-1,5.1865317E-2,-3.382763E-2,-1.3744786E-1,-8.033608E-2,-5.3639896E-2,-8.034428E-2,2.1011E-2,-1.7475901E-2,-2.9330427E-2,-1.1237102E-1],"categories":[],"categories_nodes":[],"categories_segments":[],"categories_sizes":[],"default_left":[0,0,0,0,0,0,0,0,0,0,0,0,0,0,0,0,0,0,0,0,0,0,0,0,0,0,0,0,0,0,0],"id":24,"left_children":[1,3,5,7,9,11,13,15,17,19,21,23,25,27,29,-1,-1,-1,-1,-1,-1,-1,-1,-1,-1,-1,-1,-1,-1,-1,-1],"loss_changes":[4.9345865E2,6.870567E2,1.4617105E2,2.6205072E2,2.6991156E2,1.2511047E1,1.1427115E2,2.545483E2,3.798819E1,4.7627136E2,2.104168E2,1.0683868E1,1.0942993E1,2.6311733E1,7.3108444E1,0E0,0E0,0E0,0E0,0E0,0E0,0E0,0E0,0E0,0E0,0E0,0E0,0E0,0E0,0E0,0E0],"parents":[2147483647,0,0,1,1,2,2,3,3,4,4,5,5,6,6,7,7,8,8,9,9,10,10,11,11,12,12,13,13,14,14],"right_children":[2,4,6,8,10,12,14,16,18,20,22,24,26,28,30,-1,-1,-1,-1,-1,-1,-1,-1,-1,-1,-1,-1,-1,-1,-1,-1],"split_conditions":[1.9E1,1E1,5E0,7E0,4E0,2E0,2.2E1,3E0,7E0,1.2E1,1.7E1,2.1E1,2.2E1,7E0,7E0,-1.0739775E-1,9.077604E-3,-1.4807643E-1,-7.242364E-2,-4.750196E-2,1.5573294E-1,5.1865317E-2,-3.382763E-2,-1.3744786E-1,-8.033608E-2,-5.3639896E-2,-8.034428E-2,2.1011E-2,-1.7475901E-2,-2.9330427E-2,-1.1237102E-1],"split_indices":[1,1,0,0,0,0,1,1,1,1,1,1,1,0,0,0,0,0,0,0,0,0,0,0,0,0,0,0,0,0,0],"split_type":[0,0,0,0,0,0,0,0,0,0,0,0,0,0,0,0,0,0,0,0,0,0,0,0,0,0,0,0,0,0,0],"sum_hessian":[6.007E3,3.933E3,2.074E3,1.569E3,2.364E3,8.28E2,1.246E3,1.286E3,2.83E2,6.52E2,1.712E3,1.83E2,6.45E2,7.53E2,4.93E2,2.27E2,1.059E3,1.68E2,1.15E2,1.49E2,5.03E2,1.349E3,3.63E2,4.7E1,1.36E2,3.61E2,2.84E2,4.68E2,2.85E2,3.39E2,1.54E2],"tree_param":{"num_deleted":"0","num_feature":"2","num_nodes":"31","size_leaf_vector":"1"}},{"base_weights":[-2.621917E-3,1.3752116E-1,-4.8213825E-1,-5.550729E-1,2.649672E-1,-3.3178002E-1,-7.7915955E-1,4.0498215E-1,-8.6239886E-1,4.000722E-1,-2.139076E-1,-5.442967E-1,-1.841857E-1,-9.9940024E-2,-7.5261396E-1,-1.1080243E-1,1.7366263E-1,-5.0048437E-2,-1.2095477E-1,5.371665E-2,-6.36822E-3,-1.8780686E-1,-6.2731914E-3,-3.9539397E-2,-6.832814E-2,-2.2879352E-3,-5.364271E-2,-6.1266303E-2,-7.780909E-2],"categories":[],"categories_nodes":[],"categories_segments":[],"categories_sizes":[],"default_left":[0,0,0,0,0,0,0,0,0,0,0,0,0,0,0,0,0,0,0,0,0,0,0,0,0,0,0,0,0],"id":25,"left_children":[1,3,5,7,9,11,13,15,17,19,21,23,25,-1,27,-1,-1,-1,-1,-1,-1,-1,-1,-1,-1,-1,-1,-1,-1],"loss_changes":[4.038093E2,4.1059494E2,6.043393E1,2.1367029E2,2.5422086E2,2.8254837E1,1.9137878E0,3.565266E2,6.8244354E1,1.9483746E2,2.1749947E2,7.3870697E0,3.0385769E1,0E0,9.8872375E-1,0E0,0E0,0E0,0E0,0E0,0E0,0E0,0E0,0E0,0E0,0E0,0E0,0E0,0E0],"parents":[2147483647,0,0,1,1,2,2,3,3,4,4,5,5,6,6,7,7,8,8,9,9,10,10,11,11,12,12,14,14],"right_children":[2,4,6,8,10,12,14,16,18,20,22,24,26,-1,28,-1,-1,-1,-1,-1,-1,-1,-1,-1,-1,-1,-1,-1,-1],"split_conditions":[2.1E1,6E0,2.3E1,3E0,7E0,5E0,2E0,2E0,6E0,1.8E1,7E0,2.2E1,7E0,-9.9940024E-2,3E0,-1.1080243E-1,1.7366263E-1,-5.0048437E-2,-1.2095477E-1,5.371665E-2,-6.36822E-3,-1.8780686E-1,-6.2731914E-3,-3.9539397E-2,-6.832814E-2,-2.2879352E-3,-5.364271E-2,-6.1266303E-2,-7.780909E-2],"split_indices":[1,1,1,0,0,0,0,0,0,1,1,1,0,0,0,0,0,0,0,0,0,0,0,0,0,0,0,0,0],"split_type":[0,0,0,0,0,0,0,0,0,0,0,0,0,0,0,0,0,0,0,0,0,0,0,0,0,0,0,0,0],"sum_hessian":[6.007E3,4.649E3,1.358E3,7.22E2,3.927E3,9.03E2,4.55E2,1.75E2,5.47E2,3.063E3,8.64E2,3.69E2,5.34E2,4.5E1,4.1E2,8.2E1,9.3E1,2.69E2,2.78E2,2.364E3,6.99E2,7.1E1,7.93E2,1.8E2,1.89E2,3.67E2,1.67E2,6.7E1,3.43E2],"tree_param":{"num_deleted":"0","num_feature":"2","num_nodes":"29","size_leaf_vector":"1"}},{"base_weights":[-2.4691361E-3,9.5253184E-2,-5.6231785E-1,-7.1104544E-1,1.6770531E-1,-9.080775E-1,-4.573185E-1,-2.097088E0,-4.8443127E-1,2.6518124E-1,-1.9549744E-1,-1.1467439E0,-6.9939256E-1,-3.1471637E-1,-9.4473535E-1,-1.2566054E-1,-2.5628725E-1,1.2744252E-1,-7.3654085E-2,4.2125758E-2,-1.2268968E-2,-1.0647333E-1,4.151372E-3,-7.13231E-2,-2.3320511E-1,-9.016328E-2,-5.522978E-2,3.676887E-3,-7.009414E-2,-1.2845905E-1,-6.916001E-2],"categories":[],"categories_nodes":[],"categories_segments":[],"categories_sizes":[],"default_left":[0,0,0,0,0,0,0,0,0,0,0,0,0,0,0,0,0,0,0,0,0,0,0,0,0,0,0,0,0,0,0],"id":26,"left_children":[1,3,5,7,9,11,13,15,17,19,21,23,25,27,29,-1,-1,-1,-1,-1,-1,-1,-1,-1,-1,-1,-1,-1,-1,-1,-1],"loss_changes":[3.2874954E2,2.9898602E2,3.200467E1,1.3153304E2,1.6627136E2,9.507843E0,4.745378E1,1.9877014E1,1.6234521E2,2.2416144E2,2.0482669E2,4.7152077E1,2.8636093E0,7.2381805E1,1.2446121E1,0E0,0E0,0E0,0E0,0E0,0E0,0E0,0E0,0E0,0E0,0E0,0E0,0E0,0E0,0E0,0E0],"parents":[2147483647,0,0,1,1,2,2,3,3,4,4,5,5,6,6,7,7,8,8,9,9,10,10,11,11,12,12,13,13,14,14],"right_children":[2,4,6,8,10,12,14,16,18,20,22,24,26,28,30,-1,-1,-1,-1,-1,-1,-1,-1,-1,-1,-1,-1,-1,-1,-1,-1],"split_conditions":[2.2E1,4E0,3E0,2E0,7E0,2.3E1,7E0,3E0,3E0,1.8E1,1E1,2E0,2E0,2.3E1,2.3E1,-1.2566054E-1,-2.5628725E-1,1.2744252E-1,-7.3654085E-2,4.2125758E-2,-1.2268968E-2,-1.0647333E-1,4.151372E-3,-7.13231E-2,-2.3320511E-1,-9.016328E-2,-5.522978E-2,3.676887E-3,-7.009414E-2,-1.2845905E-1,-6.916001E-2],"split_indices":[1,1,0,0,0,1,0,1,0,1,1,0,0,1,1,0,0,0,0,0,0,0,0,0,0,0,0,0,0,0,0],"split_type":[0,0,0,0,0,0,0,0,0,0,0,0,0,0,0,0,0,0,0,0,0,0,0,0,0,0,0,0,0,0,0],"sum_hessian":[6.007E3,5.115E3,8.92E2,4.21E2,4.694E3,2.06E2,6.86E2,5.8E1,3.63E2,3.701E3,9.93E2,9.4E1,1.12E2,5.32E2,1.54E2,2.2E1,3.6E1,4.5E1,3.18E2,2.639E3,1.062E3,2.12E2,7.81E2,7E1,2.4E1,4.5E1,6.7E1,2.79E2,2.53E2,6.4E1,9E1],"tree_param":{"num_deleted":"0","num_feature":"2","num_nodes":"31","size_leaf_vector":"1"}},{"base_weights":[-2.4077855E-3,1.5229191E-1,-2.9570234E-1,-1.5085231E-1,5.214815E-1,-5.68939E-1,-1.13818705E-1,-6.4071846E-1,-3.1958997E-2,1.6816789E0,2.7370086E-1,-7.519319E-1,-5.1593643E-1,7.581863E-2,-4.0303478E-1,-1.8938532E-1,-4.358403E-2,2.0512745E-2,-3.3652026E-2,2.1684444E-1,-1.3324486E-1,1.00054465E-1,9.546558E-3,-1.2216444E-1,-5.8187257E-2,-7.730713E-2,-4.5819923E-2,2.0614907E-2,-1.3817019E-2,-1.973852E-2,-8.515369E-2],"categories":[],"categories_nodes":[],"categories_segments":[],"categories_sizes":[],"default_left":[0,0,0,0,0,0,0,0,0,0,0,0,0,0,0,0,0,0,0,0,0,0,0,0,0,0,0,0,0,0,0],"id":27,"left_children":[1,3,5,7,9,11,13,15,17,19,21,23,25,27,29,-1,-1,-1,-1,-1,-1,-1,-1,-1,-1,-1,-1,-1,-1,-1,-1],"loss_changes":[2.7264346E2,4.4036288E2,1.0305708E2,1.2584007E2,5.095194E2,7.652588E0,6.842372E1,1.0751886E2,1.2570981E2,4.6064734E2,1.89435E2,1.3986893E1,9.236465E0,2.1056984E1,4.5395653E1,0E0,0E0,0E0,0E0,0E0,0E0,0E0,0E0,0E0,0E0,0E0,0E0,0E0,0E0,0E0,0E0],"parents":[2147483647,0,0,1,1,2,2,3,3,4,4,5,5,6,6,7,7,8,8,9,9,10,10,11,11,12,12,13,13,14,14],"right_children":[2,4,6,8,10,12,14,16,18,20,22,24,26,28,30,-1,-1,-1,-1,-1,-1,-1,-1,-1,-1,-1,-1,-1,-1,-1,-1],"split_conditions":[1.9E1,1.2E1,5E0,4E0,3E0,2E0,2.2E1,2E0,6E0,1.8E1,1.4E1,2.1E1,2E1,7E0,7E0,-1.8938532E-1,-4.358403E-2,2.0512745E-2,-3.3652026E-2,2.1684444E-1,-1.3324486E-1,1.00054465E-1,9.546558E-3,-1.2216444E-1,-5.8187257E-2,-7.730713E-2,-4.5819923E-2,2.0614907E-2,-1.3817019E-2,-1.973852E-2,-8.515369E-2],"split_indices":[1,1,0,1,0,0,1,0,0,1,1,1,1,0,0,0,0,0,0,0,0,0,0,0,0,0,0,0,0,0,0],"split_type":[0,0,0,0,0,0,0,0,0,0,0,0,0,0,0,0,0,0,0,0,0,0,0,0,0,0,0,0,0,0,0],"sum_hessian":[6.007E3,3.933E3,2.074E3,2.16E3,1.773E3,8.28E2,1.246E3,4.21E2,1.739E3,3.11E2,1.462E3,1.83E2,6.45E2,7.53E2,4.93E2,5.8E1,3.63E2,9.78E2,7.61E2,2.68E2,4.3E1,2.87E2,1.175E3,4.7E1,1.36E2,1.16E2,5.29E2,4.68E2,2.85E2,3.39E2,1.54E2],"tree_param":{"num_deleted":"0","num_feature":"2","num_nodes":"31","size_leaf_vector":"1"}},{"base_weights":[-2.242715E-3,1.02674715E-1,-3.6123005E-1,-2.389841E-1,2.767421E-1,-2.4726059E-1,-5.863774E-1,-8.77749E-3,-5.8704245E-1,4.55108E-1,1.2985492E-2,-3.7397775E-1,-4.748262E-2,-6.416094E-1,-4.9569187E-1,2.5495678E-2,-1.503829E-1,-8.933131E-2,7.503831E-2,1.3822274E-1,3.7903465E-2,3.537984E-2,-3.9988726E-2,-2.8789526E-2,-4.1612215E-2,2.690856E-2,-3.958019E-2,-7.565073E-2,-6.1638843E-2,-4.447135E-2,-5.3898223E-2],"categories":[],"categories_nodes":[],"categories_segments":[],"categories_sizes":[],"default_left":[0,0,0,0,0,0,0,0,0,0,0,0,0,0,0,0,0,0,0,0,0,0,0,0,0,0,0,0,0,0,0],"id":28,"left_children":[1,3,5,7,9,11,13,15,17,19,21,23,25,27,29,-1,-1,-1,-1,-1,-1,-1,-1,-1,-1,-1,-1,-1,-1,-1,-1],"loss_changes":[2.2632259E2,2.7660934E2,3.4726837E1,1.2579164E2,1.449403E2,2.286726E1,1.9659424E0,3.7338776E2,2.5667914E2,1.2910858E2,1.7518764E2,1.8864288E0,3.8920418E1,3.4509277E-1,1.5092087E-1,0E0,0E0,0E0,0E0,0E0,0E0,0E0,0E0,0E0,0E0,0E0,0E0,0E0,0E0,0E0,0E0],"parents":[2147483647,0,0,1,1,2,2,3,3,4,4,5,5,6,6,7,7,8,8,9,9,10,10,11,11,12,12,13,13,14,14],"right_children":[2,4,6,8,10,12,14,16,18,20,22,24,26,28,30,-1,-1,-1,-1,-1,-1,-1,-1,-1,-1,-1,-1,-1,-1,-1,-1],"split_conditions":[2.1E1,1E1,2.3E1,6E0,1.7E1,6E0,6E0,9E0,9E0,2E0,6E0,3E0,7E0,2E0,7E0,2.5495678E-2,-1.503829E-1,-8.933131E-2,7.503831E-2,1.3822274E-1,3.7903465E-2,3.537984E-2,-3.9988726E-2,-2.8789526E-2,-4.1612215E-2,2.690856E-2,-3.958019E-2,-7.565073E-2,-6.1638843E-2,-4.447135E-2,-5.3898223E-2],"split_indices":[1,1,1,0,1,0,0,1,1,0,0,0,0,0,0,0,0,0,0,0,0,0,0,0,0,0,0,0,0,0,0],"split_type":[0,0,0,0,0,0,0,0,0,0,0,0,0,0,0,0,0,0,0,0,0,0,0,0,0,0,0,0,0,0,0],"sum_hessian":[6.007E3,4.649E3,1.358E3,1.569E3,3.08E3,9.03E2,4.55E2,9.45E2,6.24E2,1.837E3,1.243E3,5.52E2,3.51E2,2.79E2,1.76E2,8.04E2,1.41E2,5.08E2,1.16E2,1.38E2,1.699E3,6.81E2,5.62E2,1.84E2,3.68E2,1.84E2,1.67E2,4.5E1,2.34E2,8.6E1,9E1],"tree_param":{"num_deleted":"0","num_feature":"2","num_nodes":"31","size_leaf_vector":"1"}},{"base_weights":[-2.0658753E-3,7.112681E-2,-4.2138472E-1,-4.1486853E-1,1.5107754E-1,-7.175039E-1,-3.3154768E-1,4.2296562E-1,-6.831969E-1,2.5716934E-1,-8.88429E-2,-9.5233816E-1,-5.1372725E-1,-2.1816638E-1,-7.1929395E-1,-1.6654436E-1,1.1967694E-1,5.885405E-2,-7.872004E-2,1.1379678E-3,4.7683008E-2,-9.268307E-2,-1.2898296E-3,-5.5716056E-2,-2.0365492E-1,-6.825013E-2,-3.9200183E-2,7.98377E-3,-5.458159E-2,-1.0352929E-1,-4.8567615E-2],"categories":[],"categories_nodes":[],"categories_segments":[],"categories_sizes":[],"default_left":[0,0,0,0,0,0,0,0,0,0,0,0,0,0,0,0,0,0,0,0,0,0,0,0,0,0,0,0,0,0,0],"id":29,"left_children":[1,3,5,7,9,11,13,15,17,19,21,23,25,27,29,-1,-1,-1,-1,-1,-1,-1,-1,-1,-1,-1,-1,-1,-1,-1,-1],"loss_changes":[1.8442194E2,1.9884836E2,2.3518127E1,1.6282997E2,1.1186593E2,9.416481E0,3.0045776E1,2.8641245E2,7.294458E1,1.6450314E2,8.577563E1,3.9568626E1,2.0539417E0,5.2086166E1,1.0939743E1,0E0,0E0,0E0,0E0,0E0,0E0,0E0,0E0,0E0,0E0,0E0,0E0,0E0,0E0,0E0,0E0],"parents":[2147483647,0,0,1,1,2,2,3,3,4,4,5,5,6,6,7,7,8,8,9,9,10,10,11,11,12,12,13,13,14,14],"right_children":[2,4,6,8,10,12,14,16,18,20,22,24,26,28,30,-1,-1,-1,-1,-1,-1,-1,-1,-1,-1,-1,-1,-1,-1,-1,-1],"split_conditions":[2.2E1,6E0,3E0,3E0,1.8E1,2.3E1,7E0,3E0,2E0,1.2E1,2E0,2E0,2E0,2.3E1,2.3E1,-1.6654436E-1,1.1967694E-1,5.885405E-2,-7.872004E-2,1.1379678E-3,4.7683008E-2,-9.268307E-2,-1.2898296E-3,-5.5716056E-2,-2.0365492E-1,-6.825013E-2,-3.9200183E-2,7.98377E-3,-5.458159E-2,-1.0352929E-1,-4.8567615E-2],"split_indices":[1,1,0,0,1,1,0,1,1,1,0,0,0,1,1,0,0,0,0,0,0,0,0,0,0,0,0,0,0,0,0],"split_type":[0,0,0,0,0,0,0,0,0,0,0,0,0,0,0,0,0,0,0,0,0,0,0,0,0,0,0,0,0,0,0],"sum_hessian":[6.007E3,5.115E3,8.92E2,7.22E2,4.393E3,2.06E2,6.86E2,1.75E2,5.47E2,3.046E3,1.347E3,9.4E1,1.12E2,5.32E2,1.54E2,4.7E1,1.28E2,4.1E1,5.06E2,1.438E3,1.608E3,1.11E2,1.236E3,7E1,2.4E1,4.5E1,6.7E1,2.79E2,2.53E2,6.4E1,9E1],"tree_param":{"num_deleted":"0","num_feature":"2","num_nodes":"31","size_leaf_vector":"1"}},{"base_weights":[-1.9724697E-3,8.402245E-2,-2.962141E-1,-1.9672586E-1,2.2705744E-1,-2.0525214E-1,-4.7589263E-1,-7.4805245E-2,-7.4853957E-1,3.770021E-1,5.332885E-3,-3.1936285E-1,-2.5398491E-2,-5.250359E-1,-3.9546317E-1,-7.0245706E-2,6.026969E-3,1.34729985E-2,-9.242713E-2,1.21406555E-1,3.0833809E-2,3.17242E-2,-3.725132E-2,-2.0075789E-2,-3.7796058E-2,2.3884248E-2,-3.1622693E-2,-4.633055E-2,-5.634318E-2,-3.4679923E-2,-4.376423E-2],"categories":[],"categories_nodes":[],"categories_segments":[],"categories_sizes":[],"default_left":[0,0,0,0,0,0,0,0,0,0,0,0,0,0,0,0,0,0,0,0,0,0,0,0,0,0,0,0,0,0,0],"id":30,"left_children":[1,3,5,7,9,11,13,15,17,19,21,23,25,27,29,-1,-1,-1,-1,-1,-1,-1,-1,-1,-1,-1,-1,-1,-1,-1,-1],"loss_changes":[1.5204701E2,1.8677391E2,2.21137E1,1.05569626E2,1.02430176E2,1.8544888E1,1.5947418E0,1.0915423E2,4.4206573E1,1.05266815E2,1.467281E2,3.7674599E0,2.71263E1,4.0261078E-1,2.1153831E-1,0E0,0E0,0E0,0E0,0E0,0E0,0E0,0E0,0E0,0E0,0E0,0E0,0E0,0E0,0E0,0E0],"parents":[2147483647,0,0,1,1,2,2,3,3,4,4,5,5,6,6,7,7,8,8,9,9,10,10,11,11,12,12,13,13,14,14],"right_children":[2,4,6,8,10,12,14,16,18,20,22,24,26,28,30,-1,-1,-1,-1,-1,-1,-1,-1,-1,-1,-1,-1,-1,-1,-1,-1],"split_conditions":[2.1E1,1E1,2.3E1,7E0,1.7E1,6E0,6E0,3E0,3E0,2E0,6E0,3E0,7E0,3E0,7E0,-7.0245706E-2,6.026969E-3,1.34729985E-2,-9.242713E-2,1.21406555E-1,3.0833809E-2,3.17242E-2,-3.725132E-2,-2.0075789E-2,-3.7796058E-2,2.3884248E-2,-3.1622693E-2,-4.633055E-2,-5.634318E-2,-3.4679923E-2,-4.376423E-2],"split_indices":[1,1,1,0,1,0,0,1,1,0,0,0,0,0,0,0,0,0,0,0,0,0,0,0,0,0,0,0,0,0,0],"split_type":[0,0,0,0,0,0,0,0,0,0,0,0,0,0,0,0,0,0,0,0,0,0,0,0,0,0,0,0,0,0,0],"sum_hessian":[6.007E3,4.649E3,1.358E3,1.569E3,3.08E3,9.03E2,4.55E2,1.286E3,2.83E2,1.837E3,1.243E3,5.52E2,3.51E2,2.79E2,1.76E2,2.27E2,1.059E3,4.7E1,2.36E2,1.38E2,1.699E3,6.81E2,5.62E2,1.84E2,3.68E2,1.84E2,1.67E2,1.12E2,1.67E2,8.6E1,9E1],"tree_param":{"num_deleted":"0","num_feature":"2","num_nodes":"31","size_leaf_vector":"1"}},{"base_weights":[-1.8158561E-3,1.0300573E-1,-2.005466E-1,-1.143924E-1,3.6777142E-1,-4.4353014E-1,-3.885142E-2,-4.7041878E-1,-2.7980026E-2,1.3632094E0,1.5523253E-1,-7.616768E-1,-3.9070168E-1,2.0451774E-1,-1.8482311E-1,-1.7211471E-1,-2.6639849E-2,1.5706383E-2,-2.6568338E-2,1.773679E-1,-1.1772343E-1,7.848217E-2,9.154211E-5,-5.7142567E-2,-1.4389437E-1,-5.687195E-2,-3.2816213E-2,4.207458E-2,-1.3453002E-2,-9.354047E-3,-3.8259298E-2],"categories":[],"categories_nodes":[],"categories_segments":[],"categories_sizes":[],"default_left":[0,0,0,0,0,0,0,0,0,0,0,0,0,0,0,0,0,0,0,0,0,0,0,0,0,0,0,0,0,0,0],"id":31,"left_children":[1,3,5,7,9,11,13,15,17,19,21,23,25,27,29,-1,-1,-1,-1,-1,-1,-1,-1,-1,-1,-1,-1,-1,-1,-1,-1],"loss_changes":[1.25174934E2,2.2648138E2,8.1507996E1,6.6470184E1,3.7511227E2,1.3635574E1,4.4337482E1,1.0722492E2,7.657658E1,3.2743378E2,1.4213908E2,1.4253296E1,7.7513123E0,3.436645E1,1.4045513E1,0E0,0E0,0E0,0E0,0E0,0E0,0E0,0E0,0E0,0E0,0E0,0E0,0E0,0E0,0E0,0E0],"parents":[2147483647,0,0,1,1,2,2,3,3,4,4,5,5,6,6,7,7,8,8,9,9,10,10,11,11,12,12,13,13,14,14],"right_children":[2,4,6,8,10,12,14,16,18,20,22,24,26,28,30,-1,-1,-1,-1,-1,-1,-1,-1,-1,-1,-1,-1,-1,-1,-1,-1],"split_conditions":[1.9E1,1.2E1,5E0,4E0,3E0,2E1,2.1E1,2E0,6E0,1.8E1,1.4E1,4E0,2E0,7E0,2.3E1,-1.7211471E-1,-2.6639849E-2,1.5706383E-2,-2.6568338E-2,1.773679E-1,-1.1772343E-1,7.848217E-2,9.154211E-5,-5.7142567E-2,-1.4389437E-1,-5.687195E-2,-3.2816213E-2,4.207458E-2,-1.3453002E-2,-9.354047E-3,-3.8259298E-2],"split_indices":[1,1,0,1,0,1,1,0,0,1,1,0,0,0,1,0,0,0,0,0,0,0,0,0,0,0,0,0,0,0,0],"split_type":[0,0,0,0,0,0,0,0,0,0,0,0,0,0,0,0,0,0,0,0,0,0,0,0,0,0,0,0,0,0,0],"sum_hessian":[6.007E3,3.933E3,2.074E3,2.16E3,1.773E3,8.28E2,1.246E3,4.21E2,1.739E3,3.11E2,1.462E3,1.16E2,7.12E2,4.67E2,7.79E2,5.8E1,3.63E2,9.78E2,7.61E2,2.68E2,4.3E1,2.87E2,1.175E3,9.2E1,2.4E1,1.83E2,5.29E2,2.85E2,1.82E2,5.34E2,2.45E2],"tree_param":{"num_deleted":"0","num_feature":"2","num_nodes":"31","size_leaf_vector":"1"}},{"base_weights":[-1.6978756E-3,5.3041875E-2,-3.153002E-1,-3.217359E-1,1.146967E-1,-5.6731945E-1,-2.3890531E-1,4.5188388E-1,-5.696106E-1,1.8398212E-1,-1.3071224E-1,-7.897741E-1,-3.7527955E-1,-1.3815936E-1,-5.838E-1,-1.3408259E-1,1.1154357E-1,-1.1076241E-1,-3.468555E-2,1.553847E-1,1.4488188E-2,-1.3503788E-1,-3.2666866E-3,-4.2636536E-2,-1.7902641E-1,-5.1477592E-2,-2.7539551E-2,1.0589702E-2,-4.06654E-2,-8.930101E-2,-3.565203E-2],"categories":[],"categories_nodes":[],"categories_segments":[],"categories_sizes":[],"default_left":[0,0,0,0,0,0,0,0,0,0,0,0,0,0,0,0,0,0,0,0,0,0,0,0,0,0,0,0,0,0,0],"id":32,"left_children":[1,3,5,7,9,11,13,15,17,19,21,23,25,27,29,-1,-1,-1,-1,-1,-1,-1,-1,-1,-1,-1,-1,-1,-1,-1,-1],"loss_changes":[1.0315314E2,1.1825158E2,1.7057373E1,1.3890042E2,7.473639E1,8.546692E0,2.3790352E1,2.1085742E2,6.529103E1,1.8333208E2,1.1571192E2,3.377744E1,1.4327145E0,3.4969395E1,1.0574585E1,0E0,0E0,0E0,0E0,0E0,0E0,0E0,0E0,0E0,0E0,0E0,0E0,0E0,0E0,0E0,0E0],"parents":[2147483647,0,0,1,1,2,2,3,3,4,4,5,5,6,6,7,7,8,8,9,9,10,10,11,11,12,12,13,13,14,14],"right_children":[2,4,6,8,10,12,14,16,18,20,22,24,26,28,30,-1,-1,-1,-1,-1,-1,-1,-1,-1,-1,-1,-1,-1,-1,-1,-1],"split_conditions":[2.2E1,6E0,3E0,3E0,7E0,2.3E1,7E0,3E0,5E0,7E0,7E0,2E0,2E0,2.3E1,2.3E1,-1.3408259E-1,1.1154357E-1,-1.1076241E-1,-3.468555E-2,1.553847E-1,1.4488188E-2,-1.3503788E-1,-3.2666866E-3,-4.2636536E-2,-1.7902641E-1,-5.1477592E-2,-2.7539551E-2,1.0589702E-2,-4.06654E-2,-8.930101E-2,-3.565203E-2],"split_indices":[1,1,0,0,0,1,0,1,0,1,1,0,0,1,1,0,0,0,0,0,0,0,0,0,0,0,0,0,0,0,0],"split_type":[0,0,0,0,0,0,0,0,0,0,0,0,0,0,0,0,0,0,0,0,0,0,0,0,0,0,0,0,0,0,0],"sum_hessian":[6.007E3,5.115E3,8.92E2,7.22E2,4.393E3,2.06E2,6.86E2,1.75E2,5.47E2,3.426E3,9.67E2,9.4E1,1.12E2,5.32E2,1.54E2,4.7E1,1.28E2,1.59E2,3.88E2,9.4E1,3.332E3,7.1E1,8.96E2,7E1,2.4E1,4.5E1,6.7E1,2.79E2,2.53E2,6.4E1,9E1],"tree_param":{"num_deleted":"0","num_feature":"2","num_nodes":"31","size_leaf_vector":"1"}},{"base_weights":[-1.6266339E-3,8.882111E-2,-1.7310606E-1,-9.1529556E-2,3.4594953E-1,-3.8962853E-1,-2.9024087E-2,-3.3382788E-1,-1.2469797E-2,1.537774E0,1.3684927E-1,-7.0159197E-1,-3.378903E-1,1.7657445E-1,-1.52346E-1,8.042029E-2,-1.209287E-1,-5.0095625E-2,2.8950697E-2,2.1080427E-1,-1.0763454E-1,9.7001664E-2,-9.2130754E-4,-5.2923024E-2,-1.314714E-1,-4.887009E-2,-2.848959E-2,3.6438107E-2,-1.1790244E-2,-8.149049E-3,-3.0582307E-2],"categories":[],"categories_nodes":[],"categories_segments":[],"categories_sizes":[],"default_left":[0,0,0,0,0,0,0,0,0,0,0,0,0,0,0,0,0,0,0,0,0,0,0,0,0,0,0,0,0,0,0],"id":33,"left_children":[1,3,5,7,9,11,13,15,17,19,21,23,25,27,29,-1,-1,-1,-1,-1,-1,-1,-1,-1,-1,-1,-1,-1,-1,-1,-1],"loss_changes":[9.319902E1,1.8246417E2,6.4722435E1,4.4303772E1,4.0400943E2,1.3143356E1,3.1644342E1,5.678668E2,2.575527E2,3.6303058E2,1.6806888E2,1.1668629E1,5.5591507E0,2.5925564E1,8.45734E0,0E0,0E0,0E0,0E0,0E0,0E0,0E0,0E0,0E0,0E0,0E0,0E0,0E0,0E0,0E0,0E0],"parents":[2147483647,0,0,1,1,2,2,3,3,4,4,5,5,6,6,7,7,8,8,9,9,10,10,11,11,12,12,13,13,14,14],"right_children":[2,4,6,8,10,12,14,16,18,20,22,24,26,28,30,-1,-1,-1,-1,-1,-1,-1,-1,-1,-1,-1,-1,-1,-1,-1,-1],"split_conditions":[1.9E1,1.3E1,5E0,3E0,3E0,2E1,2.1E1,8E0,7E0,1.8E1,1.4E1,4E0,2E0,7E0,2.3E1,8.042029E-2,-1.209287E-1,-5.0095625E-2,2.8950697E-2,2.1080427E-1,-1.0763454E-1,9.7001664E-2,-9.2130754E-4,-5.2923024E-2,-1.314714E-1,-4.887009E-2,-2.848959E-2,3.6438107E-2,-1.1790244E-2,-8.149049E-3,-3.0582307E-2],"split_indices":[1,1,0,0,0,1,1,1,1,1,1,0,0,0,1,0,0,0,0,0,0,0,0,0,0,0,0,0,0,0,0],"split_type":[0,0,0,0,0,0,0,0,0,0,0,0,0,0,0,0,0,0,0,0,0,0,0,0,0,0,0,0,0,0,0],"sum_hessian":[6.007E3,3.933E3,2.074E3,2.312E3,1.621E3,8.28E2,1.246E3,5.68E2,1.744E3,2.41E2,1.38E3,1.16E2,7.12E2,4.67E2,7.79E2,2.47E2,3.21E2,6.66E2,1.078E3,1.98E2,4.3E1,2.05E2,1.175E3,9.2E1,2.4E1,1.83E2,5.29E2,2.85E2,1.82E2,5.34E2,2.45E2],"tree_param":{"num_deleted":"0","num_feature":"2","num_nodes":"31","size_leaf_vector":"1"}},{"base_weights":[-1.4871586E-3,7.997369E-2,-1.5592836E-1,-8.240371E-2,3.1147736E-1,-3.5098147E-1,-2.613288E-2,-3.5908657E-1,-2.0647593E-2,1.3844231E0,1.2323381E-1,-6.3300866E-1,-3.0420986E-1,1.5896979E-1,-1.3716097E-1,-1.6490705E-1,-1.4900927E-2,1.2425992E-2,-2.3569977E-2,1.8982981E-1,-9.7115695E-2,8.734854E-2,-8.292611E-4,-9.041602E-2,-2.5158245E-2,-4.400964E-2,-2.564602E-2,3.280705E-2,-1.061765E-2,-7.335657E-3,-2.7536502E-2],"categories":[],"categories_nodes":[],"categories_segments":[],"categories_sizes":[],"default_left":[0,0,0,0,0,0,0,0,0,0,0,0,0,0,0,0,0,0,0,0,0,0,0,0,0,0,0,0,0,0,0],"id":34,"left_children":[1,3,5,7,9,11,13,15,17,19,21,23,25,27,29,-1,-1,-1,-1,-1,-1,-1,-1,-1,-1,-1,-1,-1,-1,-1,-1],"loss_changes":[7.559859E1,1.4790852E2,5.2523624E1,3.951449E1,3.2743304E2,1.0742668E1,2.5649647E1,1.14114746E2,5.8989067E1,2.947781E2,1.3628145E2,1.1873173E1,4.513466E0,2.1018278E1,6.8578644E0,0E0,0E0,0E0,0E0,0E0,0E0,0E0,0E0,0E0,0E0,0E0,0E0,0E0,0E0,0E0,0E0],"parents":[2147483647,0,0,1,1,2,2,3,3,4,4,5,5,6,6,7,7,8,8,9,9,10,10,11,11,12,12,13,13,14,14],"right_children":[2,4,6,8,10,12,14,16,18,20,22,24,26,28,30,-1,-1,-1,-1,-1,-1,-1,-1,-1,-1,-1,-1,-1,-1,-1,-1],"split_conditions":[1.9E1,1.3E1,5E0,4E0,3E0,2E1,2.1E1,2E0,6E0,1.8E1,1.4E1,3E0,2E0,7E0,2.3E1,-1.6490705E-1,-1.4900927E-2,1.2425992E-2,-2.3569977E-2,1.8982981E-1,-9.7115695E-2,8.734854E-2,-8.292611E-4,-9.041602E-2,-2.5158245E-2,-4.400964E-2,-2.564602E-2,3.280705E-2,-1.061765E-2,-7.335657E-3,-2.7536502E-2],"split_indices":[1,1,0,1,0,1,1,0,0,1,1,0,0,0,1,0,0,0,0,0,0,0,0,0,0,0,0,0,0,0,0],"split_type":[0,0,0,0,0,0,0,0,0,0,0,0,0,0,0,0,0,0,0,0,0,0,0,0,0,0,0,0,0,0,0],"sum_hessian":[6.007E3,3.933E3,2.074E3,2.312E3,1.621E3,8.28E2,1.246E3,4.21E2,1.891E3,2.41E2,1.38E3,1.16E2,7.12E2,4.67E2,7.79E2,5.8E1,3.63E2,1.13E3,7.61E2,1.98E2,4.3E1,2.05E2,1.175E3,6.7E1,4.9E1,1.83E2,5.29E2,2.85E2,1.82E2,5.34E2,2.45E2],"tree_param":{"num_deleted":"0","num_feature":"2","num_nodes":"31","size_leaf_vector":"1"}},{"base_weights":[-1.3733937E-3,7.1973294E-2,-1.4043099E-1,-7.4246235E-2,2.804405E-1,-3.1610677E-1,-2.35299E-2,-2.926838E-1,-2.976761E-3,1.2463646E0,1.1097339E-1,-5.706958E-1,-2.7388653E-1,1.431199E-1,-1.2348962E-1,7.5816266E-2,-1.1011225E-1,-4.401688E-2,2.6728282E-2,1.7094229E-1,-8.762486E-2,7.8656055E-2,-7.4636214E-4,-4.0497493E-2,-1.1643497E-1,-3.963261E-2,-2.3086246E-2,2.9537795E-2,-9.561735E-3,-6.6034617E-3,-2.4794059E-2],"categories":[],"categories_nodes":[],"categories_segments":[],"categories_sizes":[],"default_left":[0,0,0,0,0,0,0,0,0,0,0,0,0,0,0,0,0,0,0,0,0,0,0,0,0,0,0,0,0,0,0],"id":35,"left_children":[1,3,5,7,9,11,13,15,17,19,21,23,25,27,29,-1,-1,-1,-1,-1,-1,-1,-1,-1,-1,-1,-1,-1,-1,-1,-1],"loss_changes":[6.1288185E1,1.1993691E2,4.260619E1,3.6007755E1,2.653707E2,8.754463E0,2.0790535E1,4.8422592E2,2.0629872E2,2.3935815E2,1.10505936E2,1.1039028E1,3.6644783E0,1.7039886E1,5.5608854E0,0E0,0E0,0E0,0E0,0E0,0E0,0E0,0E0,0E0,0E0,0E0,0E0,0E0,0E0,0E0,0E0],"parents":[2147483647,0,0,1,1,2,2,3,3,4,4,5,5,6,6,7,7,8,8,9,9,10,10,11,11,12,12,13,13,14,14],"right_children":[2,4,6,8,10,12,14,16,18,20,22,24,26,28,30,-1,-1,-1,-1,-1,-1,-1,-1,-1,-1,-1,-1,-1,-1,-1,-1],"split_conditions":[1.9E1,1.3E1,5E0,3E0,3E0,2E1,2.1E1,8E0,7E0,1.8E1,1.4E1,4E0,2E0,7E0,2.3E1,7.5816266E-2,-1.1011225E-1,-4.401688E-2,2.6728282E-2,1.7094229E-1,-8.762486E-2,7.8656055E-2,-7.4636214E-4,-4.0497493E-2,-1.1643497E-1,-3.963261E-2,-2.3086246E-2,2.9537795E-2,-9.561735E-3,-6.6034617E-3,-2.4794059E-2],"split_indices":[1,1,0,0,0,1,1,1,1,1,1,0,0,0,1,0,0,0,0,0,0,0,0,0,0,0,0,0,0,0,0],"split_type":[0,0,0,0,0,0,0,0,0,0,0,0,0,0,0,0,0,0,0,0,0,0,0,0,0,0,0,0,0,0,0],"sum_hessian":[6.007E3,3.933E3,2.074E3,2.312E3,1.621E3,8.28E2,1.246E3,5.68E2,1.744E3,2.41E2,1.38E3,1.16E2,7.12E2,4.67E2,7.79E2,2.47E2,3.21E2,6.66E2,1.078E3,1.98E2,4.3E1,2.05E2,1.175E3,9.2E1,2.4E1,1.83E2,5.29E2,2.85E2,1.82E2,5.34E2,2.45E2],"tree_param":{"num_deleted":"0","num_feature":"2","num_nodes":"31","size_leaf_vector":"1"}},{"base_weights":[-1.2562289E-3,4.526256E-2,-1.8404847E-1,1.2843765E-1,-1.1516697E-1,-5.460962E-1,-7.399974E-2,-4.428295E-2,3.8755366E-1,-2.8476092E-1,5.8977284E-2,2.8832782E-2,-7.127893E-1,3.4836853E-1,-3.0891562E-1,-4.5018476E-2,1.125988E-3,1.1220725E-1,2.130766E-2,-5.1496726E-2,-2.4658574E-2,2.6594305E-2,-5.4313703E-3,-1.004426E-1,-3.9992314E-2,6.1572332E-2,1.6255958E-2,-6.864681E-2,-1.6834754E-2],"categories":[],"categories_nodes":[],"categories_segments":[],"categories_sizes":[],"default_left":[0,0,0,0,0,0,0,0,0,0,0,0,0,0,0,0,0,0,0,0,0,0,0,0,0,0,0,0,0],"id":36,"left_children":[1,3,5,7,9,11,13,15,17,19,21,-1,23,25,27,-1,-1,-1,-1,-1,-1,-1,-1,-1,-1,-1,-1,-1,-1],"loss_changes":[5.1096E1,6.3931313E1,4.8528072E1,1.4121815E2,4.8334114E1,3.970784E1,9.2978485E1,4.2705177E1,1.6149464E2,7.158409E0,1.8959908E1,0E0,2.1222961E1,1.6541668E1,3.183368E1,0E0,0E0,0E0,0E0,0E0,0E0,0E0,0E0,0E0,0E0,0E0,0E0,0E0,0E0],"parents":[2147483647,0,0,1,1,2,2,3,3,4,4,5,5,6,6,7,7,8,8,9,9,10,10,12,12,13,13,14,14],"right_children":[2,4,6,8,10,12,14,16,18,20,22,-1,24,26,28,-1,-1,-1,-1,-1,-1,-1,-1,-1,-1,-1,-1,-1,-1],"split_conditions":[7E0,1.9E1,1E1,1.3E1,5E0,3E0,1.6E1,3E0,3E0,2E1,2.1E1,2.8832782E-2,7E0,1.2E1,1.8E1,-4.5018476E-2,1.125988E-3,1.1220725E-1,2.130766E-2,-5.1496726E-2,-2.4658574E-2,2.6594305E-2,-5.4313703E-3,-1.004426E-1,-3.9992314E-2,6.1572332E-2,1.6255958E-2,-6.864681E-2,-1.6834754E-2],"split_indices":[0,1,1,1,0,1,1,1,0,1,1,0,1,1,1,0,0,0,0,0,0,0,0,0,0,0,0,0,0],"split_type":[0,0,0,0,0,0,0,0,0,0,0,0,0,0,0,0,0,0,0,0,0,0,0,0,0,0,0,0,0],"sum_hessian":[6.007E3,4.789E3,1.218E3,3.154E3,1.635E3,2.83E2,9.35E2,1.893E3,1.261E3,8.28E2,8.07E2,4.7E1,2.36E2,3.34E2,6.01E2,2.27E2,1.666E3,2.41E2,1.02E3,1.16E2,7.12E2,2.85E2,5.22E2,1.21E2,1.15E2,1.36E2,1.98E2,1.62E2,4.39E2],"tree_param":{"num_deleted":"0","num_feature":"2","num_nodes":"29","size_leaf_vector":"1"}},{"base_weights":[-1.1444587E-3,4.0743805E-2,-1.6574137E-1,1.1562276E-1,-1.0368397E-1,-4.9187952E-1,-6.6607855E-2,-3.987737E-2,3.4890455E-1,-1.9934088E-1,1.5517052E-1,2.6009584E-2,-6.421029E-1,3.137635E-1,-2.7816564E-1,-2.6078729E-2,5.4947375E-3,1.0103287E-1,1.9179042E-2,-2.5637677E-2,-6.9961855E-3,-7.344776E-2,3.2740634E-2,-9.048067E-2,-3.602756E-2,5.5459976E-2,1.4638494E-2,-6.1824184E-2,-1.5155069E-2],"categories":[],"categories_nodes":[],"categories_segments":[],"categories_sizes":[],"default_left":[0,0,0,0,0,0,0,0,0,0,0,0,0,0,0,0,0,0,0,0,0,0,0,0,0,0,0,0,0],"id":37,"left_children":[1,3,5,7,9,11,13,15,17,19,21,-1,23,25,27,-1,-1,-1,-1,-1,-1,-1,-1,-1,-1,-1,-1,-1,-1],"loss_changes":[4.1429985E1,5.1813927E1,3.9378994E1,1.1446263E2,4.0540283E1,3.2248863E1,7.5407684E1,3.9689323E1,1.309521E2,8.800266E0,6.796782E1,0E0,1.7220818E1,1.3422943E1,2.5827667E1,0E0,0E0,0E0,0E0,0E0,0E0,0E0,0E0,0E0,0E0,0E0,0E0,0E0,0E0],"parents":[2147483647,0,0,1,1,2,2,3,3,4,4,5,5,6,6,7,7,8,8,9,9,10,10,12,12,13,13,14,14],"right_children":[2,4,6,8,10,12,14,16,18,20,22,-1,24,26,28,-1,-1,-1,-1,-1,-1,-1,-1,-1,-1,-1,-1,-1,-1],"split_conditions":[7E0,1.9E1,1E1,1.3E1,6E0,3E0,1.6E1,3E0,3E0,5E0,2E1,2.6009584E-2,7E0,1.2E1,1.8E1,-2.6078729E-2,5.4947375E-3,1.0103287E-1,1.9179042E-2,-2.5637677E-2,-6.9961855E-3,-7.344776E-2,3.2740634E-2,-9.048067E-2,-3.602756E-2,5.5459976E-2,1.4638494E-2,-6.1824184E-2,-1.5155069E-2],"split_indices":[0,1,1,1,0,1,1,0,0,0,1,0,1,1,1,0,0,0,0,0,0,0,0,0,0,0,0,0,0],"split_type":[0,0,0,0,0,0,0,0,0,0,0,0,0,0,0,0,0,0,0,0,0,0,0,0,0,0,0,0,0],"sum_hessian":[6.007E3,4.789E3,1.218E3,3.154E3,1.635E3,2.83E2,9.35E2,1.893E3,1.261E3,1.194E3,4.41E2,4.7E1,2.36E2,3.34E2,6.01E2,5.68E2,1.325E3,2.41E2,1.02E3,8.28E2,3.66E2,7.1E1,3.7E2,1.21E2,1.15E2,1.36E2,1.98E2,1.62E2,4.39E2],"tree_param":{"num_deleted":"0","num_feature":"2","num_nodes":"29","size_leaf_vector":"1"}},{"base_weights":[-1.0434175E-3,3.1785958E-2,-1.8912186E-1,-2.0900089E-1,7.139841E-2,-1.3683759E-1,-4.3717957E-1,4.2322952E-2,-6.091088E-1,1.1831238E-1,-9.4764374E-2,-3.5442096E-1,-5.2078508E-2,-7.5183675E-2,-2.076203E-2,-3.7122507E-2,1.2900369E-1,7.4132592E-3,-2.7721134E-1,1.368442E-1,8.264462E-3,-9.128971E-2,-2.898922E-3,-5.462137E-2,-1.9004283E-2,1.4780973E-2,-2.722227E-2],"categories":[],"categories_nodes":[],"categories_segments":[],"categories_sizes":[],"default_left":[0,0,0,0,0,0,0,0,0,0,0,0,0,0,0,0,0,0,0,0,0,0,0,0,0,0,0],"id":38,"left_children":[1,3,5,7,9,11,13,15,17,19,21,23,25,-1,-1,-1,-1,-1,-1,-1,-1,-1,-1,-1,-1,-1,-1],"loss_changes":[3.710239E1,4.8812134E1,1.1521954E1,7.272824E1,3.4264008E1,1.3610304E1,1.1039938E1,2.3009427E2,4.125269E2,1.526945E2,5.206433E1,6.422186E0,2.3494495E1,0E0,0E0,0E0,0E0,0E0,0E0,0E0,0E0,0E0,0E0,0E0,0E0,0E0,0E0],"parents":[2147483647,0,0,1,1,2,2,3,3,4,4,5,5,6,6,7,7,8,8,9,9,10,10,11,11,12,12],"right_children":[2,4,6,8,10,12,14,16,18,20,22,24,26,-1,-1,-1,-1,-1,-1,-1,-1,-1,-1,-1,-1,-1,-1],"split_conditions":[2.2E1,6E0,7E0,6E0,7E0,3E0,2.3E1,5E0,5E0,7E0,7E0,2.3E1,2.3E1,-7.5183675E-2,-2.076203E-2,-3.7122507E-2,1.2900369E-1,7.4132592E-3,-2.7721134E-1,1.368442E-1,8.264462E-3,-9.128971E-2,-2.898922E-3,-5.462137E-2,-1.9004283E-2,1.4780973E-2,-2.722227E-2],"split_indices":[1,1,0,0,0,0,1,1,1,1,1,1,1,0,0,0,0,0,0,0,0,0,0,0,0,0,0],"split_type":[0,0,0,0,0,0,0,0,0,0,0,0,0,0,0,0,0,0,0,0,0,0,0,0,0,0,0],"sum_hessian":[6.007E3,5.115E3,8.92E2,7.22E2,4.393E3,7.38E2,1.54E2,4.44E2,2.78E2,3.426E3,9.67E2,2.06E2,5.32E2,6.4E1,9E1,3.34E2,1.1E2,2.12E2,6.6E1,9.4E1,3.332E3,7.1E1,8.96E2,9.4E1,1.12E2,2.79E2,2.53E2],"tree_param":{"num_deleted":"0","num_feature":"2","num_nodes":"27","size_leaf_vector":"1"}},{"base_weights":[-9.905242E-4,2.858253E-2,-1.7041354E-1,-1.8834682E-1,6.427014E-2,-1.2327036E-1,-3.9408064E-1,3.330279E-1,-3.5545194E-1,1.06523395E-1,-8.5385025E-2,-3.1933457E-1,-4.6894073E-2,-6.778097E-2,-1.8708648E-2,-6.916691E-2,1.2342707E-1,8.2061894E-2,-4.5217685E-2,1.23303786E-1,7.438257E-3,-5.163764E-2,1.7787311E-3,-4.9216744E-2,-1.7120665E-2,1.3308153E-2,-2.4510777E-2],"categories":[],"categories_nodes":[],"categories_segments":[],"categories_sizes":[],"default_left":[0,0,0,0,0,0,0,0,0,0,0,0,0,0,0,0,0,0,0,0,0,0,0,0,0,0,0],"id":39,"left_children":[1,3,5,7,9,11,13,15,17,19,21,23,25,-1,-1,-1,-1,-1,-1,-1,-1,-1,-1,-1,-1,-1,-1],"loss_changes":[3.0107092E1,3.9618584E1,9.36755E0,6.3109306E1,2.7794203E1,1.1051298E1,8.976383E0,1.6338985E2,6.2708992E1,1.2399005E2,4.3052647E1,5.2152195E0,1.9046661E1,0E0,0E0,0E0,0E0,0E0,0E0,0E0,0E0,0E0,0E0,0E0,0E0,0E0,0E0],"parents":[2147483647,0,0,1,1,2,2,3,3,4,4,5,5,6,6,7,7,8,8,9,9,10,10,11,11,12,12],"right_children":[2,4,6,8,10,12,14,16,18,20,22,24,26,-1,-1,-1,-1,-1,-1,-1,-1,-1,-1,-1,-1,-1,-1],"split_conditions":[2.2E1,6E0,7E0,3E0,7E0,3E0,2.3E1,2E0,2E0,7E0,1E1,2.3E1,2.3E1,-6.778097E-2,-1.8708648E-2,-6.916691E-2,1.2342707E-1,8.2061894E-2,-4.5217685E-2,1.23303786E-1,7.438257E-3,-5.163764E-2,1.7787311E-3,-4.9216744E-2,-1.7120665E-2,1.3308153E-2,-2.4510777E-2],"split_indices":[1,1,0,0,0,0,1,0,1,1,1,1,1,0,0,0,0,0,0,0,0,0,0,0,0,0,0],"split_type":[0,0,0,0,0,0,0,0,0,0,0,0,0,0,0,0,0,0,0,0,0,0,0,0,0,0,0],"sum_hessian":[6.007E3,5.115E3,8.92E2,7.22E2,4.393E3,7.38E2,1.54E2,1.75E2,5.47E2,3.426E3,9.67E2,2.06E2,5.32E2,6.4E1,9E1,8.2E1,9.3E1,4.1E1,5.06E2,9.4E1,3.332E3,1.86E2,7.81E2,9.4E1,1.12E2,2.79E2,2.53E2],"tree_param":{"num_deleted":"0","num_feature":"2","num_nodes":"27","size_leaf_vector":"1"}},{"base_weights":[-8.904489E-4,5.8939345E-2,-7.922989E-2,5.9118685E-3,6.2039727E-1,6.2288945E-3,-1.9778027E-1,-6.408648E-2,1.6446587E-1,1.1677725E0,1.733179E-1,1.0775414E0,-1.6060619E-1,-1.493244E0,2.5068266E-2,-3.615785E-2,2.521755E-3,-1.4097235E-2,5.3542912E-2,6.599491E-2,3.5457212E-1,3.247331E-2,-2.2564305E-3,3.626484E-2,1.9972049E-1,-4.1089088E-2,-1.0804603E-2,-2.1734384E-1,-9.6686736E-2,1.4298056E-2,-1.0683609E-2],"categories":[],"categories_nodes":[],"categories_segments":[],"categories_sizes":[],"default_left":[0,0,0,0,0,0,0,0,0,0,0,0,0,0,0,0,0,0,0,0,0,0,0,0,0,0,0,0,0,0,0],"id":40,"left_children":[1,3,5,7,9,11,13,15,17,19,21,23,25,27,29,-1,-1,-1,-1,-1,-1,-1,-1,-1,-1,-1,-1,-1,-1,-1,-1],"loss_changes":[2.816436E1,1.0143191E2,2.636254E1,3.457133E1,7.174535E1,2.7059534E2,3.147119E2,5.7420918E1,1.0816975E2,1.570603E2,4.841833E0,1.3339775E2,1.718866E1,5.5184723E1,1.4495254E1,0E0,0E0,0E0,0E0,0E0,0E0,0E0,0E0,0E0,0E0,0E0,0E0,0E0,0E0,0E0,0E0],"parents":[2147483647,0,0,1,1,2,2,3,3,4,4,5,5,6,6,7,7,8,8,9,9,10,10,11,11,12,12,13,13,14,14],"right_children":[2,4,6,8,10,12,14,16,18,20,22,24,26,28,30,-1,-1,-1,-1,-1,-1,-1,-1,-1,-1,-1,-1,-1,-1,-1,-1],"split_conditions":[1.7E1,1.6E1,6E0,1.2E1,5E0,1.8E1,1.8E1,3E0,6E0,4E0,7E0,5E0,2E0,7E0,7E0,-3.615785E-2,2.521755E-3,-1.4097235E-2,5.3542912E-2,6.599491E-2,3.5457212E-1,3.247331E-2,-2.2564305E-3,3.626484E-2,1.9972049E-1,-4.1089088E-2,-1.0804603E-2,-2.1734384E-1,-9.6686736E-2,1.4298056E-2,-1.0683609E-2],"split_indices":[1,1,0,1,0,1,1,0,0,0,0,0,0,0,0,0,0,0,0,0,0,0,0,0,0,0,0,0,0,0,0],"split_type":[0,0,0,0,0,0,0,0,0,0,0,0,0,0,0,0,0,0,0,0,0,0,0,0,0,0,0,0,0,0,0],"sum_hessian":[6.007E3,3.406E3,2.601E3,3.113E3,2.93E2,1.512E3,1.089E3,2.16E3,9.53E2,1.31E2,1.62E2,2.03E2,1.309E3,1.59E2,9.3E2,4.98E2,1.662E3,5.23E2,4.3E2,1.09E2,2.2E1,9.1E1,7.1E1,1.15E2,8.8E1,2.26E2,1.083E3,6.8E1,9.1E1,4.91E2,4.39E2],"tree_param":{"num_deleted":"0","num_feature":"2","num_nodes":"31","size_leaf_vector":"1"}},{"base_weights":[-7.4641785E-4,-2.3213139E-1,1.6730798E-2,-1.3797202E0,-4.5483407E-2,1.4233798E-1,-3.8519956E-2,-2.4771161E-2,-2.0461114E-1,1.1540892E0,-2.1831995E-1,1.3226212E0,-2.4116345E-2,-6.738419E-1,1.5277491E-2,-1.941587E-1,4.931875E-1,-1.0910722E-1,5.0024706E-4,8.1416994E-2,1.5801345E-1,-7.395283E-2,1.9646404E-2,2.157644E-2,-1.2115715E-1,2.1755638E-2,-7.646461E-3],"categories":[],"categories_nodes":[],"categories_segments":[],"categories_sizes":[],"default_left":[0,0,0,0,0,0,0,0,0,0,0,0,0,0,0,0,0,0,0,0,0,0,0,0,0,0,0],"id":41,"left_children":[1,3,5,7,9,11,13,-1,-1,15,17,19,21,23,25,-1,-1,-1,-1,-1,-1,-1,-1,-1,-1,-1,-1],"loss_changes":[2.4300028E1,9.03276E1,3.8778656E1,4.4000427E1,7.572008E1,3.3539468E2,1.3265782E2,0E0,0E0,5.4753644E2,6.21802E1,2.6340363E1,2.3638063E2,1.4520679E2,6.643388E1,0E0,0E0,0E0,0E0,0E0,0E0,0E0,0E0,0E0,0E0,0E0,0E0],"parents":[2147483647,0,0,1,1,2,2,3,3,4,4,5,5,6,6,9,9,10,10,11,11,12,12,13,13,14,14],"right_children":[2,4,6,8,10,12,14,-1,-1,16,18,20,22,24,26,-1,-1,-1,-1,-1,-1,-1,-1,-1,-1,-1,-1],"split_conditions":[4E0,2E0,4E0,3E0,3E0,8E0,7E0,-2.4771161E-2,-2.0461114E-1,3E0,4E0,2E0,1.2E1,6E0,1.4E1,-1.941587E-1,4.931875E-1,-1.0910722E-1,5.0024706E-4,8.1416994E-2,1.5801345E-1,-7.395283E-2,1.9646404E-2,2.157644E-2,-1.2115715E-1,2.1755638E-2,-7.646461E-3],"split_indices":[1,0,0,1,0,1,1,0,0,1,0,0,1,0,1,0,0,0,0,0,0,0,0,0,0,0,0],"split_type":[0,0,0,0,0,0,0,0,0,0,0,0,0,0,0,0,0,0,0,0,0,0,0,0,0,0,0],"sum_hessian":[6.007E3,4.21E2,5.586E3,5.8E1,3.63E2,1.706E3,3.88E3,2.2E1,3.6E1,4.5E1,3.18E2,2.1E2,1.496E3,3.02E2,3.578E3,2.5E1,2E1,6.4E1,2.54E2,7.2E1,1.38E2,3.52E2,1.144E3,1.14E2,1.88E2,1.116E3,2.462E3],"tree_param":{"num_deleted":"0","num_feature":"2","num_nodes":"27","size_leaf_vector":"1"}},{"base_weights":[-6.6148513E-4,5.3940386E-2,-7.215569E-2,6.390908E-3,5.5739325E-1,-1.1522936E-3,-1.7064741E-1,-5.3342246E-2,1.416917E-1,1.0392338E0,1.6377151E-1,9.6932214E-1,-1.5227874E-1,-1.3382831E0,3.0203653E-2,-3.170274E-2,2.5811226E-3,-1.3585053E-2,4.787925E-2,5.7508763E-2,3.213879E-1,3.0017693E-2,-1.2798893E-3,3.1804305E-2,1.807289E-1,-3.8954273E-2,-1.024529E-2,-1.9517083E-1,-8.636675E-2,1.3634229E-2,-8.854728E-3],"categories":[],"categories_nodes":[],"categories_segments":[],"categories_sizes":[],"default_left":[0,0,0,0,0,0,0,0,0,0,0,0,0,0,0,0,0,0,0,0,0,0,0,0,0,0,0,0,0,0,0],"id":42,"left_children":[1,3,5,7,9,11,13,15,17,19,21,23,25,27,29,-1,-1,-1,-1,-1,-1,-1,-1,-1,-1,-1,-1,-1,-1,-1,-1],"loss_changes":[2.3457428E1,8.155634E1,1.8196232E1,2.5174728E1,5.55907E1,2.2205077E2,2.5566815E2,4.51117E1,8.9321014E1,1.3138634E2,3.9297218E0,1.10758255E2,1.5446749E1,4.4896942E1,1.1746455E1,0E0,0E0,0E0,0E0,0E0,0E0,0E0,0E0,0E0,0E0,0E0,0E0,0E0,0E0,0E0,0E0],"parents":[2147483647,0,0,1,1,2,2,3,3,4,4,5,5,6,6,7,7,8,8,9,9,10,10,11,11,12,12,13,13,14,14],"right_children":[2,4,6,8,10,12,14,16,18,20,22,24,26,28,30,-1,-1,-1,-1,-1,-1,-1,-1,-1,-1,-1,-1,-1,-1,-1,-1],"split_conditions":[1.7E1,1.6E1,6E0,1.2E1,5E0,1.8E1,1.8E1,3E0,6E0,4E0,7E0,5E0,2E0,7E0,7E0,-3.170274E-2,2.5811226E-3,-1.3585053E-2,4.787925E-2,5.7508763E-2,3.213879E-1,3.0017693E-2,-1.2798893E-3,3.1804305E-2,1.807289E-1,-3.8954273E-2,-1.024529E-2,-1.9517083E-1,-8.636675E-2,1.3634229E-2,-8.854728E-3],"split_indices":[1,1,0,1,0,1,1,0,0,0,0,0,0,0,0,0,0,0,0,0,0,0,0,0,0,0,0,0,0,0,0],"split_type":[0,0,0,0,0,0,0,0,0,0,0,0,0,0,0,0,0,0,0,0,0,0,0,0,0,0,0,0,0,0,0],"sum_hessian":[6.007E3,3.406E3,2.601E3,3.113E3,2.93E2,1.512E3,1.089E3,2.16E3,9.53E2,1.31E2,1.62E2,2.03E2,1.309E3,1.59E2,9.3E2,4.98E2,1.662E3,5.23E2,4.3E2,1.09E2,2.2E1,9.1E1,7.1E1,1.15E2,8.8E1,2.26E2,1.083E3,6.8E1,9.1E1,4.91E2,4.39E2],"tree_param":{"num_deleted":"0","num_feature":"2","num_nodes":"31","size_leaf_vector":"1"}},{"base_weights":[-5.4566254E-4,7.350411E-1,-5.723155E-3,-4.730774E-2,2.0876253E-1,-4.043824E-1,1.0546811E-2,-9.04024E-1,8.606135E-2,1.1899379E-1,-3.9304495E-2,-1.9369302E-2,-1.0682111E-1,-3.5198869E-3,2.6615873E-2,7.453605E-2,-1.0794232E-3,-5.182388E-2,7.6765695E-4],"categories":[],"categories_nodes":[],"categories_segments":[],"categories_sizes":[],"default_left":[0,0,0,0,0,0,0,0,0,0,0,0,0,0,0,0,0,0,0],"id":43,"left_children":[1,3,5,-1,-1,7,9,11,13,15,17,-1,-1,-1,-1,-1,-1,-1,-1],"loss_changes":[2.2885643E1,6.961906E1,3.8707253E1,0E0,0E0,5.7418587E1,3.1003965E1,1.3321846E1,2.6081676E0,1.4682661E2,8.84098E1,0E0,0E0,0E0,0E0,0E0,0E0,0E0,0E0],"parents":[2147483647,0,0,1,1,2,2,5,5,6,6,7,7,8,8,9,9,10,10],"right_children":[2,4,6,-1,-1,8,10,12,14,16,18,-1,-1,-1,-1,-1,-1,-1,-1],"split_conditions":[2E0,6E0,3E0,-4.730774E-2,2.0876253E-1,6E0,4E0,2E0,7E0,8E0,7E0,-1.9369302E-2,-1.0682111E-1,-3.5198869E-3,2.6615873E-2,7.453605E-2,-1.0794232E-3,-5.182388E-2,7.6765695E-4],"split_indices":[1,0,1,0,0,0,0,0,0,1,1,0,0,0,0,0,0,0,0],"split_type":[0,0,0,0,0,0,0,0,0,0,0,0,0,0,0,0,0,0,0],"sum_hessian":[6.007E3,4.1E1,5.966E3,2.2E1,1.9E1,2.33E2,5.733E3,1.15E2,1.18E2,1.805E3,3.928E3,2.2E1,9.3E1,7.1E1,4.7E1,3.09E2,1.496E3,3.5E2,3.578E3],"tree_param":{"num_deleted":"0","num_feature":"2","num_nodes":"19","size_leaf_vector":"1"}},{"base_weights":[-4.7732284E-4,3.5330236E-2,-9.2669256E-2,1.6129132E-1,-2.0240257E-2,-1.7097482E-1,1.9216571E-2,-1.0286004E-1,4.8456177E-1,-4.0306032E-1,4.7368236E-2,-8.729623E-2,-2.1526965E-1,2.7055627E-1,-2.695334E-1,3.625127E-2,-1.02558784E-1,-1.4894314E-2,7.056222E-2,-1.6406534E-2,-1.3467322E-1,2.7657932E-2,-2.973955E-3,-8.1165776E-2,3.006622E-3,-3.611296E-2,-9.2417495E-3,8.22193E-2,6.396636E-3,-8.5715644E-2,-1.1816655E-2],"categories":[],"categories_nodes":[],"categories_segments":[],"categories_sizes":[],"default_left":[0,0,0,0,0,0,0,0,0,0,0,0,0,0,0,0,0,0,0,0,0,0,0,0,0,0,0,0,0,0,0],"id":44,"left_children":[1,3,5,7,9,11,13,15,17,19,21,23,25,27,29,-1,-1,-1,-1,-1,-1,-1,-1,-1,-1,-1,-1,-1,-1,-1,-1],"loss_changes":[1.983669E1,3.029805E1,1.4731003E1,1.1319469E2,7.776828E1,3.646967E0,5.0366936E1,3.1384277E2,8.357063E1,1.01494354E2,4.5147514E1,2.9268824E1,1.1542435E1,4.222753E1,2.8628477E1,0E0,0E0,0E0,0E0,0E0,0E0,0E0,0E0,0E0,0E0,0E0,0E0,0E0,0E0,0E0,0E0],"parents":[2147483647,0,0,1,1,2,2,3,3,4,4,5,5,6,6,7,7,8,8,9,9,10,10,11,11,12,12,13,13,14,14],"right_children":[2,4,6,8,10,12,14,16,18,20,22,24,26,28,30,-1,-1,-1,-1,-1,-1,-1,-1,-1,-1,-1,-1,-1,-1,-1,-1],"split_conditions":[2E1,4E0,6E0,1.2E1,5E0,3E0,7E0,9E0,2E0,1.7E1,6E0,2.1E1,2.2E1,2.1E1,2.1E1,3.625127E-2,-1.02558784E-1,-1.4894314E-2,7.056222E-2,-1.6406534E-2,-1.3467322E-1,2.7657932E-2,-2.973955E-3,-8.1165776E-2,3.006622E-3,-3.611296E-2,-9.2417495E-3,8.22193E-2,6.396636E-3,-8.5715644E-2,-1.1816655E-2],"split_indices":[1,0,0,1,0,0,0,1,0,1,0,1,1,1,1,0,0,0,0,0,0,0,0,0,0,0,0,0,0,0,0],"split_type":[0,0,0,0,0,0,0,0,0,0,0,0,0,0,0,0,0,0,0,0,0,0,0,0,0,0,0,0,0,0,0],"sum_hessian":[6.007E3,4.327E3,1.68E3,1.324E3,3.003E3,9.88E2,6.92E2,7.29E2,5.95E2,4.5E2,2.553E3,3.43E2,6.45E2,3.7E2,3.22E2,4.85E2,2.44E2,1.54E2,4.41E2,3.6E2,9E1,6.42E2,1.911E3,4.7E1,2.96E2,2.94E2,3.51E2,1E2,2.7E2,6.5E1,2.57E2],"tree_param":{"num_deleted":"0","num_feature":"2","num_nodes":"31","size_leaf_vector":"1"}},{"base_weights":[-4.7456933E-4,-2.1375312E-1,1.5634974E-2,-1.2883643E0,-3.89844E-2,1.2742971E-1,-3.35403E-2,-2.0984096E-2,-1.9239771E-1,1.066379E0,-1.9825628E-1,1.1020602E0,-1.0028189E-2,-5.592864E-1,1.0979012E-2,-1.6565572E-1,4.3868533E-1,-1.0366755E-1,1.6235886E-3,6.558671E-2,1.3284634E-1,-5.8310527E-2,1.666585E-2,-2.1460941E-1,-2.5217716E-2,1.8632183E-2,-6.8545504E-3],"categories":[],"categories_nodes":[],"categories_segments":[],"categories_sizes":[],"default_left":[0,0,0,0,0,0,0,0,0,0,0,0,0,0,0,0,0,0,0,0,0,0,0,0,0,0,0],"id":45,"left_children":[1,3,5,7,9,11,13,-1,-1,15,17,19,21,23,25,-1,-1,-1,-1,-1,-1,-1,-1,-1,-1,-1,-1],"loss_changes":[2.064575E1,7.9204926E1,3.0719011E1,4.0042145E1,6.429482E1,2.2869896E2,9.084427E1,0E0,0E0,4.231733E2,5.7383984E1,2.0443817E1,1.5167604E2,1.4711778E2,4.9918537E1,0E0,0E0,0E0,0E0,0E0,0E0,0E0,0E0,0E0,0E0,0E0,0E0],"parents":[2147483647,0,0,1,1,2,2,3,3,4,4,5,5,6,6,9,9,10,10,11,11,12,12,13,13,14,14],"right_children":[2,4,6,8,10,12,14,-1,-1,16,18,20,22,24,26,-1,-1,-1,-1,-1,-1,-1,-1,-1,-1,-1,-1],"split_conditions":[4E0,2E0,4E0,3E0,3E0,8E0,7E0,-2.0984096E-2,-1.9239771E-1,3E0,4E0,2E0,1.2E1,5E0,1.4E1,-1.6565572E-1,4.3868533E-1,-1.0366755E-1,1.6235886E-3,6.558671E-2,1.3284634E-1,-5.8310527E-2,1.666585E-2,-2.1460941E-1,-2.5217716E-2,1.8632183E-2,-6.8545504E-3],"split_indices":[1,0,0,1,0,1,1,0,0,1,0,0,1,0,1,0,0,0,0,0,0,0,0,0,0,0,0],"split_type":[0,0,0,0,0,0,0,0,0,0,0,0,0,0,0,0,0,0,0,0,0,0,0,0,0,0,0],"sum_hessian":[6.007E3,4.21E2,5.586E3,5.8E1,3.63E2,1.706E3,3.88E3,2.2E1,3.6E1,4.5E1,3.18E2,2.1E2,1.496E3,3.02E2,3.578E3,2.5E1,2E1,6.4E1,2.54E2,7.2E1,1.38E2,3.52E2,1.144E3,4.8E1,2.54E2,1.116E3,2.462E3],"tree_param":{"num_deleted":"0","num_feature":"2","num_nodes":"27","size_leaf_vector":"1"}},{"base_weights":[-4.4596646E-4,2.3106782E-2,-1.3537924E-1,-1.3981958E-1,4.9909845E-2,-9.847974E-2,-3.1043315E-1,5.2682314E-2,-4.463555E-1,9.6014164E-2,-2.2511216E-2,-2.720539E-1,-3.0884365E-2,-5.6667693E-2,-1.2399054E-2,-4.0875383E-2,7.0339665E-2,1.266553E-2,-2.2613548E-1,4.7551137E-3,4.8998546E-2,9.1788415E-3,-1.6721046E-2,-1.200503E-2,-4.6075355E-2,1.3441888E-2,-2.1298682E-2],"categories":[],"categories_nodes":[],"categories_segments":[],"categories_sizes":[],"default_left":[0,0,0,0,0,0,0,0,0,0,0,0,0,0,0,0,0,0,0,0,0,0,0,0,0,0,0],"id":46,"left_children":[1,3,5,7,9,11,13,15,17,19,21,23,25,-1,-1,-1,-1,-1,-1,-1,-1,-1,-1,-1,-1,-1,-1],"loss_changes":[1.909685E1,2.2348167E1,5.7376766E0,4.268684E1,1.4673393E1,8.662146E0,7.3348246E0,1.3390459E2,2.9045032E2,5.124151E1,2.8297157E1,5.8820715E0,1.6073063E1,0E0,0E0,0E0,0E0,0E0,0E0,0E0,0E0,0E0,0E0,0E0,0E0,0E0,0E0],"parents":[2147483647,0,0,1,1,2,2,3,3,4,4,5,5,6,6,7,7,8,8,9,9,10,10,11,11,12,12],"right_children":[2,4,6,8,10,12,14,16,18,20,22,24,26,-1,-1,-1,-1,-1,-1,-1,-1,-1,-1,-1,-1,-1,-1],"split_conditions":[2.2E1,6E0,7E0,6E0,1.7E1,3E0,2.3E1,4E0,5E0,1.6E1,6E0,2E0,2.3E1,-5.6667693E-2,-1.2399054E-2,-4.0875383E-2,7.0339665E-2,1.266553E-2,-2.2613548E-1,4.7551137E-3,4.8998546E-2,9.1788415E-3,-1.6721046E-2,-1.200503E-2,-4.6075355E-2,1.3441888E-2,-2.1298682E-2],"split_indices":[1,1,0,0,1,0,1,1,1,1,0,0,1,0,0,0,0,0,0,0,0,0,0,0,0,0,0],"split_type":[0,0,0,0,0,0,0,0,0,0,0,0,0,0,0,0,0,0,0,0,0,0,0,0,0,0,0],"sum_hessian":[6.007E3,5.115E3,8.92E2,7.22E2,4.393E3,7.38E2,1.54E2,4.44E2,2.78E2,2.684E3,1.709E3,2.06E2,5.32E2,6.4E1,9E1,2.6E2,1.84E2,2.12E2,6.6E1,2.391E3,2.93E2,9.55E2,7.54E2,1.15E2,9.1E1,2.79E2,2.53E2],"tree_param":{"num_deleted":"0","num_feature":"2","num_nodes":"27","size_leaf_vector":"1"}},{"base_weights":[-4.467156E-4,6.6633534E-1,-5.1399283E-3,-4.1673657E-2,1.8785512E-1,-2.641036E-1,1.2520765E-2,-1.122962E0,-1.0640467E-1,7.1515486E-2,-5.518514E-2,-1.5067098E-2,-1.6970088E-1,1.0056633E-1,-2.9003317E-2,3.1134759E-3,4.4115424E-2,-2.7365366E-2,-3.2052663E-3],"categories":[],"categories_nodes":[],"categories_segments":[],"categories_sizes":[],"default_left":[0,0,0,0,0,0,0,0,0,0,0,0,0,0,0,0,0,0,0],"id":47,"left_children":[1,3,5,-1,-1,7,9,11,13,15,17,-1,-1,-1,-1,-1,-1,-1,-1],"loss_changes":[1.8804558E1,5.592537E1,2.7293247E1,0E0,0E0,5.148354E1,2.232005E1,3.2674606E1,6.625065E1,4.4556145E1,1.3141003E1,0E0,0E0,0E0,0E0,0E0,0E0,0E0,0E0],"parents":[2147483647,0,0,1,1,2,2,5,5,6,6,7,7,8,8,9,9,10,10],"right_children":[2,4,6,-1,-1,8,10,12,14,16,18,-1,-1,-1,-1,-1,-1,-1,-1],"split_conditions":[2E0,6E0,4E0,-4.1673657E-2,1.8785512E-1,2E0,1.7E1,3E0,3E0,1.6E1,2E0,-1.5067098E-2,-1.6970088E-1,1.0056633E-1,-2.9003317E-2,3.1134759E-3,4.4115424E-2,-2.7365366E-2,-3.2052663E-3],"split_indices":[1,0,1,0,0,0,1,1,0,1,0,0,0,0,0,0,0,0,0],"split_type":[0,0,0,0,0,0,0,0,0,0,0,0,0,0,0,0,0,0,0],"sum_hessian":[6.007E3,4.1E1,5.966E3,2.2E1,1.9E1,3.8E2,5.586E3,5.8E1,3.22E2,2.985E3,2.601E3,2.2E1,3.6E1,4.5E1,2.77E2,2.692E3,2.93E2,2.48E2,2.353E3],"tree_param":{"num_deleted":"0","num_feature":"2","num_nodes":"19","size_leaf_vector":"1"}},{"base_weights":[-3.9355585E-4,6.0318226E-1,-4.641887E-3,-3.7687477E-2,1.7000888E-1,-3.190096E-1,8.18802E-3,-7.4117005E-1,9.5188886E-2,3.8172577E-2,-1.0855918E-1,-1.3625897E-2,-8.812954E-2,-1.4285363E-3,2.5741717E-2,9.924709E-3,-7.115771E-3,-4.4335924E-2,-2.3670106E-3],"categories":[],"categories_nodes":[],"categories_segments":[],"categories_sizes":[],"default_left":[0,0,0,0,0,0,0,0,0,0,0,0,0,0,0,0,0,0,0],"id":48,"left_children":[1,3,5,-1,-1,7,9,11,13,15,17,-1,-1,-1,-1,-1,-1,-1,-1],"loss_changes":[1.5408453E1,4.5792023E1,2.4069363E1,0E0,0E0,4.0987373E1,2.0076658E1,9.712475E0,2.117096E0,3.0475554E1,3.3298767E1,0E0,0E0,0E0,0E0,0E0,0E0,0E0,0E0],"parents":[2147483647,0,0,1,1,2,2,5,5,6,6,7,7,8,8,9,9,10,10],"right_children":[2,4,6,-1,-1,8,10,12,14,16,18,-1,-1,-1,-1,-1,-1,-1,-1],"split_conditions":[2E0,6E0,3E0,-3.7687477E-2,1.7000888E-1,6E0,7E0,2E0,7E0,1.9E1,1E1,-1.3625897E-2,-8.812954E-2,-1.4285363E-3,2.5741717E-2,9.924709E-3,-7.115771E-3,-4.4335924E-2,-2.3670106E-3],"split_indices":[1,0,1,0,0,0,0,0,0,1,1,0,0,0,0,0,0,0,0],"split_type":[0,0,0,0,0,0,0,0,0,0,0,0,0,0,0,0,0,0,0],"sum_hessian":[6.007E3,4.1E1,5.966E3,2.2E1,1.9E1,2.33E2,5.733E3,1.15E2,1.18E2,4.562E3,1.171E3,2.2E1,9.3E1,7.1E1,4.7E1,2.927E3,1.635E3,2.36E2,9.35E2],"tree_param":{"num_deleted":"0","num_feature":"2","num_nodes":"19","size_leaf_vector":"1"}},{"base_weights":[-3.5211607E-4,5.4601455E-1,-4.197775E-3,-3.4082606E-2,1.5385805E-1,-2.874396E-1,7.3618316E-3,-6.679303E-1,8.587433E-2,3.4356266E-2,-9.7743094E-2,-1.2322551E-2,-7.9410344E-2,-1.28766E-3,2.3221167E-2,8.932642E-3,-6.404652E-3,-3.9921027E-2,-2.1305636E-3],"categories":[],"categories_nodes":[],"categories_segments":[],"categories_sizes":[],"default_left":[0,0,0,0,0,0,0,0,0,0,0,0,0,0,0,0,0,0,0],"id":49,"left_children":[1,3,5,-1,-1,7,9,11,13,15,17,-1,-1,-1,-1,-1,-1,-1,-1],"loss_changes":[1.2625941E1,3.749479E1,1.9539053E1,0E0,0E0,3.3295296E1,1.627214E1,7.8744926E0,1.722653E0,2.4687971E1,2.6998337E1,0E0,0E0,0E0,0E0,0E0,0E0,0E0,0E0],"parents":[2147483647,0,0,1,1,2,2,5,5,6,6,7,7,8,8,9,9,10,10],"right_children":[2,4,6,-1,-1,8,10,12,14,16,18,-1,-1,-1,-1,-1,-1,-1,-1],"split_conditions":[2E0,6E0,3E0,-3.4082606E-2,1.5385805E-1,6E0,7E0,2E0,7E0,1.9E1,1E1,-1.2322551E-2,-7.9410344E-2,-1.28766E-3,2.3221167E-2,8.932642E-3,-6.404652E-3,-3.9921027E-2,-2.1305636E-3],"split_indices":[1,0,1,0,0,0,0,0,0,1,1,0,0,0,0,0,0,0,0],"split_type":[0,0,0,0,0,0,0,0,0,0,0,0,0,0,0,0,0,0,0],"sum_hessian":[6.007E3,4.1E1,5.966E3,2.2E1,1.9E1,2.33E2,5.733E3,1.15E2,1.18E2,4.562E3,1.171E3,2.2E1,9.3E1,7.1E1,4.7E1,2.927E3,1.635E3,2.36E2,9.35E2],"tree_param":{"num_deleted":"0","num_feature":"2","num_nodes":"19","size_leaf_vector":"1"}}]},"name":"gbtree"},"learner_model_param":{"base_score":"[1.370501E1]","boost_from_average":"1","num_class":"0","num_feature":"2","num_target":"1"},"objective":{"name":"reg:squarederror","reg_loss_param":{"scale_pos_weight":"1"}}},"version":[3,2,0]}