{"learner":{"attributes":{},"feature_names":["day_of_week","hour_of_day"],"feature_types":[],"gradient_booster":{"model":{"cats":{"enc":[],"feature_segments":[],"sorted_idx":[]},"gbtree_model_param":{"num_parallel_tree":"1","num_trees":"50"},"iteration_indptr":[0,1,2,3,4,5,6,7,8,9,10,11,12,13,14,15,16,17,18,19,20,21,22,23,24,25,26,27,28,29,30,31,32,33,34,35,36,37,38,39,40,41,42,43,44,45,46,47,48,49,50],"tree_info":[0,0,0,0,0,0,0,0,0,0,0,0,0,0,0,0,0,0,0,0,0,0,0,0,0,0,0,0,0,0,0,0,0,0,0,0,0,0,0,0,0,0,0,0,0,0,0,0,0,0],"trees":[{"base_weights":[5.193976E-7,2.1384962E0,-5.4678893E0,-1.019236E1,3.59642E0,-2.4439518E0,-8.049605E0,-1.0426204E0,-8.082685E-1,4.873611E0,2.4341817E0,-4.4241557E0,-1.2734063E0,-1.0488851E0,-6.586916E0,5.519156E-1,1.2578638E-1,-6.039611E-1,3.2668293E-1,-4.971989E-1,-3.2363188E-1,7.861539E-2,-4.8062778E-1,-4.3016854E-1,-1.1160238E0],"categories":[],"categories_nodes":[],"categories_segments":[],"categories_sizes":[],"default_left":[0,0,0,0,0,0,0,0,0,0,0,0,0,0,0,0,0,0,0,0,0,0,0,0,0],"id":0,"left_children":[1,3,5,7,9,11,13,-1,-1,15,17,19,21,-1,23,-1,-1,-1,-1,-1,-1,-1,-1,-1,-1],"loss_changes":[3.4728383E4,3.8418516E4,6.499127E3,2.722461E1,2.8233418E3,8.89083E2,1.5364473E3,0E0,0E0,2.1147812E3,7.089524E3,7.6964355E1,1.7791617E3,0E0,2.9201025E3,0E0,0E0,0E0,0E0,0E0,0E0,0E0,0E0,0E0,0E0],"parents":[2147483647,0,0,1,1,2,2,3,3,4,4,5,5,6,6,9,9,10,10,11,11,12,12,14,14],"right_children":[2,4,6,8,10,12,14,-1,-1,16,18,20,22,-1,24,-1,-1,-1,-1,-1,-1,-1,-1,-1,-1],"split_conditions":[2E1,5E0,2.2E1,3E0,6E0,5E0,5E0,-1.0426204E0,-8.082685E-1,1.8E1,7E0,4E0,7E0,-1.0488851E0,7E0,5.519156E-1,1.2578638E-1,-6.039611E-1,3.2668293E-1,-4.971989E-1,-3.2363188E-1,7.861539E-2,-4.8062778E-1,-4.3016854E-1,-1.1160238E0],"split_indices":[1,1,1,1,0,0,0,0,0,1,1,0,0,0,0,0,0,0,0,0,0,0,0,0,0],"split_type":[0,0,0,0,0,0,0,0,0,0,0,0,0,0,0,0,0,0,0,0,0,0,0,0,0],"sum_hessian":[2.968E3,2.134E3,8.34E2,2.25E2,1.909E3,3.85E2,4.49E2,1.99E2,2.6E1,9.08E2,1.001E3,1.42E2,2.43E2,1.66E2,2.83E2,7.7E2,1.38E2,8.9E1,9.12E2,9.5E1,4.7E1,1.54E2,8.9E1,1.9E2,9.3E1],"tree_param":{"num_deleted":"0","num_feature":"2","num_nodes":"25","size_leaf_vector":"1"}},{"base_weights":[-1.7739553E-3,1.9239671E0,-4.9256725E0,-9.1813135E0,3.2369878E0,-2.2027245E0,-7.2504115E0,-9.3887967E-1,-7.3043513E-1,3.711384E0,4.2687824E-1,-3.98748E0,-1.1477132E0,-9.446246E-1,-5.933669E0,1.7673743E-1,4.5843616E-1,1.4469886E-1,-8.824141E-3,-4.479969E-1,-2.9194292E-1,7.0804566E-2,-4.33099E-1,-3.8737693E-1,-1.0056086E0],"categories":[],"categories_nodes":[],"categories_segments":[],"categories_sizes":[],"default_left":[0,0,0,0,0,0,0,0,0,0,0,0,0,0,0,0,0,0,0,0,0,0,0,0,0],"id":1,"left_children":[1,3,5,7,9,11,13,-1,-1,15,17,19,21,-1,23,-1,-1,-1,-1,-1,-1,-1,-1,-1,-1],"loss_changes":[2.8161992E4,3.1161143E4,5.269699E3,1.9433594E1,2.5446465E3,7.222373E2,1.2450566E3,0E0,0E0,2.76492E3,1.4568532E2,6.2139404E1,1.4444707E3,0E0,2.372706E3,0E0,0E0,0E0,0E0,0E0,0E0,0E0,0E0,0E0,0E0],"parents":[2147483647,0,0,1,1,2,2,3,3,4,4,5,5,6,6,9,9,10,10,11,11,12,12,14,14],"right_children":[2,4,6,8,10,12,14,-1,-1,16,18,20,22,-1,24,-1,-1,-1,-1,-1,-1,-1,-1,-1,-1],"split_conditions":[2E1,5E0,2.2E1,3E0,1.8E1,5E0,5E0,-9.3887967E-1,-7.3043513E-1,1E1,1.9E1,4E0,7E0,-9.446246E-1,7E0,1.7673743E-1,4.5843616E-1,1.4469886E-1,-8.824141E-3,-4.479969E-1,-2.9194292E-1,7.0804566E-2,-4.33099E-1,-3.8737693E-1,-1.0056086E0],"split_indices":[1,1,1,1,1,0,0,0,0,1,1,0,0,0,0,0,0,0,0,0,0,0,0,0,0],"split_type":[0,0,0,0,0,0,0,0,0,0,0,0,0,0,0,0,0,0,0,0,0,0,0,0,0],"sum_hessian":[2.968E3,2.134E3,8.34E2,2.25E2,1.909E3,3.85E2,4.49E2,1.99E2,2.6E1,1.633E3,2.76E2,1.42E2,2.43E2,1.66E2,2.83E2,5.07E2,1.126E3,9.2E1,1.84E2,9.5E1,4.7E1,1.54E2,8.9E1,1.9E2,9.3E1],"tree_param":{"num_deleted":"0","num_feature":"2","num_nodes":"25","size_leaf_vector":"1"}},{"base_weights":[-3.0577763E-3,1.7311496E0,-4.437225E0,-8.270568E0,2.9136925E0,-1.9853076E0,-6.530565E0,-8.454611E0,-6.6009694E-1,4.0746403E0,1.8575895E0,-3.5939064E0,-1.0344268E0,-8.5072775E0,-5.345207E0,-8.961358E-1,-7.735683E-1,4.6120524E-1,1.0644287E-1,-5.6171346E-1,2.5923842E-1,-4.0366387E-1,-2.6335686E-1,6.376979E-2,-3.9027032E-1,-7.3581994E-1,-8.9220804E-1,-3.4884208E-1,-9.0611756E-1],"categories":[],"categories_nodes":[],"categories_segments":[],"categories_sizes":[],"default_left":[0,0,0,0,0,0,0,0,0,0,0,0,0,0,0,0,0,0,0,0,0,0,0,0,0,0,0,0,0],"id":2,"left_children":[1,3,5,7,9,11,13,15,-1,17,19,21,23,25,27,-1,-1,-1,-1,-1,-1,-1,-1,-1,-1,-1,-1,-1,-1],"loss_changes":[2.2838598E4,2.5275727E4,4.272836E3,1.3637695E1,2.334246E3,5.867025E2,1.00892773E3,3.540039E0,0E0,1.4656016E3,5.5179346E3,5.0168945E1,1.1727411E3,1.3949219E1,1.9279219E3,0E0,0E0,0E0,0E0,0E0,0E0,0E0,0E0,0E0,0E0,0E0,0E0,0E0,0E0],"parents":[2147483647,0,0,1,1,2,2,3,3,4,4,5,5,6,6,7,7,9,9,10,10,11,11,12,12,13,13,14,14],"right_children":[2,4,6,8,10,12,14,16,-1,18,20,22,24,26,28,-1,-1,-1,-1,-1,-1,-1,-1,-1,-1,-1,-1,-1,-1],"split_conditions":[2E1,5E0,2.2E1,3E0,6E0,5E0,5E0,6E0,-6.6009694E-1,1.8E1,7E0,4E0,7E0,2E0,7E0,-8.961358E-1,-7.735683E-1,4.6120524E-1,1.0644287E-1,-5.6171346E-1,2.5923842E-1,-4.0366387E-1,-2.6335686E-1,6.376979E-2,-3.9027032E-1,-7.3581994E-1,-8.9220804E-1,-3.4884208E-1,-9.0611756E-1],"split_indices":[1,1,1,1,0,0,0,0,0,1,1,0,0,0,0,0,0,0,0,0,0,0,0,0,0,0,0,0,0],"split_type":[0,0,0,0,0,0,0,0,0,0,0,0,0,0,0,0,0,0,0,0,0,0,0,0,0,0,0,0,0],"sum_hessian":[2.968E3,2.134E3,8.34E2,2.25E2,1.909E3,3.85E2,4.49E2,1.99E2,2.6E1,9.08E2,1.001E3,1.42E2,2.43E2,1.66E2,2.83E2,1.1E2,8.9E1,7.7E2,1.38E2,8.9E1,9.12E2,9.5E1,4.7E1,1.54E2,8.9E1,4.9E1,1.17E2,1.9E2,9.3E1],"tree_param":{"num_deleted":"0","num_feature":"2","num_nodes":"29","size_leaf_vector":"1"}},{"base_weights":[-4.75299E-3,1.5570678E0,-3.998145E0,-7.4538198E0,2.6224623E0,-1.7893505E0,-5.8839154E0,-7.6174984E0,-5.9653205E-1,3.6678007E0,1.6715289E0,-3.2391803E0,-9.323219E-1,-7.6662984E0,-4.8151054E0,-8.073296E-1,-6.97071E-1,4.1514453E-1,9.5875196E-2,-5.061663E-1,2.33343E-1,-3.63718E-1,-2.3756981E-1,5.7434004E-2,-3.5167694E-1,-6.637096E-1,-8.037433E-1,-3.1414053E-1,-8.164698E-1],"categories":[],"categories_nodes":[],"categories_segments":[],"categories_sizes":[],"default_left":[0,0,0,0,0,0,0,0,0,0,0,0,0,0,0,0,0,0,0,0,0,0,0,0,0,0,0,0,0],"id":3,"left_children":[1,3,5,7,9,11,13,15,-1,17,19,21,23,25,27,-1,-1,-1,-1,-1,-1,-1,-1,-1,-1,-1,-1,-1,-1],"loss_changes":[1.8523768E4,2.0515867E4,3.4674795E3,9.620117E0,1.8925E3,4.7660278E2,8.2034766E2,2.6835938E0,0E0,1.1870059E3,4.4774316E3,4.0503296E1,9.5212866E2,1.0444336E1,1.5665156E3,0E0,0E0,0E0,0E0,0E0,0E0,0E0,0E0,0E0,0E0,0E0,0E0,0E0,0E0],"parents":[2147483647,0,0,1,1,2,2,3,3,4,4,5,5,6,6,7,7,9,9,10,10,11,11,12,12,13,13,14,14],"right_children":[2,4,6,8,10,12,14,16,-1,18,20,22,24,26,28,-1,-1,-1,-1,-1,-1,-1,-1,-1,-1,-1,-1,-1,-1],"split_conditions":[2E1,5E0,2.2E1,3E0,6E0,5E0,5E0,6E0,-5.9653205E-1,1.8E1,7E0,4E0,7E0,2E0,7E0,-8.073296E-1,-6.97071E-1,4.1514453E-1,9.5875196E-2,-5.061663E-1,2.33343E-1,-3.63718E-1,-2.3756981E-1,5.7434004E-2,-3.5167694E-1,-6.637096E-1,-8.037433E-1,-3.1414053E-1,-8.164698E-1],"split_indices":[1,1,1,1,0,0,0,0,0,1,1,0,0,0,0,0,0,0,0,0,0,0,0,0,0,0,0,0,0],"split_type":[0,0,0,0,0,0,0,0,0,0,0,0,0,0,0,0,0,0,0,0,0,0,0,0,0,0,0,0,0],"sum_hessian":[2.968E3,2.134E3,8.34E2,2.25E2,1.909E3,3.85E2,4.49E2,1.99E2,2.6E1,9.08E2,1.001E3,1.42E2,2.43E2,1.66E2,2.83E2,1.1E2,8.9E1,7.7E2,1.38E2,8.9E1,9.12E2,9.5E1,4.7E1,1.54E2,8.9E1,4.9E1,1.17E2,1.9E2,9.3E1],"tree_param":{"num_deleted":"0","num_feature":"2","num_nodes":"29","size_leaf_vector":"1"}},{"base_weights":[-6.081971E-3,1.1866211E0,-4.263105E0,-6.7177343E0,2.0387442E0,-1.9175853E0,-5.301297E0,-6.8632708E0,-5.390882E-1,2.6615574E0,-8.7210613E-1,-1.3579828E0,-3.7736812E-1,-6.908456E0,-4.337576E0,-7.2732395E-1,-6.281384E-1,1.1619898E-1,3.2842967E-1,-3.284704E-1,-2.8822942E-2,-3.2089123E-1,3.0860463E-2,-5.986661E-1,-7.240501E-1,-2.82891E-1,-7.356913E-1],"categories":[],"categories_nodes":[],"categories_segments":[],"categories_sizes":[],"default_left":[0,0,0,0,0,0,0,0,0,0,0,0,0,0,0,0,0,0,0,0,0,0,0,0,0,0,0],"id":4,"left_children":[1,3,5,7,9,11,13,15,-1,17,19,21,-1,23,25,-1,-1,-1,-1,-1,-1,-1,-1,-1,-1,-1,-1],"loss_changes":[1.5079755E4,1.5640017E4,1.5726484E3,6.642578E0,3.8003809E3,2.0364929E2,6.6701855E2,2.0253906E0,0E0,1.6079902E3,5.202574E2,4.8220908E2,0E0,7.7685547E0,1.2728564E3,0E0,0E0,0E0,0E0,0E0,0E0,0E0,0E0,0E0,0E0,0E0,0E0],"parents":[2147483647,0,0,1,1,2,2,3,3,4,4,5,5,6,6,7,7,9,9,10,10,11,11,13,13,14,14],"right_children":[2,4,6,8,10,12,14,16,-1,18,20,22,-1,24,26,-1,-1,-1,-1,-1,-1,-1,-1,-1,-1,-1,-1],"split_conditions":[2.1E1,5E0,2.2E1,3E0,1.9E1,7E0,5E0,6E0,-5.390882E-1,1E1,4E0,5E0,-3.7736812E-1,2E0,7E0,-7.2732395E-1,-6.281384E-1,1.1619898E-1,3.2842967E-1,-3.284704E-1,-2.8822942E-2,-3.2089123E-1,3.0860463E-2,-5.986661E-1,-7.240501E-1,-2.82891E-1,-7.356913E-1],"split_indices":[1,1,1,1,1,0,0,0,0,1,0,0,0,0,0,0,0,0,0,0,0,0,0,0,0,0,0],"split_type":[0,0,0,0,0,0,0,0,0,0,0,0,0,0,0,0,0,0,0,0,0,0,0,0,0,0,0],"sum_hessian":[2.968E3,2.319E3,6.49E2,2.25E2,2.094E3,2E2,4.49E2,1.99E2,2.6E1,1.725E3,3.69E2,1.55E2,4.5E1,1.66E2,2.83E2,1.1E2,8.9E1,5.07E2,1.218E3,7.1E1,2.98E2,7.3E1,8.2E1,4.9E1,1.17E2,1.9E2,9.3E1],"tree_param":{"num_deleted":"0","num_feature":"2","num_nodes":"27","size_leaf_vector":"1"}},{"base_weights":[-7.095532E-3,1.0671804E0,-3.8414233E0,-6.0543437E0,1.8349118E0,-1.7291473E0,-4.77637E0,-6.183721E0,-4.87176E-1,2.490126E0,-4.8641896E-1,-1.2240438E0,-3.404517E-1,-6.22553E0,-3.907405E0,-6.401691E-1,-5.314829E-1,3.0581275E-1,7.7023394E-2,7.101412E-2,-7.858613E-2,-2.892357E-1,2.7811557E-2,-5.399968E-1,-6.5225863E-1,-2.5474998E-1,-6.6290486E-1],"categories":[],"categories_nodes":[],"categories_segments":[],"categories_sizes":[],"default_left":[0,0,0,0,0,0,0,0,0,0,0,0,0,0,0,0,0,0,0,0,0,0,0,0,0,0,0],"id":5,"left_children":[1,3,5,7,9,11,13,15,-1,17,19,21,-1,23,25,-1,-1,-1,-1,-1,-1,-1,-1,-1,-1,-1,-1],"loss_changes":[1.2233784E4,1.2695519E4,1.2754043E3,4.4521484E0,3.1876406E3,1.659259E2,5.423457E2,3.8544922E0,0E0,1.5939014E3,1.6609305E2,3.917517E2,0E0,5.7333984E0,1.0342466E3,0E0,0E0,0E0,0E0,0E0,0E0,0E0,0E0,0E0,0E0,0E0,0E0],"parents":[2147483647,0,0,1,1,2,2,3,3,4,4,5,5,6,6,7,7,9,9,10,10,11,11,13,13,14,14],"right_children":[2,4,6,8,10,12,14,16,-1,18,20,22,-1,24,26,-1,-1,-1,-1,-1,-1,-1,-1,-1,-1,-1,-1],"split_conditions":[2.1E1,5E0,2.2E1,3E0,1.8E1,7E0,5E0,7E0,-4.87176E-1,7E0,1.9E1,5E0,-3.404517E-1,2E0,7E0,-6.401691E-1,-5.314829E-1,3.0581275E-1,7.7023394E-2,7.101412E-2,-7.858613E-2,-2.892357E-1,2.7811557E-2,-5.399968E-1,-6.5225863E-1,-2.5474998E-1,-6.6290486E-1],"split_indices":[1,1,1,1,1,0,0,0,0,0,1,0,0,0,0,0,0,0,0,0,0,0,0,0,0,0,0],"split_type":[0,0,0,0,0,0,0,0,0,0,0,0,0,0,0,0,0,0,0,0,0,0,0,0,0,0,0],"sum_hessian":[2.968E3,2.319E3,6.49E2,2.25E2,2.094E3,2E2,4.49E2,1.99E2,2.6E1,1.633E3,4.61E2,1.55E2,4.5E1,1.66E2,2.83E2,1.54E2,4.5E1,1.227E3,4.06E2,9.2E1,3.69E2,7.3E1,8.2E1,4.9E1,1.17E2,1.9E2,9.3E1],"tree_param":{"num_deleted":"0","num_feature":"2","num_nodes":"27","size_leaf_vector":"1"}},{"base_weights":[-7.7316836E-3,1.1382277E0,-2.9378102E0,-5.456249E0,1.9179207E0,-1.3381652E0,-4.3034215E0,-5.571207E0,-4.4026276E-1,2.8146522E0,1.1025046E0,-2.457691E0,-6.765654E-1,-5.610116E0,-3.5198953E0,-5.9180665E-1,-5.081512E-1,3.180219E-1,7.6669164E-2,-4.8665902E-1,1.6897073E-1,-2.7728987E-1,-1.7760736E-1,5.3613007E-2,-2.757579E-1,-4.8707706E-1,-5.875855E-1,-2.2940831E-1,-5.973196E-1],"categories":[],"categories_nodes":[],"categories_segments":[],"categories_sizes":[],"default_left":[0,0,0,0,0,0,0,0,0,0,0,0,0,0,0,0,0,0,0,0,0,0,0,0,0,0,0,0,0],"id":6,"left_children":[1,3,5,7,9,11,13,15,-1,17,19,21,23,25,27,-1,-1,-1,-1,-1,-1,-1,-1,-1,-1,-1,-1,-1,-1],"loss_changes":[9.972506E3,1.0987925E4,1.818294E3,2.8461914E0,1.3935063E3,2.8423883E2,4.409756E2,3.8984375E0,0E0,6.780996E2,3.5203015E3,2.5798828E1,6.172456E2,4.190918E0,8.4036646E2,0E0,0E0,0E0,0E0,0E0,0E0,0E0,0E0,0E0,0E0,0E0,0E0,0E0,0E0],"parents":[2147483647,0,0,1,1,2,2,3,3,4,4,5,5,6,6,7,7,9,9,10,10,11,11,12,12,13,13,14,14],"right_children":[2,4,6,8,10,12,14,16,-1,18,20,22,24,26,28,-1,-1,-1,-1,-1,-1,-1,-1,-1,-1,-1,-1,-1,-1],"split_conditions":[2E1,5E0,2.2E1,3E0,6E0,5E0,5E0,6E0,-4.4026276E-1,1.8E1,7E0,4E0,7E0,2E0,7E0,-5.9180665E-1,-5.081512E-1,3.180219E-1,7.6669164E-2,-4.8665902E-1,1.6897073E-1,-2.7728987E-1,-1.7760736E-1,5.3613007E-2,-2.757579E-1,-4.8707706E-1,-5.875855E-1,-2.2940831E-1,-5.973196E-1],"split_indices":[1,1,1,1,0,0,0,0,0,1,1,0,0,0,0,0,0,0,0,0,0,0,0,0,0,0,0,0,0],"split_type":[0,0,0,0,0,0,0,0,0,0,0,0,0,0,0,0,0,0,0,0,0,0,0,0,0,0,0,0,0],"sum_hessian":[2.968E3,2.134E3,8.34E2,2.25E2,1.909E3,3.85E2,4.49E2,1.99E2,2.6E1,9.08E2,1.001E3,1.42E2,2.43E2,1.66E2,2.83E2,1.1E2,8.9E1,7.7E2,1.38E2,8.9E1,9.12E2,9.5E1,4.7E1,1.54E2,8.9E1,4.9E1,1.17E2,1.9E2,9.3E1],"tree_param":{"num_deleted":"0","num_feature":"2","num_nodes":"29","size_leaf_vector":"1"}},{"base_weights":[-8.319814E-3,8.653997E-1,-3.1268137E0,-4.91744E0,1.4888155E0,-2.1774971E0,-4.7394896E0,-5.0195866E0,-3.9786708E-1,2.0379524E0,-4.5659202E-1,-1.6401756E0,-3.9971538E0,-5.3699034E-1,-4.2587743E0,-5.2014107E-1,-4.297796E-1,6.466087E-2,2.6632982E-1,-1.727214E-1,-2.2144785E-2,-3.4216657E-1,-2.2771588E-2,-2.8017038E-1,-5.05952E-1,-3.5517308E-1,-5.597293E-1],"categories":[],"categories_nodes":[],"categories_segments":[],"categories_sizes":[],"default_left":[0,0,0,0,0,0,0,0,0,0,0,0,0,0,0,0,0,0,0,0,0,0,0,0,0,0,0],"id":7,"left_children":[1,3,5,7,9,11,13,15,-1,17,19,21,23,-1,25,-1,-1,-1,-1,-1,-1,-1,-1,-1,-1,-1,-1],"loss_changes":[8.0923076E3,8.371186E3,9.847905E2,1.7006836E0,2.2390088E3,3.9529553E2,4.9862793E1,3.8930664E0,0E0,1.4199731E3,1.376536E2,8.019151E2,1.0393518E2,0E0,1.1356128E2,0E0,0E0,0E0,0E0,0E0,0E0,0E0,0E0,0E0,0E0,0E0,0E0],"parents":[2147483647,0,0,1,1,2,2,3,3,4,4,5,5,6,6,7,7,9,9,10,10,11,11,12,12,14,14],"right_children":[2,4,6,8,10,12,14,16,-1,18,20,22,24,-1,26,-1,-1,-1,-1,-1,-1,-1,-1,-1,-1,-1,-1],"split_conditions":[2.1E1,5E0,2.3E1,3E0,1.8E1,7E0,5E0,7E0,-3.9786708E-1,1E1,3E0,5E0,2.2E1,-5.3699034E-1,7E0,-5.2014107E-1,-4.297796E-1,6.466087E-2,2.6632982E-1,-1.727214E-1,-2.2144785E-2,-3.4216657E-1,-2.2771588E-2,-2.8017038E-1,-5.05952E-1,-3.5517308E-1,-5.597293E-1],"split_indices":[1,1,1,1,1,0,0,0,0,1,0,0,1,0,0,0,0,0,0,0,0,0,0,0,0,0,0],"split_type":[0,0,0,0,0,0,0,0,0,0,0,0,0,0,0,0,0,0,0,0,0,0,0,0,0,0,0],"sum_hessian":[2.968E3,2.319E3,6.49E2,2.25E2,2.094E3,4.1E2,2.39E2,1.99E2,2.6E1,1.633E3,4.61E2,3.18E2,9.2E1,9.9E1,1.4E2,1.54E2,4.5E1,5.07E2,1.126E3,7.1E1,3.9E2,1.4E2,1.78E2,4.5E1,4.7E1,9.4E1,4.6E1],"tree_param":{"num_deleted":"0","num_feature":"2","num_nodes":"27","size_leaf_vector":"1"}},{"base_weights":[-8.772835E-3,9.2550147E-1,-2.3975954E0,-4.431659E0,1.5589008E0,-1.0839168E0,-3.5191119E0,-4.522377E0,-3.5955393E-1,2.3810627E0,8.114916E-1,-2.0044734E0,-5.399679E-1,-4.599928E0,-2.8711703E0,-4.8161364E-1,-4.1098258E-1,2.669602E-1,7.634741E-2,-4.4492814E-1,1.3291894E-1,-2.2789279E-1,-1.4138047E-1,5.051967E-2,-2.3339741E-1,-3.9606997E-1,-4.831805E-1,-1.8796332E-1,-4.855345E-1],"categories":[],"categories_nodes":[],"categories_segments":[],"categories_sizes":[],"default_left":[0,0,0,0,0,0,0,0,0,0,0,0,0,0,0,0,0,0,0,0,0,0,0,0,0,0,0,0,0],"id":8,"left_children":[1,3,5,7,9,11,13,15,-1,17,19,21,23,25,27,-1,-1,-1,-1,-1,-1,-1,-1,-1,-1,-1,-1,-1,-1],"loss_changes":[6.6284795E3,7.251439E3,1.2264014E3,8.8183594E-1,1.1717461E3,1.9220169E2,3.0193018E2,4.44458E0,0E0,4.2222607E2,2.7348508E3,1.995996E1,4.5868686E2,5.6157227E0,5.496101E2,0E0,0E0,0E0,0E0,0E0,0E0,0E0,0E0,0E0,0E0,0E0,0E0,0E0,0E0],"parents":[2147483647,0,0,1,1,2,2,3,3,4,4,5,5,6,6,7,7,9,9,10,10,11,11,12,12,13,13,14,14],"right_children":[2,4,6,8,10,12,14,16,-1,18,20,22,24,26,28,-1,-1,-1,-1,-1,-1,-1,-1,-1,-1,-1,-1,-1,-1],"split_conditions":[2E1,5E0,2.2E1,3E0,6E0,5E0,5E0,6E0,-3.5955393E-1,1.8E1,7E0,4E0,7E0,2E0,7E0,-4.8161364E-1,-4.1098258E-1,2.669602E-1,7.634741E-2,-4.4492814E-1,1.3291894E-1,-2.2789279E-1,-1.4138047E-1,5.051967E-2,-2.3339741E-1,-3.9606997E-1,-4.831805E-1,-1.8796332E-1,-4.855345E-1],"split_indices":[1,1,1,1,0,0,0,0,0,1,1,0,0,0,0,0,0,0,0,0,0,0,0,0,0,0,0,0,0],"split_type":[0,0,0,0,0,0,0,0,0,0,0,0,0,0,0,0,0,0,0,0,0,0,0,0,0,0,0,0,0],"sum_hessian":[2.968E3,2.134E3,8.34E2,2.25E2,1.909E3,3.85E2,4.49E2,1.99E2,2.6E1,9.08E2,1.001E3,1.42E2,2.43E2,1.66E2,2.83E2,1.1E2,8.9E1,7.7E2,1.38E2,8.9E1,9.12E2,9.5E1,4.7E1,1.54E2,8.9E1,4.9E1,1.17E2,1.9E2,9.3E1],"tree_param":{"num_deleted":"0","num_feature":"2","num_nodes":"29","size_leaf_vector":"1"}},{"base_weights":[-9.015795E-3,8.323794E-1,-2.1603568E0,-3.9940338E0,1.403027E0,-1.450296E0,-3.9146726E0,-4.0746026E0,-3.249302E-1,1.8230233E0,1.2320108E-1,-2.7681253E0,-9.5200926E-1,-5.10816E-1,-3.7521362E0,-4.3388614E-1,-3.7034094E-1,2.1206518E-1,8.221476E-3,-6.2231743E-1,7.886176E-2,-2.0534089E-1,-3.736429E-1,-9.271696E-3,-2.814178E-1,-3.501294E-1,-4.5742685E-1],"categories":[],"categories_nodes":[],"categories_segments":[],"categories_sizes":[],"default_left":[0,0,0,0,0,0,0,0,0,0,0,0,0,0,0,0,0,0,0,0,0,0,0,0,0,0,0],"id":9,"left_children":[1,3,5,7,9,11,13,15,-1,17,19,21,23,-1,25,-1,-1,-1,-1,-1,-1,-1,-1,-1,-1,-1,-1],"loss_changes":[5.3760684E3,5.8857812E3,1.0344575E3,3.2055664E-1,1.0264426E3,3.887323E2,2.7389893E1,3.5500488E0,0E0,7.4487305E2,2.0023784E3,1.0513379E2,6.9420294E2,0E0,2.832251E1,0E0,0E0,0E0,0E0,0E0,0E0,0E0,0E0,0E0,0E0,0E0,0E0],"parents":[2147483647,0,0,1,1,2,2,3,3,4,4,5,5,6,6,7,7,9,9,10,10,11,11,12,12,14,14],"right_children":[2,4,6,8,10,12,14,16,-1,18,20,22,24,-1,26,-1,-1,-1,-1,-1,-1,-1,-1,-1,-1,-1,-1],"split_conditions":[2E1,5E0,2.3E1,3E0,7E0,4E0,2E0,6E0,-3.249302E-1,1.8E1,7E0,2.2E1,7E0,-5.10816E-1,7E0,-4.3388614E-1,-3.7034094E-1,2.1206518E-1,8.221476E-3,-6.2231743E-1,7.886176E-2,-2.0534089E-1,-3.736429E-1,-9.271696E-3,-2.814178E-1,-3.501294E-1,-4.5742685E-1],"split_indices":[1,1,1,1,0,0,0,0,0,1,1,1,0,0,0,0,0,0,0,0,0,0,0,0,0,0,0],"split_type":[0,0,0,0,0,0,0,0,0,0,0,0,0,0,0,0,0,0,0,0,0,0,0,0,0,0,0],"sum_hessian":[2.968E3,2.134E3,8.34E2,2.25E2,1.909E3,5.95E2,2.39E2,1.99E2,2.6E1,1.437E3,4.72E2,1.62E2,4.33E2,2.5E1,2.14E2,1.1E2,8.9E1,1.227E3,2.1E2,4.4E1,4.28E2,9.5E1,6.7E1,2.97E2,1.36E2,1.68E2,4.6E1],"tree_param":{"num_deleted":"0","num_feature":"2","num_nodes":"27","size_leaf_vector":"1"}},{"base_weights":[-9.340262E-3,8.7161404E-1,-1.6960257E0,-3.5996267E-1,1.456567E0,-7.600733E-1,-2.8777964E0,3.502455E-1,1.916415E0,-1.706607E0,-3.6692685E-1,-2.123795E0,-3.5286984E0,1.1586919E-1,-3.269797E-1,2.6065654E-1,1.6019228E-1,-2.3965879E-1,-1.5740466E-1,3.5049926E-2,-1.5096973E-1,-1.6164045E-1,-3.813134E-1,-3.9949125E-1,-3.1730244E-1],"categories":[],"categories_nodes":[],"categories_segments":[],"categories_sizes":[],"default_left":[0,0,0,0,0,0,0,0,0,0,0,0,0,0,0,0,0,0,0,0,0,0,0,0,0],"id":10,"left_children":[1,3,5,-1,7,9,11,13,15,17,19,21,23,-1,-1,-1,-1,-1,-1,-1,-1,-1,-1,-1,-1],"loss_changes":[4.413094E3,5.1080166E3,1.1249092E3,0E0,8.774136E2,2.1148584E2,2.1335742E2,1.4905067E3,2.6040527E2,1.1502167E1,3.3174985E2,1.746961E2,2.7121094E1,0E0,0E0,0E0,0E0,0E0,0E0,0E0,0E0,0E0,0E0,0E0,0E0],"parents":[2147483647,0,0,1,1,2,2,4,4,5,5,6,6,7,7,8,8,9,9,10,10,11,11,12,12],"right_children":[2,4,6,-1,8,10,12,14,16,18,20,22,24,-1,-1,-1,-1,-1,-1,-1,-1,-1,-1,-1,-1],"split_conditions":[1.9E1,5E0,2.2E1,-3.5996267E-1,1E1,5E0,2.3E1,7E0,5E0,2E0,7E0,7E0,5E0,1.1586919E-1,-3.269797E-1,2.6065654E-1,1.6019228E-1,-2.3965879E-1,-1.5740466E-1,3.5049926E-2,-1.5096973E-1,-1.6164045E-1,-3.813134E-1,-3.9949125E-1,-3.1730244E-1],"split_indices":[1,1,1,0,1,0,1,0,0,0,0,0,0,0,0,0,0,0,0,0,0,0,0,0,0],"split_type":[0,0,0,0,0,0,0,0,0,0,0,0,0,0,0,0,0,0,0,0,0,0,0,0,0],"sum_hessian":[2.968E3,1.95E3,1.018E3,2.25E2,1.725E3,5.69E2,4.49E2,5.07E2,1.218E3,1.66E2,4.03E2,2.1E2,2.39E2,4.15E2,9.2E1,3.79E2,8.39E2,2.4E1,1.42E2,2.48E2,1.55E2,1.63E2,4.7E1,9.9E1,1.4E2],"tree_param":{"num_deleted":"0","num_feature":"2","num_nodes":"25","size_leaf_vector":"1"}},{"base_weights":[-9.054053E-3,5.725511E-1,-2.084923E0,-3.2412572E0,9.8369575E-1,-1.4410809E0,-3.1788151E0,-3.3454335E0,-2.7608836E-1,1.3694673E0,-3.8282913E-1,-1.0685428E0,-2.703431E0,-4.232864E-1,-3.0365636E0,-3.455481E-1,-2.589776E-1,3.1480517E-2,1.8436456E-1,-1.4185952E-1,-1.9112071E-2,-2.3571132E-1,-4.7554295E-3,-1.8763125E-1,-3.4397647E-1,-2.8018233E-1,-3.8160226E-1],"categories":[],"categories_nodes":[],"categories_segments":[],"categories_sizes":[],"default_left":[0,0,0,0,0,0,0,0,0,0,0,0,0,0,0,0,0,0,0,0,0,0,0,0,0,0,0],"id":11,"left_children":[1,3,5,7,9,11,13,15,-1,17,19,21,23,-1,25,-1,-1,-1,-1,-1,-1,-1,-1,-1,-1,-1,-1],"loss_changes":[3.585774E3,3.641011E3,4.532102E2,2.0734863E0,1.1049379E3,1.9039362E2,2.313208E1,6.102661E0,0E0,8.1657983E2,9.1465935E1,4.1956927E2,5.018622E1,0E0,2.8646973E1,0E0,0E0,0E0,0E0,0E0,0E0,0E0,0E0,0E0,0E0,0E0,0E0],"parents":[2147483647,0,0,1,1,2,2,3,3,4,4,5,5,6,6,7,7,9,9,10,10,11,11,12,12,14,14],"right_children":[2,4,6,8,10,12,14,16,-1,18,20,22,24,-1,26,-1,-1,-1,-1,-1,-1,-1,-1,-1,-1,-1,-1],"split_conditions":[2.1E1,5E0,2.3E1,7E0,1.8E1,7E0,2E0,3E0,-2.7608836E-1,1E1,3E0,5E0,2.2E1,-4.232864E-1,7E0,-3.455481E-1,-2.589776E-1,3.1480517E-2,1.8436456E-1,-1.4185952E-1,-1.9112071E-2,-2.3571132E-1,-4.7554295E-3,-1.8763125E-1,-3.4397647E-1,-2.8018233E-1,-3.8160226E-1],"split_indices":[1,1,1,0,1,0,0,1,0,1,0,0,1,0,0,0,0,0,0,0,0,0,0,0,0,0,0],"split_type":[0,0,0,0,0,0,0,0,0,0,0,0,0,0,0,0,0,0,0,0,0,0,0,0,0,0,0],"sum_hessian":[2.968E3,2.319E3,6.49E2,2.25E2,2.094E3,4.1E2,2.39E2,1.8E2,4.5E1,1.633E3,4.61E2,3.18E2,9.2E1,2.5E1,2.14E2,1.54E2,2.6E1,5.07E2,1.126E3,7.1E1,3.9E2,1.4E2,1.78E2,4.5E1,4.7E1,1.68E2,4.6E1],"tree_param":{"num_deleted":"0","num_feature":"2","num_nodes":"27","size_leaf_vector":"1"}},{"base_weights":[-9.052358E-3,7.0923364E-1,-1.3842897E0,-2.921028E0,1.184164E0,-6.165727E-1,-2.353655E0,-3.01423E0,-2.4907973E-1,2.0753882E0,7.1946543E-1,-1.3893646E0,-2.9560032E-1,-3.179919E0,-1.8595012E0,-3.112162E-1,-2.3403902E-1,1.4601225E-1,2.8748176E-1,-2.2137657E-1,1.0520172E-1,-2.0303312E-1,-1.2675917E-1,3.2989662E-2,-1.2920949E-1,-2.535677E-1,-3.4259546E-1,-1.1379957E-1,-3.305757E-1],"categories":[],"categories_nodes":[],"categories_segments":[],"categories_sizes":[],"default_left":[0,0,0,0,0,0,0,0,0,0,0,0,0,0,0,0,0,0,0,0,0,0,0,0,0,0,0,0,0],"id":12,"left_children":[1,3,5,7,9,11,13,15,-1,17,19,21,23,25,27,-1,-1,-1,-1,-1,-1,-1,-1,-1,-1,-1,-1,-1,-1],"loss_changes":[2.9338008E3,3.3672202E3,7.568866E2,1.5544434E0,7.1333105E2,1.4097485E2,1.77823E2,4.6606445E0,0E0,2.864922E2,1.1104414E3,1.0461121E1,2.522412E2,1.7783447E1,2.9258685E2,0E0,0E0,0E0,0E0,0E0,0E0,0E0,0E0,0E0,0E0,0E0,0E0,0E0,0E0],"parents":[2147483647,0,0,1,1,2,2,3,3,4,4,5,5,6,6,7,7,9,9,10,10,11,11,12,12,13,13,14,14],"right_children":[2,4,6,8,10,12,14,16,-1,18,20,22,24,26,28,-1,-1,-1,-1,-1,-1,-1,-1,-1,-1,-1,-1,-1,-1],"split_conditions":[1.9E1,5E0,2.2E1,7E0,5E0,5E0,5E0,3E0,-2.4907973E-1,1.3E1,7E0,2E0,7E0,2E0,7E0,-3.112162E-1,-2.3403902E-1,1.4601225E-1,2.8748176E-1,-2.2137657E-1,1.0520172E-1,-2.0303312E-1,-1.2675917E-1,3.2989662E-2,-1.2920949E-1,-2.535677E-1,-3.4259546E-1,-1.1379957E-1,-3.305757E-1],"split_indices":[1,1,1,0,0,0,0,1,0,1,1,0,0,0,0,0,0,0,0,0,0,0,0,0,0,0,0,0,0],"split_type":[0,0,0,0,0,0,0,0,0,0,0,0,0,0,0,0,0,0,0,0,0,0,0,0,0,0,0,0,0],"sum_hessian":[2.968E3,1.95E3,1.018E3,2.25E2,1.725E3,5.69E2,4.49E2,1.8E2,4.5E1,5.9E2,1.135E3,1.66E2,4.03E2,1.66E2,2.83E2,1.54E2,2.6E1,3.35E2,2.55E2,1.15E2,1.02E3,2.4E1,1.42E2,2.48E2,1.55E2,4.9E1,1.17E2,1.9E2,9.3E1],"tree_param":{"num_deleted":"0","num_feature":"2","num_nodes":"29","size_leaf_vector":"1"}},{"base_weights":[-8.801557E-3,6.38066E-1,-1.2472999E0,-2.6324399E0,1.0659317E0,-5.556626E-1,-2.120602E0,-2.7158194E0,-2.2471324E-1,1.8685836E0,6.474166E-1,-1.2524027E0,-2.6627833E-1,-2.8654969E0,-1.6751158E0,-2.8029534E-1,-2.1150194E-1,1.3145457E-1,2.588459E-1,-1.9942977E-1,9.469185E-2,-1.8354191E-1,-1.1417186E-1,2.970396E-2,-1.1637135E-1,-2.2871807E-1,-3.0862623E-1,-1.024792E-1,-2.9786983E-1],"categories":[],"categories_nodes":[],"categories_segments":[],"categories_sizes":[],"default_left":[0,0,0,0,0,0,0,0,0,0,0,0,0,0,0,0,0,0,0,0,0,0,0,0,0,0,0,0,0],"id":13,"left_children":[1,3,5,7,9,11,13,15,-1,17,19,21,23,25,27,-1,-1,-1,-1,-1,-1,-1,-1,-1,-1,-1,-1,-1,-1],"loss_changes":[2.3793936E3,2.732913E3,6.1430615E2,1.1578369E0,5.7859155E2,1.14593094E2,1.4452795E2,3.5471191E0,0E0,2.3231079E2,9.0068976E2,8.681061E0,2.0458435E2,1.4262451E1,2.3770862E2,0E0,0E0,0E0,0E0,0E0,0E0,0E0,0E0,0E0,0E0,0E0,0E0,0E0,0E0],"parents":[2147483647,0,0,1,1,2,2,3,3,4,4,5,5,6,6,7,7,9,9,10,10,11,11,12,12,13,13,14,14],"right_children":[2,4,6,8,10,12,14,16,-1,18,20,22,24,26,28,-1,-1,-1,-1,-1,-1,-1,-1,-1,-1,-1,-1,-1,-1],"split_conditions":[1.9E1,5E0,2.2E1,7E0,5E0,5E0,5E0,3E0,-2.2471324E-1,1.3E1,7E0,2E0,7E0,2E0,7E0,-2.8029534E-1,-2.1150194E-1,1.3145457E-1,2.588459E-1,-1.9942977E-1,9.469185E-2,-1.8354191E-1,-1.1417186E-1,2.970396E-2,-1.1637135E-1,-2.2871807E-1,-3.0862623E-1,-1.024792E-1,-2.9786983E-1],"split_indices":[1,1,1,0,0,0,0,1,0,1,1,0,0,0,0,0,0,0,0,0,0,0,0,0,0,0,0,0,0],"split_type":[0,0,0,0,0,0,0,0,0,0,0,0,0,0,0,0,0,0,0,0,0,0,0,0,0,0,0,0,0],"sum_hessian":[2.968E3,1.95E3,1.018E3,2.25E2,1.725E3,5.69E2,4.49E2,1.8E2,4.5E1,5.9E2,1.135E3,1.66E2,4.03E2,1.66E2,2.83E2,1.54E2,2.6E1,3.35E2,2.55E2,1.15E2,1.02E3,2.4E1,1.42E2,2.48E2,1.55E2,4.9E1,1.17E2,1.9E2,9.3E1],"tree_param":{"num_deleted":"0","num_feature":"2","num_nodes":"29","size_leaf_vector":"1"}},{"base_weights":[-8.512024E-3,4.1957045E-1,-1.536424E0,-2.3723662E0,7.205528E-1,-1.0229992E0,-2.4092624E0,-2.5023372E0,-2.148162E-1,1.0214391E0,-3.4518024E-1,-7.342694E-1,-2.0023732E0,-3.3621213E-1,-2.2828271E0,-2.1192506E-1,-2.7907655E-1,1.368653E-1,-2.8684116E-3,-1.2440586E-1,-1.787751E-2,-1.7176455E-1,4.4447407E-3,-1.452518E-1,-2.4876018E-1,-2.117852E-1,-2.8274652E-1],"categories":[],"categories_nodes":[],"categories_segments":[],"categories_sizes":[],"default_left":[0,0,0,0,0,0,0,0,0,0,0,0,0,0,0,0,0,0,0,0,0,0,0,0,0,0,0],"id":14,"left_children":[1,3,5,7,9,11,13,15,-1,17,19,21,23,-1,25,-1,-1,-1,-1,-1,-1,-1,-1,-1,-1,-1,-1],"loss_changes":[1.9425854E3,1.9512605E3,2.8882446E2,1.2103271E0,6.7214453E2,1.1475E2,2.123877E1,9.223267E0,0E0,5.958242E2,6.888264E1,2.4435747E2,2.1199646E1,0E0,1.3329834E1,0E0,0E0,0E0,0E0,0E0,0E0,0E0,0E0,0E0,0E0,0E0,0E0],"parents":[2147483647,0,0,1,1,2,2,3,3,4,4,5,5,6,6,7,7,9,9,10,10,11,11,12,12,14,14],"right_children":[2,4,6,8,10,12,14,16,-1,18,20,22,24,-1,26,-1,-1,-1,-1,-1,-1,-1,-1,-1,-1,-1,-1],"split_conditions":[2.1E1,5E0,2.3E1,6E0,1.8E1,7E0,2E0,3E0,-2.148162E-1,7E0,3E0,5E0,2.2E1,-3.3621213E-1,7E0,-2.1192506E-1,-2.7907655E-1,1.368653E-1,-2.8684116E-3,-1.2440586E-1,-1.787751E-2,-1.7176455E-1,4.4447407E-3,-1.452518E-1,-2.4876018E-1,-2.117852E-1,-2.8274652E-1],"split_indices":[1,1,1,0,1,0,0,0,0,0,0,0,1,0,0,0,0,0,0,0,0,0,0,0,0,0,0],"split_type":[0,0,0,0,0,0,0,0,0,0,0,0,0,0,0,0,0,0,0,0,0,0,0,0,0,0,0],"sum_hessian":[2.968E3,2.319E3,6.49E2,2.25E2,2.094E3,4.1E2,2.39E2,1.36E2,8.9E1,1.633E3,4.61E2,3.18E2,9.2E1,2.5E1,2.14E2,6.2E1,7.4E1,1.227E3,4.06E2,7.1E1,3.9E2,1.4E2,1.78E2,4.5E1,4.7E1,1.68E2,4.6E1],"tree_param":{"num_deleted":"0","num_feature":"2","num_nodes":"27","size_leaf_vector":"1"}},{"base_weights":[-8.370294E-3,2.996688E-1,-1.7333705E0,-2.1382527E0,5.396124E-1,-2.3690772E0,-1.3534538E0,-2.2080433E0,-1.817158E-1,9.193771E-1,-3.985675E-1,-1.8124837E0,-2.584845E0,-8.2085425E-1,-2.421252E-1,-1.9106893E-1,-2.346911E-1,1.757161E-1,5.267336E-2,-2.1469977E-2,-9.9358276E-2,-4.6457358E-2,-3.0388403E-1,-3.1754678E-1,-2.2038817E-1,2.7088283E-4,-1.653115E-1],"categories":[],"categories_nodes":[],"categories_segments":[],"categories_sizes":[],"default_left":[0,0,0,0,0,0,0,0,0,0,0,0,0,0,0,0,0,0,0,0,0,0,0,0,0,0,0],"id":15,"left_children":[1,3,5,7,9,11,13,15,-1,17,19,21,23,25,-1,-1,-1,-1,-1,-1,-1,-1,-1,-1,-1,-1,-1],"loss_changes":[1.5781495E3,1.4752623E3,1.05475586E2,1.052124E0,8.180465E2,1.537085E1,1.5952588E2,2.9898682E0,0E0,5.3657947E2,7.221219E1,8.123915E1,1.9552368E1,1.3091953E2,0E0,0E0,0E0,0E0,0E0,0E0,0E0,0E0,0E0,0E0,0E0,0E0,0E0],"parents":[2147483647,0,0,1,1,2,2,3,3,4,4,5,5,6,6,7,7,9,9,10,10,11,11,12,12,13,13],"right_children":[2,4,6,8,10,12,14,16,-1,18,20,22,24,26,-1,-1,-1,-1,-1,-1,-1,-1,-1,-1,-1,-1,-1],"split_conditions":[2.2E1,5E0,5E0,7E0,1.8E1,2E0,7E0,3E0,-1.817158E-1,5E0,7E0,2.3E1,2.3E1,2.3E1,-2.421252E-1,-1.9106893E-1,-2.346911E-1,1.757161E-1,5.267336E-2,-2.1469977E-2,-9.9358276E-2,-4.6457358E-2,-3.0388403E-1,-3.1754678E-1,-2.2038817E-1,2.7088283E-4,-1.653115E-1],"split_indices":[1,1,0,0,1,0,0,0,0,0,0,1,1,1,0,0,0,0,0,0,0,0,0,0,0,0,0],"split_type":[0,0,0,0,0,0,0,0,0,0,0,0,0,0,0,0,0,0,0,0,0,0,0,0,0,0,0],"sum_hessian":[2.968E3,2.519E3,4.49E2,2.25E2,2.294E3,1.66E2,2.83E2,1.8E2,4.5E1,1.633E3,6.61E2,4.9E1,1.17E2,1.9E2,9.3E1,6.2E1,1.18E2,5.2E2,1.113E3,5.06E2,1.55E2,2.4E1,2.5E1,4.3E1,7.4E1,9.6E1,9.4E1],"tree_param":{"num_deleted":"0","num_feature":"2","num_nodes":"27","size_leaf_vector":"1"}},{"base_weights":[-8.137949E-3,3.4117818E-1,-1.2549152E0,-1.9271152E0,5.857095E-1,-8.39529E-1,-1.9610355E0,-2.0424507E0,-1.7301367E-1,8.503778E-1,-2.2376232E-1,-6.047172E-1,-1.6359314E0,-2.746644E-1,-1.8569106E0,-1.7226529E-1,-2.2838481E-1,1.12716556E-1,-1.1764998E-2,-4.962997E-1,2.2758929E-2,-1.4312355E-1,4.9717333E-3,-1.21322475E-1,-2.0069435E-1,-1.7188698E-1,-2.3137613E-1],"categories":[],"categories_nodes":[],"categories_segments":[],"categories_sizes":[],"default_left":[0,0,0,0,0,0,0,0,0,0,0,0,0,0,0,0,0,0,0,0,0,0,0,0,0,0,0],"id":16,"left_children":[1,3,5,7,9,11,13,15,-1,17,19,21,23,-1,25,-1,-1,-1,-1,-1,-1,-1,-1,-1,-1,-1,-1],"loss_changes":[1.2934852E3,1.2879602E3,1.8900684E2,1.600708E0,4.490263E2,7.586963E1,1.45321045E1,6.6419067E0,0E0,4.2320715E2,1.107024E3,1.7261891E2,1.2150269E1,0E0,9.581726E0,0E0,0E0,0E0,0E0,0E0,0E0,0E0,0E0,0E0,0E0,0E0,0E0],"parents":[2147483647,0,0,1,1,2,2,3,3,4,4,5,5,6,6,7,7,9,9,10,10,11,11,12,12,14,14],"right_children":[2,4,6,8,10,12,14,16,-1,18,20,22,24,-1,26,-1,-1,-1,-1,-1,-1,-1,-1,-1,-1,-1,-1],"split_conditions":[2.1E1,5E0,2.3E1,6E0,7E0,7E0,2E0,3E0,-1.7301367E-1,1.8E1,7E0,5E0,2.2E1,-2.746644E-1,7E0,-1.7226529E-1,-2.2838481E-1,1.12716556E-1,-1.1764998E-2,-4.962997E-1,2.2758929E-2,-1.4312355E-1,4.9717333E-3,-1.21322475E-1,-2.0069435E-1,-1.7188698E-1,-2.3137613E-1],"split_indices":[1,1,1,0,0,0,0,0,0,1,1,0,1,0,0,0,0,0,0,0,0,0,0,0,0,0,0],"split_type":[0,0,0,0,0,0,0,0,0,0,0,0,0,0,0,0,0,0,0,0,0,0,0,0,0,0,0],"sum_hessian":[2.968E3,2.319E3,6.49E2,2.25E2,2.094E3,4.1E2,2.39E2,1.36E2,8.9E1,1.578E3,5.16E2,3.18E2,9.2E1,2.5E1,2.14E2,6.2E1,7.4E1,1.227E3,3.51E2,4.4E1,4.72E2,1.4E2,1.78E2,4.5E1,4.7E1,1.68E2,4.6E1],"tree_param":{"num_deleted":"0","num_feature":"2","num_nodes":"27","size_leaf_vector":"1"}},{"base_weights":[-8.02619E-3,4.2503074E-1,-8.371587E-1,-5.86845E-1,1.0331357E0,-3.7664184E-1,-1.4186196E0,-1.857534E-1,-2.3148432E0,2.1947002E0,9.341296E-1,-1.0658278E0,-1.9243129E-1,-1.9627846E0,-1.0936402E0,-1.7951517E-1,5.1493615E-2,-2.990268E-1,-1.0270255E-1,3.04619E-1,-4.512156E-2,1.0481212E-1,4.8842978E-2,-1.660142E-1,-1.7079843E-2,1.6843153E-2,-8.759118E-2,-1.4322107E-1,-2.1709704E-1,-6.575378E-2,-1.968129E-1],"categories":[],"categories_nodes":[],"categories_segments":[],"categories_sizes":[],"default_left":[0,0,0,0,0,0,0,0,0,0,0,0,0,0,0,0,0,0,0,0,0,0,0,0,0,0,0,0,0,0,0],"id":17,"left_children":[1,3,5,7,9,11,13,15,17,19,21,23,25,27,29,-1,-1,-1,-1,-1,-1,-1,-1,-1,-1,-1,-1,-1,-1,-1,-1],"loss_changes":[1.0664095E3,1.2011084E3,2.72326E2,5.0760168E2,1.381372E2,7.2159454E1,7.7432495E1,6.730268E2,1.1696454E2,2.1540668E2,5.6644836E1,6.3547882E1,1.1138338E2,1.5337158E1,1.0701401E2,0E0,0E0,0E0,0E0,0E0,0E0,0E0,0E0,0E0,0E0,0E0,0E0,0E0,0E0,0E0,0E0],"parents":[2147483647,0,0,1,1,2,2,3,3,4,4,5,5,6,6,7,7,8,8,9,9,10,10,11,11,12,12,13,13,14,14],"right_children":[2,4,6,8,10,12,14,16,18,20,22,24,26,28,30,-1,-1,-1,-1,-1,-1,-1,-1,-1,-1,-1,-1,-1,-1,-1,-1],"split_conditions":[1.9E1,1E1,2.2E1,7E0,2E0,4E0,5E0,5E0,7E0,1.7E1,1.7E1,2.1E1,7E0,2E0,7E0,-1.7951517E-1,5.1493615E-2,-2.990268E-1,-1.0270255E-1,3.04619E-1,-4.512156E-2,1.0481212E-1,4.8842978E-2,-1.660142E-1,-1.7079843E-2,1.6843153E-2,-8.759118E-2,-1.4322107E-1,-2.1709704E-1,-6.575378E-2,-1.968129E-1],"split_indices":[1,1,1,0,0,0,0,1,1,1,1,1,0,0,0,0,0,0,0,0,0,0,0,0,0,0,0,0,0,0,0],"split_type":[0,0,0,0,0,0,0,0,0,0,0,0,0,0,0,0,0,0,0,0,0,0,0,0,0,0,0,0,0,0,0],"sum_hessian":[2.968E3,1.95E3,1.018E3,7.32E2,1.218E3,5.69E2,4.49E2,5.95E2,1.37E2,9.4E1,1.124E3,1.19E2,4.5E2,1.66E2,2.83E2,1.8E2,4.15E2,8.9E1,4.8E1,7.1E1,2.3E1,8.94E2,2.3E2,7.1E1,4.8E1,2.95E2,1.55E2,4.9E1,1.17E2,1.9E2,9.3E1],"tree_param":{"num_deleted":"0","num_feature":"2","num_nodes":"31","size_leaf_vector":"1"}},{"base_weights":[-7.558158E-3,2.78728E-1,-1.0293679E0,-1.5344244E0,4.7419038E-1,-6.805536E-1,-1.6224233E0,-1.6166282E0,-1.17761336E-1,6.9729275E-1,-2.0811684E-1,-1.1957136E0,-4.1000703E-1,-2.3448312E-1,-1.5275162E0,-1.681467E-1,-1.1845308E-1,9.218409E-2,-8.805486E-3,-4.185345E-1,1.7070634E-2,-6.198084E-2,-1.7236829E-1,7.232254E-3,-1.3339531E-1,-1.4163664E-1,-1.8946825E-1],"categories":[],"categories_nodes":[],"categories_segments":[],"categories_sizes":[],"default_left":[0,0,0,0,0,0,0,0,0,0,0,0,0,0,0,0,0,0,0,0,0,0,0,0,0,0,0],"id":18,"left_children":[1,3,5,7,9,11,13,15,-1,17,19,21,23,-1,25,-1,-1,-1,-1,-1,-1,-1,-1,-1,-1,-1,-1],"loss_changes":[8.688084E2,8.229429E2,1.3335895E2,4.7250366E0,3.1905515E2,5.679277E1,1.2873047E1,3.0792847E0,0E0,2.7853516E2,7.7966077E2,4.1804153E1,1.2086668E2,0E0,6.0906677E0,0E0,0E0,0E0,0E0,0E0,0E0,0E0,0E0,0E0,0E0,0E0,0E0],"parents":[2147483647,0,0,1,1,2,2,3,3,4,4,5,5,6,6,7,7,9,9,10,10,11,11,12,12,14,14],"right_children":[2,4,6,8,10,12,14,16,-1,18,20,22,24,-1,26,-1,-1,-1,-1,-1,-1,-1,-1,-1,-1,-1,-1],"split_conditions":[2.1E1,5E0,2.3E1,7E0,7E0,5E0,2E0,3E0,-1.17761336E-1,1.8E1,7E0,3E0,7E0,-2.3448312E-1,7E0,-1.681467E-1,-1.1845308E-1,9.218409E-2,-8.805486E-3,-4.185345E-1,1.7070634E-2,-6.198084E-2,-1.7236829E-1,7.232254E-3,-1.3339531E-1,-1.4163664E-1,-1.8946825E-1],"split_indices":[1,1,1,0,0,0,0,1,0,1,1,0,0,0,0,0,0,0,0,0,0,0,0,0,0,0,0],"split_type":[0,0,0,0,0,0,0,0,0,0,0,0,0,0,0,0,0,0,0,0,0,0,0,0,0,0,0],"sum_hessian":[2.968E3,2.319E3,6.49E2,2.25E2,2.094E3,4.1E2,2.39E2,1.8E2,4.5E1,1.578E3,5.16E2,1.4E2,2.7E2,2.5E1,2.14E2,1.54E2,2.6E1,1.227E3,3.51E2,4.4E1,4.72E2,6.8E1,7.2E1,1.78E2,9.2E1,1.68E2,4.6E1],"tree_param":{"num_deleted":"0","num_feature":"2","num_nodes":"27","size_leaf_vector":"1"}},{"base_weights":[-7.3576607E-3,3.4874648E-1,-6.8915534E-1,-5.1031065E-1,8.6502224E-1,-4.5030808E-1,-1.4625375E0,1.5415126E-1,-1.3779391E0,1.9111981E0,7.759096E-1,-1.158048E0,-2.2674295E-1,-2.1193667E-1,-1.3763045E0,-1.5054367E-1,9.6561335E-2,-2.0909762E-1,-4.5642775E-2,2.6548985E-1,-3.9953604E-2,8.744242E-2,3.908599E-2,-8.3513945E-2,-1.6738546E-1,1.4192893E-2,-9.375441E-2,-1.2755676E-1,-1.7092456E-1],"categories":[],"categories_nodes":[],"categories_segments":[],"categories_sizes":[],"default_left":[0,0,0,0,0,0,0,0,0,0,0,0,0,0,0,0,0,0,0,0,0,0,0,0,0,0,0,0,0],"id":19,"left_children":[1,3,5,7,9,11,13,15,17,19,21,23,25,-1,27,-1,-1,-1,-1,-1,-1,-1,-1,-1,-1,-1,-1,-1,-1],"loss_changes":[7.210868E2,8.6573016E2,1.8757129E2,4.2279138E2,1.121615E2,1.2315369E2,1.0676819E1,5.6167786E2,2.079945E2,1.6431757E2,4.2332886E1,2.974852E1,1.5579218E2,0E0,5.0307007E0,0E0,0E0,0E0,0E0,0E0,0E0,0E0,0E0,0E0,0E0,0E0,0E0,0E0,0E0],"parents":[2147483647,0,0,1,1,2,2,3,3,4,4,5,5,6,6,7,7,8,8,9,9,10,10,11,11,12,12,14,14],"right_children":[2,4,6,8,10,12,14,16,18,20,22,24,26,-1,28,-1,-1,-1,-1,-1,-1,-1,-1,-1,-1,-1,-1,-1,-1],"split_conditions":[1.9E1,1E1,2.3E1,6E0,2E0,4E0,2E0,5E0,7E0,1.7E1,1.7E1,3E0,7E0,-2.1193667E-1,7E0,-1.5054367E-1,9.6561335E-2,-2.0909762E-1,-4.5642775E-2,2.6548985E-1,-3.9953604E-2,8.744242E-2,3.908599E-2,-8.3513945E-2,-1.6738546E-1,1.4192893E-2,-9.375441E-2,-1.2755676E-1,-1.7092456E-1],"split_indices":[1,1,1,0,0,0,0,1,1,1,1,0,0,0,0,0,0,0,0,0,0,0,0,0,0,0,0,0,0],"split_type":[0,0,0,0,0,0,0,0,0,0,0,0,0,0,0,0,0,0,0,0,0,0,0,0,0,0,0,0,0],"sum_hessian":[2.968E3,1.95E3,1.018E3,7.32E2,1.218E3,7.79E2,2.39E2,4.15E2,3.17E2,9.4E1,1.124E3,1.86E2,5.93E2,2.5E1,2.14E2,1.36E2,2.79E2,1.78E2,1.39E2,7.1E1,2.3E1,8.94E2,2.3E2,1.16E2,7E1,3.91E2,2.02E2,1.68E2,4.6E1],"tree_param":{"num_deleted":"0","num_feature":"2","num_nodes":"29","size_leaf_vector":"1"}},{"base_weights":[-6.8904255E-3,1.8202916E-1,-1.0648248E0,-1.2098349E0,3.190136E-1,-1.4962616E0,-8.073784E-1,-1.3559918E0,-9.7390914E-1,5.476781E-1,-2.458759E-1,-9.9880695E-1,-1.6943673E0,-4.70414E-1,-1.4834724E-1,-1.0833331E-1,-1.5669452E-1,-1.0708942E-1,-8.578605E-2,-2.511967E-3,9.0805754E-2,-1.1511088E-2,-6.692861E-2,-5.409126E-4,-1.9155817E-1,-2.2649565E-1,-1.3370301E-1,4.139227E-3,-9.880435E-2],"categories":[],"categories_nodes":[],"categories_segments":[],"categories_sizes":[],"default_left":[0,0,0,0,0,0,0,0,0,0,0,0,0,0,0,0,0,0,0,0,0,0,0,0,0,0,0,0,0],"id":20,"left_children":[1,3,5,7,9,11,13,15,17,19,21,23,25,27,-1,-1,-1,-1,-1,-1,-1,-1,-1,-1,-1,-1,-1,-1,-1],"loss_changes":[5.935916E2,4.808585E2,4.877426E1,6.472351E0,2.965802E2,1.4765259E1,6.400293E1,6.1825104E0,9.42688E-2,3.3732047E2,3.6576065E1,4.5525734E1,2.1031036E1,5.0641758E1,0E0,0E0,0E0,0E0,0E0,0E0,0E0,0E0,0E0,0E0,0E0,0E0,0E0,0E0,0E0],"parents":[2147483647,0,0,1,1,2,2,3,3,4,4,5,5,6,6,7,7,8,8,9,9,10,10,11,11,12,12,13,13],"right_children":[2,4,6,8,10,12,14,16,18,20,22,24,26,28,-1,-1,-1,-1,-1,-1,-1,-1,-1,-1,-1,-1,-1,-1,-1],"split_conditions":[2.2E1,5E0,5E0,6E0,1.8E1,2E0,7E0,3E0,7E0,1.1E1,7E0,2.3E1,2.3E1,2.3E1,-1.4834724E-1,-1.0833331E-1,-1.5669452E-1,-1.0708942E-1,-8.578605E-2,-2.511967E-3,9.0805754E-2,-1.1511088E-2,-6.692861E-2,-5.409126E-4,-1.9155817E-1,-2.2649565E-1,-1.3370301E-1,4.139227E-3,-9.880435E-2],"split_indices":[1,1,0,0,1,0,0,0,0,1,0,1,1,1,0,0,0,0,0,0,0,0,0,0,0,0,0,0,0],"split_type":[0,0,0,0,0,0,0,0,0,0,0,0,0,0,0,0,0,0,0,0,0,0,0,0,0,0,0,0,0],"sum_hessian":[2.968E3,2.519E3,4.49E2,2.25E2,2.294E3,1.66E2,2.83E2,1.36E2,8.9E1,1.633E3,6.61E2,4.9E1,1.17E2,1.9E2,9.3E1,6.2E1,7.4E1,4.4E1,4.5E1,6.31E2,1.002E3,5.06E2,1.55E2,2.4E1,2.5E1,4.3E1,7.4E1,9.6E1,9.4E1],"tree_param":{"num_deleted":"0","num_feature":"2","num_nodes":"29","size_leaf_vector":"1"}},{"base_weights":[-6.6199466E-3,1.6364868E-1,-9.601096E-1,-1.0908777E0,2.871168E-1,-1.3499424E0,-7.2749615E-1,-1.2223274E0,-8.7866133E-1,4.9296477E-1,-2.2140694E-1,-9.027682E-1,-1.527983E0,-4.2386803E-1,-1.3367034E-1,-9.7671956E-2,-1.4123401E-1,-9.6618444E-2,-7.739396E-2,1.1082423E-1,2.0476682E-2,-1.0362276E-2,-6.0278624E-2,-4.889946E-4,-1.7313908E-1,-2.0436084E-1,-1.2051096E-1,3.729599E-3,-8.9027904E-2],"categories":[],"categories_nodes":[],"categories_segments":[],"categories_sizes":[],"default_left":[0,0,0,0,0,0,0,0,0,0,0,0,0,0,0,0,0,0,0,0,0,0,0,0,0,0,0,0,0],"id":21,"left_children":[1,3,5,7,9,11,13,15,17,19,21,23,25,27,-1,-1,-1,-1,-1,-1,-1,-1,-1,-1,-1,-1,-1,-1,-1],"loss_changes":[4.8217242E2,3.906461E2,3.9824066E1,5.230438E0,2.403465E2,1.191629E1,5.196559E1,5.0141296E0,7.713318E-2,2.8951675E2,2.9674881E1,3.719164E1,1.7182068E1,4.1115765E1,0E0,0E0,0E0,0E0,0E0,0E0,0E0,0E0,0E0,0E0,0E0,0E0,0E0,0E0,0E0],"parents":[2147483647,0,0,1,1,2,2,3,3,4,4,5,5,6,6,7,7,8,8,9,9,10,10,11,11,12,12,13,13],"right_children":[2,4,6,8,10,12,14,16,18,20,22,24,26,28,-1,-1,-1,-1,-1,-1,-1,-1,-1,-1,-1,-1,-1,-1,-1],"split_conditions":[2.2E1,5E0,5E0,6E0,1.8E1,2E0,7E0,3E0,7E0,5E0,7E0,2.3E1,2.3E1,2.3E1,-1.3367034E-1,-9.7671956E-2,-1.4123401E-1,-9.6618444E-2,-7.739396E-2,1.1082423E-1,2.0476682E-2,-1.0362276E-2,-6.0278624E-2,-4.889946E-4,-1.7313908E-1,-2.0436084E-1,-1.2051096E-1,3.729599E-3,-8.9027904E-2],"split_indices":[1,1,0,0,1,0,0,0,0,0,0,1,1,1,0,0,0,0,0,0,0,0,0,0,0,0,0,0,0],"split_type":[0,0,0,0,0,0,0,0,0,0,0,0,0,0,0,0,0,0,0,0,0,0,0,0,0,0,0,0,0],"sum_hessian":[2.968E3,2.519E3,4.49E2,2.25E2,2.294E3,1.66E2,2.83E2,1.36E2,8.9E1,1.633E3,6.61E2,4.9E1,1.17E2,1.9E2,9.3E1,6.2E1,7.4E1,4.4E1,4.5E1,5.2E2,1.113E3,5.06E2,1.55E2,2.4E1,2.5E1,4.3E1,7.4E1,9.6E1,9.4E1],"tree_param":{"num_deleted":"0","num_feature":"2","num_nodes":"29","size_leaf_vector":"1"}},{"base_weights":[-6.31841E-3,1.8609571E-1,-6.930791E-1,-4.2838606E-1,4.6961525E-1,-4.687136E-1,-1.0744172E0,1.6443183E-1,-1.2025491E0,7.2475076E-1,-1.5377718E-1,-8.4135365E-1,-2.731012E-1,-1.2168428E0,-8.442219E-1,-1.1018385E-1,7.834125E-2,-1.8008825E-1,-4.2894755E-2,2.194267E-1,6.2387016E-2,-8.6482614E-2,-2.2449046E-3,-3.4949716E-2,-1.2947337E-1,5.6817145E-3,-9.051688E-2,-1.5649109E-1,-1.1319947E-1,-4.2248722E-2,-1.2659405E-1],"categories":[],"categories_nodes":[],"categories_segments":[],"categories_sizes":[],"default_left":[0,0,0,0,0,0,0,0,0,0,0,0,0,0,0,0,0,0,0,0,0,0,0,0,0,0,0,0,0,0,0],"id":22,"left_children":[1,3,5,7,9,11,13,15,17,19,21,23,25,27,29,-1,-1,-1,-1,-1,-1,-1,-1,-1,-1,-1,-1,-1,-1,-1,-1],"loss_changes":[3.9245993E2,4.04386E2,5.5109833E1,3.3659906E2,2.526821E2,2.9729248E1,6.841278E0,3.2692267E2,1.4642075E2,1.6570398E2,4.3122486E1,3.0990211E1,5.656324E1,2.540329E0,1.6361229E1,0E0,0E0,0E0,0E0,0E0,0E0,0E0,0E0,0E0,0E0,0E0,0E0,0E0,0E0,0E0,0E0],"parents":[2147483647,0,0,1,1,2,2,3,3,4,4,5,5,6,6,7,7,8,8,9,9,10,10,11,11,12,12,13,13,14,14],"right_children":[2,4,6,8,10,12,14,16,18,20,22,24,26,28,30,-1,-1,-1,-1,-1,-1,-1,-1,-1,-1,-1,-1,-1,-1,-1,-1],"split_conditions":[2.1E1,1E1,2.3E1,6E0,1.8E1,5E0,6E0,5E0,7E0,2E0,3E0,3E0,7E0,2E0,7E0,-1.1018385E-1,7.834125E-2,-1.8008825E-1,-4.2894755E-2,2.194267E-1,6.2387016E-2,-8.6482614E-2,-2.2449046E-3,-3.4949716E-2,-1.2947337E-1,5.6817145E-3,-9.051688E-2,-1.5649109E-1,-1.1319947E-1,-4.2248722E-2,-1.2659405E-1],"split_indices":[1,1,1,0,1,0,0,1,1,0,0,0,0,0,0,0,0,0,0,0,0,0,0,0,0,0,0,0,0,0,0],"split_type":[0,0,0,0,0,0,0,0,0,0,0,0,0,0,0,0,0,0,0,0,0,0,0,0,0,0,0,0,0,0,0],"sum_hessian":[2.968E3,2.319E3,6.49E2,7.32E2,1.587E3,4.1E2,2.39E2,4.15E2,3.17E2,1.126E3,4.61E2,1.4E2,2.7E2,1.45E2,9.4E1,1.36E2,2.79E2,1.78E2,1.39E2,7.1E1,1.055E3,7.1E1,3.9E2,6.8E1,7.2E1,1.78E2,9.2E1,2.5E1,1.2E2,4.8E1,4.6E1],"tree_param":{"num_deleted":"0","num_feature":"2","num_nodes":"31","size_leaf_vector":"1"}},{"base_weights":[-5.939154E-3,1.3423094E-1,-7.9087853E-1,-3.8589492E-1,3.473842E-1,-1.1167402E0,-5.9647787E-1,1.479126E-1,-1.0829957E0,6.5252525E-1,-1.7261787E-1,-7.209426E-1,-1.2749871E0,-3.4690344E-1,-1.0972464E-1,-9.9245876E-2,7.0535176E-2,-1.6218005E-1,-3.8635958E-2,1.9778875E-1,5.6154173E-2,-6.6867503E-3,-5.152E-2,2.913105E-3,-1.4144388E-1,-1.7581783E-1,-9.745152E-2,2.7981158E-3,-7.2602876E-2],"categories":[],"categories_nodes":[],"categories_segments":[],"categories_sizes":[],"default_left":[0,0,0,0,0,0,0,0,0,0,0,0,0,0,0,0,0,0,0,0,0,0,0,0,0,0,0,0,0],"id":23,"left_children":[1,3,5,7,9,11,13,15,17,19,21,23,25,27,-1,-1,-1,-1,-1,-1,-1,-1,-1,-1,-1,-1,-1,-1,-1],"loss_changes":[3.2677045E2,2.795177E2,2.7840363E1,2.7292242E2,2.8382172E2,9.540634E0,3.5113396E1,2.651461E2,1.18734955E2,1.3478995E2,2.394861E1,2.6049866E1,1.5418503E1,2.7166811E1,0E0,0E0,0E0,0E0,0E0,0E0,0E0,0E0,0E0,0E0,0E0,0E0,0E0,0E0,0E0],"parents":[2147483647,0,0,1,1,2,2,3,3,4,4,5,5,6,6,7,7,8,8,9,9,10,10,11,11,12,12,13,13],"right_children":[2,4,6,8,10,12,14,16,18,20,22,24,26,28,-1,-1,-1,-1,-1,-1,-1,-1,-1,-1,-1,-1,-1,-1,-1],"split_conditions":[2.2E1,1E1,5E0,6E0,1.8E1,2E0,7E0,5E0,7E0,2E0,7E0,2.3E1,2.3E1,2.3E1,-1.0972464E-1,-9.9245876E-2,7.0535176E-2,-1.6218005E-1,-3.8635958E-2,1.9778875E-1,5.6154173E-2,-6.6867503E-3,-5.152E-2,2.913105E-3,-1.4144388E-1,-1.7581783E-1,-9.745152E-2,2.7981158E-3,-7.2602876E-2],"split_indices":[1,1,0,0,1,0,0,1,1,0,0,1,1,1,0,0,0,0,0,0,0,0,0,0,0,0,0,0,0],"split_type":[0,0,0,0,0,0,0,0,0,0,0,0,0,0,0,0,0,0,0,0,0,0,0,0,0,0,0,0,0],"sum_hessian":[2.968E3,2.519E3,4.49E2,7.32E2,1.787E3,1.66E2,2.83E2,4.15E2,3.17E2,1.126E3,6.61E2,4.9E1,1.17E2,1.9E2,9.3E1,1.36E2,2.79E2,1.78E2,1.39E2,7.1E1,1.055E3,5.06E2,1.55E2,2.4E1,2.5E1,4.3E1,7.4E1,9.6E1,9.4E1],"tree_param":{"num_deleted":"0","num_feature":"2","num_nodes":"29","size_leaf_vector":"1"}},{"base_weights":[-5.55578E-3,1.20794445E-1,-7.1310467E-1,-3.4761885E-1,3.1275538E-1,-1.007532E0,-5.374622E-1,1.3305199E-1,-9.753278E-1,5.87498E-1,-1.5544362E-1,-6.5161884E-1,-1.1498042E0,-3.125784E-1,-9.886892E-2,-8.939374E-2,6.3506804E-2,-1.4605266E-1,-3.4799993E-2,1.7828463E-1,5.0544064E-2,-6.0193525E-3,-4.6401E-2,2.6334573E-3,-1.2784348E-1,-1.5863562E-1,-8.783632E-2,2.5211924E-3,-6.541898E-2],"categories":[],"categories_nodes":[],"categories_segments":[],"categories_sizes":[],"default_left":[0,0,0,0,0,0,0,0,0,0,0,0,0,0,0,0,0,0,0,0,0,0,0,0,0,0,0,0,0],"id":24,"left_children":[1,3,5,7,9,11,13,15,17,19,21,23,25,27,-1,-1,-1,-1,-1,-1,-1,-1,-1,-1,-1,-1,-1,-1,-1],"loss_changes":[2.6551166E2,2.2669969E2,2.2729752E1,2.2129156E2,2.3008936E2,7.7070923E0,2.8509468E1,2.1504282E2,9.628415E1,1.09643036E2,1.9428898E1,2.1281271E1,1.2589386E1,2.2056562E1,0E0,0E0,0E0,0E0,0E0,0E0,0E0,0E0,0E0,0E0,0E0,0E0,0E0,0E0,0E0],"parents":[2147483647,0,0,1,1,2,2,3,3,4,4,5,5,6,6,7,7,8,8,9,9,10,10,11,11,12,12,13,13],"right_children":[2,4,6,8,10,12,14,16,18,20,22,24,26,28,-1,-1,-1,-1,-1,-1,-1,-1,-1,-1,-1,-1,-1,-1,-1],"split_conditions":[2.2E1,1E1,5E0,6E0,1.8E1,2E0,7E0,5E0,7E0,2E0,7E0,2.3E1,2.3E1,2.3E1,-9.886892E-2,-8.939374E-2,6.3506804E-2,-1.4605266E-1,-3.4799993E-2,1.7828463E-1,5.0544064E-2,-6.0193525E-3,-4.6401E-2,2.6334573E-3,-1.2784348E-1,-1.5863562E-1,-8.783632E-2,2.5211924E-3,-6.541898E-2],"split_indices":[1,1,0,0,1,0,0,1,1,0,0,1,1,1,0,0,0,0,0,0,0,0,0,0,0,0,0,0,0],"split_type":[0,0,0,0,0,0,0,0,0,0,0,0,0,0,0,0,0,0,0,0,0,0,0,0,0,0,0,0,0],"sum_hessian":[2.968E3,2.519E3,4.49E2,7.32E2,1.787E3,1.66E2,2.83E2,4.15E2,3.17E2,1.126E3,6.61E2,4.9E1,1.17E2,1.9E2,9.3E1,1.36E2,2.79E2,1.78E2,1.39E2,7.1E1,1.055E3,5.06E2,1.55E2,2.4E1,2.5E1,4.3E1,7.4E1,9.6E1,9.4E1],"tree_param":{"num_deleted":"0","num_feature":"2","num_nodes":"29","size_leaf_vector":"1"}},{"base_weights":[-5.1903175E-3,1.08702704E-1,-6.429797E-1,-3.1313923E-1,2.815782E-1,-9.090045E-1,-4.842856E-1,-6.720878E-2,-1.3730044E0,5.8150125E-1,-7.079996E-2,-5.889613E-1,-1.0369126E0,-2.8164992E-1,-8.908721E-2,-7.074743E-2,2.1152982E-2,-2.2052288E-2,-1.9282857E-1,1.6070388E-1,4.9835023E-2,1.9786913E-2,-3.458963E-2,2.3806344E-3,-1.1555087E-1,-1.431326E-1,-7.9169795E-2,2.2716406E-3,-5.894592E-2],"categories":[],"categories_nodes":[],"categories_segments":[],"categories_sizes":[],"default_left":[0,0,0,0,0,0,0,0,0,0,0,0,0,0,0,0,0,0,0,0,0,0,0,0,0,0,0,0,0],"id":25,"left_children":[1,3,5,7,9,11,13,15,17,19,21,23,25,27,-1,-1,-1,-1,-1,-1,-1,-1,-1,-1,-1,-1,-1,-1,-1],"loss_changes":[2.1573734E2,1.8386205E2,1.8557236E1,1.9096645E2,1.8900835E2,6.2256317E0,2.3147545E1,1.065158E2,8.788806E1,8.157431E1,6.089628E1,1.7385601E1,1.02793045E1,1.7907566E1,0E0,0E0,0E0,0E0,0E0,0E0,0E0,0E0,0E0,0E0,0E0,0E0,0E0,0E0,0E0],"parents":[2147483647,0,0,1,1,2,2,3,3,4,4,5,5,6,6,7,7,8,8,9,9,10,10,11,11,12,12,13,13],"right_children":[2,4,6,8,10,12,14,16,18,20,22,24,26,28,-1,-1,-1,-1,-1,-1,-1,-1,-1,-1,-1,-1,-1,-1,-1],"split_conditions":[2.2E1,1E1,5E0,7E0,1.7E1,2E0,7E0,5E0,3E0,2E0,6E0,2.3E1,2.3E1,2.3E1,-8.908721E-2,-7.074743E-2,2.1152982E-2,-2.2052288E-2,-1.9282857E-1,1.6070388E-1,4.9835023E-2,1.9786913E-2,-3.458963E-2,2.3806344E-3,-1.1555087E-1,-1.431326E-1,-7.9169795E-2,2.2716406E-3,-5.894592E-2],"split_indices":[1,1,0,0,1,0,0,1,1,0,0,1,1,1,0,0,0,0,0,0,0,0,0,0,0,0,0,0,0],"split_type":[0,0,0,0,0,0,0,0,0,0,0,0,0,0,0,0,0,0,0,0,0,0,0,0,0,0,0,0,0],"sum_hessian":[2.968E3,2.519E3,4.49E2,7.32E2,1.787E3,1.66E2,2.83E2,5.95E2,1.37E2,9.65E2,8.22E2,4.9E1,1.17E2,1.9E2,9.3E1,1.8E2,4.15E2,4.5E1,9.2E1,7.1E1,8.94E2,4.16E2,4.06E2,2.4E1,2.5E1,4.3E1,7.4E1,9.6E1,9.4E1],"tree_param":{"num_deleted":"0","num_feature":"2","num_nodes":"29","size_leaf_vector":"1"}},{"base_weights":[-4.856518E-3,1.2483525E-1,-4.677489E-1,-2.8218594E-1,3.126323E-1,-3.2341424E-1,-7.1297306E-1,1.2862693E-1,-8.1871414E-1,4.8081014E-1,-9.8296404E-2,-6.1775243E-1,-1.6907808E-1,-8.350103E-1,-5.1791614E-1,-7.349651E-2,5.5071082E-2,-1.2502745E-1,-2.6108554E-2,1.448567E-1,4.143714E-2,-7.8652605E-2,2.8687818E-3,-4.1225407E-2,-1.5108316E-1,5.63072E-3,-6.0106613E-2,-1.0444021E-1,-7.8311615E-2,-1.8815238E-2,-8.506929E-2],"categories":[],"categories_nodes":[],"categories_segments":[],"categories_sizes":[],"default_left":[0,0,0,0,0,0,0,0,0,0,0,0,0,0,0,0,0,0,0,0,0,0,0,0,0,0,0,0,0,0,0],"id":26,"left_children":[1,3,5,7,9,11,13,15,17,19,21,23,25,27,29,-1,-1,-1,-1,-1,-1,-1,-1,-1,-1,-1,-1,-1,-1,-1,-1],"loss_changes":[1.7829736E2,1.7742294E2,2.2775742E1,1.6166782E2,1.0979253E2,1.856606E1,5.2805405E0,1.5204019E2,7.620035E1,7.186197E1,4.0398735E1,2.525436E1,2.6419418E1,7.685776E-1,1.0265024E1,0E0,0E0,0E0,0E0,0E0,0E0,0E0,0E0,0E0,0E0,0E0,0E0,0E0,0E0,0E0,0E0],"parents":[2147483647,0,0,1,1,2,2,3,3,4,4,5,5,6,6,7,7,8,8,9,9,10,10,11,11,12,12,13,13,14,14],"right_children":[2,4,6,8,10,12,14,16,18,20,22,24,26,28,30,-1,-1,-1,-1,-1,-1,-1,-1,-1,-1,-1,-1,-1,-1,-1,-1],"split_conditions":[2.1E1,1E1,2.3E1,6E0,1.8E1,5E0,6E0,5E0,7E0,2E0,3E0,4E0,7E0,2E0,7E0,-7.349651E-2,5.5071082E-2,-1.2502745E-1,-2.6108554E-2,1.448567E-1,4.143714E-2,-7.8652605E-2,2.8687818E-3,-4.1225407E-2,-1.5108316E-1,5.63072E-3,-6.0106613E-2,-1.0444021E-1,-7.8311615E-2,-1.8815238E-2,-8.506929E-2],"split_indices":[1,1,1,0,1,0,0,1,1,0,0,0,0,0,0,0,0,0,0,0,0,0,0,0,0,0,0,0,0,0,0],"split_type":[0,0,0,0,0,0,0,0,0,0,0,0,0,0,0,0,0,0,0,0,0,0,0,0,0,0,0,0,0,0,0],"sum_hessian":[2.968E3,2.319E3,6.49E2,7.32E2,1.587E3,4.1E2,2.39E2,4.15E2,3.17E2,1.126E3,4.61E2,1.4E2,2.7E2,1.45E2,9.4E1,1.36E2,2.79E2,1.78E2,1.39E2,7.1E1,1.055E3,7.1E1,3.9E2,1.15E2,2.5E1,1.78E2,9.2E1,2.5E1,1.2E2,4.8E1,4.6E1],"tree_param":{"num_deleted":"0","num_feature":"2","num_nodes":"31","size_leaf_vector":"1"}},{"base_weights":[-4.570411E-3,8.9463174E-2,-5.311483E-1,-2.5419864E-1,2.302991E-1,-7.5323766E-1,-3.9868328E-1,-4.692319E-2,-1.1475463E0,4.745734E-1,-5.6698795E-2,-4.6032044E-1,-8.7097174E-1,-2.3302291E-1,-7.310498E-2,-5.515004E-2,1.7272921E-2,-7.664036E-3,-1.6649024E-1,3.52135E-2,1.0845782E-1,1.9661497E-2,-3.1609718E-2,6.109707E-3,-9.439789E-2,-1.2511578E-1,-6.363163E-2,1.4895725E-3,-4.8370805E-2],"categories":[],"categories_nodes":[],"categories_segments":[],"categories_sizes":[],"default_left":[0,0,0,0,0,0,0,0,0,0,0,0,0,0,0,0,0,0,0,0,0,0,0,0,0,0,0,0,0],"id":27,"left_children":[1,3,5,7,9,11,13,15,17,19,21,23,25,27,-1,-1,-1,-1,-1,-1,-1,-1,-1,-1,-1,-1,-1,-1,-1],"loss_changes":[1.4706055E2,1.2202637E2,1.2938278E1,1.3567506E2,1.2537681E2,5.3582993E0,1.5466671E1,6.615089E1,7.6329926E1,7.176669E1,5.4140804E1,1.2667072E1,9.730965E0,1.1877762E1,0E0,0E0,0E0,0E0,0E0,0E0,0E0,0E0,0E0,0E0,0E0,0E0,0E0,0E0,0E0],"parents":[2147483647,0,0,1,1,2,2,3,3,4,4,5,5,6,6,7,7,8,8,9,9,10,10,11,11,12,12,13,13],"right_children":[2,4,6,8,10,12,14,16,18,20,22,24,26,28,-1,-1,-1,-1,-1,-1,-1,-1,-1,-1,-1,-1,-1,-1,-1],"split_conditions":[2.2E1,1E1,5E0,7E0,1.7E1,2E0,7E0,5E0,3E0,1.6E1,6E0,2.3E1,2.3E1,2.3E1,-7.310498E-2,-5.515004E-2,1.7272921E-2,-7.664036E-3,-1.6649024E-1,3.52135E-2,1.0845782E-1,1.9661497E-2,-3.1609718E-2,6.109707E-3,-9.439789E-2,-1.2511578E-1,-6.363163E-2,1.4895725E-3,-4.8370805E-2],"split_indices":[1,1,0,0,1,0,0,1,1,1,0,1,1,1,0,0,0,0,0,0,0,0,0,0,0,0,0,0,0],"split_type":[0,0,0,0,0,0,0,0,0,0,0,0,0,0,0,0,0,0,0,0,0,0,0,0,0,0,0,0,0],"sum_hessian":[2.968E3,2.519E3,4.49E2,7.32E2,1.787E3,1.66E2,2.83E2,5.95E2,1.37E2,9.65E2,8.22E2,4.9E1,1.17E2,1.9E2,9.3E1,1.8E2,4.15E2,4.5E1,9.2E1,8.05E2,1.6E2,4.16E2,4.06E2,2.4E1,2.5E1,4.3E1,7.4E1,9.6E1,9.4E1],"tree_param":{"num_deleted":"0","num_feature":"2","num_nodes":"29","size_leaf_vector":"1"}},{"base_weights":[-4.274164E-3,1.21919125E-1,-3.2693094E-1,-1.8831024E-1,3.2969445E-1,-6.222437E-1,-1.5315756E-1,-1.361524E-2,-8.184539E-1,6.6305E-1,1.8910462E-1,-4.9336806E-1,-7.2747046E-1,7.586482E-2,-5.8408415E-1,-4.9665507E-2,1.6411612E-2,-1.3544264E-1,-3.1272225E-2,-6.2133092E-2,1.11938946E-1,9.1121964E-2,-5.402013E-3,-3.5334055E-3,-7.343178E-2,-9.2371814E-2,-4.5942597E-2,7.9664655E-2,-1.1714958E-2,-4.996387E-2,-6.5872245E-2],"categories":[],"categories_nodes":[],"categories_segments":[],"categories_sizes":[],"default_left":[0,0,0,0,0,0,0,0,0,0,0,0,0,0,0,0,0,0,0,0,0,0,0,0,0,0,0,0,0,0,0],"id":28,"left_children":[1,3,5,7,9,11,13,15,17,19,21,23,25,27,29,-1,-1,-1,-1,-1,-1,-1,-1,-1,-1,-1,-1,-1,-1,-1,-1],"loss_changes":[1.2092899E2,1.3767993E2,4.2754814E1,9.432995E1,5.9816757E1,3.8314743E0,5.20549E1,5.7773598E1,4.999327E1,2.2283255E2,1.582324E2,1.564563E1,8.412949E0,4.8090157E1,8.243065E-1,0E0,0E0,0E0,0E0,0E0,0E0,0E0,0E0,0E0,0E0,0E0,0E0,0E0,0E0,0E0,0E0],"parents":[2147483647,0,0,1,1,2,2,3,3,4,4,5,5,6,6,7,7,8,8,9,9,10,10,11,11,12,12,13,13,14,14],"right_children":[2,4,6,8,10,12,14,16,18,20,22,24,26,28,30,-1,-1,-1,-1,-1,-1,-1,-1,-1,-1,-1,-1,-1,-1,-1,-1],"split_conditions":[2E1,1.1E1,5E0,7E0,5E0,3E0,7E0,5E0,7E0,1.3E1,1.4E1,2.2E1,4E0,2.1E1,2.2E1,-4.9665507E-2,1.6411612E-2,-1.3544264E-1,-3.1272225E-2,-6.2133092E-2,1.11938946E-1,9.1121964E-2,-5.402013E-3,-3.5334055E-3,-7.343178E-2,-9.2371814E-2,-4.5942597E-2,7.9664655E-2,-1.1714958E-2,-4.996387E-2,-6.5872245E-2],"split_indices":[1,1,0,0,0,0,0,1,1,1,1,1,0,1,1,0,0,0,0,0,0,0,0,0,0,0,0,0,0,0,0],"split_type":[0,0,0,0,0,0,0,0,0,0,0,0,0,0,0,0,0,0,0,0,0,0,0,0,0,0,0,0,0,0,0],"sum_hessian":[2.968E3,2.134E3,8.34E2,8.56E2,1.278E3,3.08E2,5.26E2,6.71E2,1.85E2,3.78E2,9E2,1.41E2,1.67E2,3.44E2,1.82E2,1.8E2,4.91E2,8.9E1,9.6E1,9.9E1,2.79E2,2.26E2,6.74E2,4.9E1,9.2E1,9.5E1,7.2E1,7.2E1,2.72E2,8.9E1,9.3E1],"tree_param":{"num_deleted":"0","num_feature":"2","num_nodes":"31","size_leaf_vector":"1"}},{"base_weights":[-3.956969E-3,1.3940793E-1,-2.438412E-1,-1.6971214E-1,4.0339246E-1,-4.6663862E-1,-1.1685784E-1,-1.2302707E-2,-7.375047E-1,8.456508E-1,2.2752734E-1,1.08443625E-1,-5.878525E-1,4.4862367E-2,-4.1579822E-1,2.531824E-2,-2.8012857E-2,-1.22048855E-1,-2.8177226E-2,-5.5981845E-2,1.596733E-1,6.378316E-2,-1.8340891E-2,1.1413764E-1,-1.9619404E-1,-7.6129004E-2,-5.1747333E-2,1.6617384E-2,-4.2425524E-2,-1.0775029E-2,-5.263087E-2],"categories":[],"categories_nodes":[],"categories_segments":[],"categories_sizes":[],"default_left":[0,0,0,0,0,0,0,0,0,0,0,0,0,0,0,0,0,0,0,0,0,0,0,0,0,0,0,0,0,0,0],"id":29,"left_children":[1,3,5,7,9,11,13,15,17,19,21,23,25,27,29,-1,-1,-1,-1,-1,-1,-1,-1,-1,-1,-1,-1,-1,-1,-1,-1],"loss_changes":[1.0214081E2,1.5176828E2,3.1377403E1,7.658608E1,7.7818726E1,2.8156044E1,3.4295044E1,4.7852665E1,4.0596817E1,3.0174637E2,1.2134676E2,1.5407759E2,3.6707687E0,2.6305704E1,8.41988E0,0E0,0E0,0E0,0E0,0E0,0E0,0E0,0E0,0E0,0E0,0E0,0E0,0E0,0E0,0E0,0E0],"parents":[2147483647,0,0,1,1,2,2,3,3,4,4,5,5,6,6,7,7,8,8,9,9,10,10,11,11,12,12,13,13,14,14],"right_children":[2,4,6,8,10,12,14,16,18,20,22,24,26,28,30,-1,-1,-1,-1,-1,-1,-1,-1,-1,-1,-1,-1,-1,-1,-1,-1],"split_conditions":[1.8E1,1.1E1,5E0,7E0,5E0,1.9E1,7E0,7E0,7E0,1.3E1,1.5E1,4E0,2.1E1,2.3E1,2E1,2.531824E-2,-2.8012857E-2,-1.22048855E-1,-2.8177226E-2,-5.5981845E-2,1.596733E-1,6.378316E-2,-1.8340891E-2,1.1413764E-1,-1.9619404E-1,-7.6129004E-2,-5.1747333E-2,1.6617384E-2,-4.2425524E-2,-1.0775029E-2,-5.263087E-2],"split_indices":[1,1,0,0,0,1,0,1,1,1,1,0,1,1,1,0,0,0,0,0,0,0,0,0,0,0,0,0,0,0,0],"split_type":[0,0,0,0,0,0,0,0,0,0,0,0,0,0,0,0,0,0,0,0,0,0,0,0,0,0,0,0,0,0,0],"sum_hessian":[2.968E3,1.858E3,1.11E3,8.56E2,1.002E3,4.02E2,7.08E2,6.71E2,1.85E2,2.84E2,7.18E2,7E1,3.32E2,4.6E2,2.48E2,3.37E2,3.34E2,8.9E1,9.6E1,9.9E1,1.85E2,3.59E2,3.59E2,4.7E1,2.3E1,9.3E1,2.39E2,3.66E2,9.4E1,6.6E1,1.82E2],"tree_param":{"num_deleted":"0","num_feature":"2","num_nodes":"31","size_leaf_vector":"1"}},{"base_weights":[-3.6633778E-3,1.2546512E-1,-2.1972658E-1,-1.5291917E-1,3.632018E-1,-4.2049575E-1,-1.0529823E-1,-1.107621E-2,-6.645619E-1,7.614496E-1,2.0483765E-1,9.6443415E-2,-5.2945125E-1,4.0319797E-2,-3.744734E-1,-4.7244232E-2,1.586765E-2,1.8275118E-2,-9.362771E-2,-5.0439574E-2,1.4379178E-1,7.5699665E-2,-4.981738E-3,1.0296166E-1,-1.7739214E-1,-6.85971E-2,-4.659417E-2,1.4960139E-2,-3.8227662E-2,-9.713677E-3,-4.7396563E-2],"categories":[],"categories_nodes":[],"categories_segments":[],"categories_sizes":[],"default_left":[0,0,0,0,0,0,0,0,0,0,0,0,0,0,0,0,0,0,0,0,0,0,0,0,0,0,0,0,0,0,0],"id":30,"left_children":[1,3,5,7,9,11,13,15,17,19,21,23,25,27,29,-1,-1,-1,-1,-1,-1,-1,-1,-1,-1,-1,-1,-1,-1,-1,-1],"loss_changes":[8.286242E1,1.2308815E2,2.5479492E1,6.218763E1,6.3101395E1,2.2749374E1,2.7805603E1,5.2704758E1,4.2993484E1,2.4477194E2,1.0113635E2,1.25748024E2,2.9905624E0,2.1347094E1,6.8245773E0,0E0,0E0,0E0,0E0,0E0,0E0,0E0,0E0,0E0,0E0,0E0,0E0,0E0,0E0,0E0,0E0],"parents":[2147483647,0,0,1,1,2,2,3,3,4,4,5,5,6,6,7,7,8,8,9,9,10,10,11,11,12,12,13,13,14,14],"right_children":[2,4,6,8,10,12,14,16,18,20,22,24,26,28,30,-1,-1,-1,-1,-1,-1,-1,-1,-1,-1,-1,-1,-1,-1,-1,-1],"split_conditions":[1.8E1,1.1E1,5E0,7E0,5E0,1.9E1,7E0,5E0,3E0,1.3E1,1.4E1,4E0,2.1E1,2.3E1,2E1,-4.7244232E-2,1.586765E-2,1.8275118E-2,-9.362771E-2,-5.0439574E-2,1.4379178E-1,7.5699665E-2,-4.981738E-3,1.0296166E-1,-1.7739214E-1,-6.85971E-2,-4.659417E-2,1.4960139E-2,-3.8227662E-2,-9.713677E-3,-4.7396563E-2],"split_indices":[1,1,0,0,0,1,0,1,1,1,1,0,1,1,1,0,0,0,0,0,0,0,0,0,0,0,0,0,0,0,0],"split_type":[0,0,0,0,0,0,0,0,0,0,0,0,0,0,0,0,0,0,0,0,0,0,0,0,0,0,0,0,0,0,0],"sum_hessian":[2.968E3,1.858E3,1.11E3,8.56E2,1.002E3,4.02E2,7.08E2,6.71E2,1.85E2,2.84E2,7.18E2,7E1,3.32E2,4.6E2,2.48E2,1.8E2,4.91E2,4.5E1,1.4E2,9.9E1,1.85E2,2.26E2,4.92E2,4.7E1,2.3E1,9.3E1,2.39E2,3.66E2,9.4E1,6.6E1,1.82E2],"tree_param":{"num_deleted":"0","num_feature":"2","num_nodes":"31","size_leaf_vector":"1"}},{"base_weights":[-3.3684133E-3,6.1330043E-2,-3.656723E-1,-1.795384E-1,1.6004103E-1,-5.073861E-1,-2.81053E-1,1.2835161E-1,-5.817482E-1,3.0308375E-1,-8.3719075E-2,-2.4771637E-1,-6.131157E-1,-1.7449123E-1,-4.9458757E-2,6.137517E-2,-5.918447E-2,4.4821477E-3,-8.254579E-2,1.0427642E-1,2.5236398E-2,-7.6341905E-2,-3.0533196E-3,2.2013428E-2,-6.8804525E-2,-9.506854E-2,-4.0690005E-2,-6.2369124E-4,-3.44451E-2],"categories":[],"categories_nodes":[],"categories_segments":[],"categories_sizes":[],"default_left":[0,0,0,0,0,0,0,0,0,0,0,0,0,0,0,0,0,0,0,0,0,0,0,0,0,0,0,0,0],"id":31,"left_children":[1,3,5,7,9,11,13,15,17,19,21,23,25,27,-1,-1,-1,-1,-1,-1,-1,-1,-1,-1,-1,-1,-1,-1,-1],"loss_changes":[6.961728E1,5.9945164E1,5.2536697E0,9.0846725E1,6.2369556E1,4.433071E0,6.3760147E0,1.4578993E2,4.8595947E1,4.2017838E1,2.3908281E1,1.0451869E1,7.8273964E0,5.459775E0,0E0,0E0,0E0,0E0,0E0,0E0,0E0,0E0,0E0,0E0,0E0,0E0,0E0,0E0,0E0],"parents":[2147483647,0,0,1,1,2,2,3,3,4,4,5,5,6,6,7,7,8,8,9,9,10,10,11,11,12,12,13,13],"right_children":[2,4,6,8,10,12,14,16,18,20,22,24,26,28,-1,-1,-1,-1,-1,-1,-1,-1,-1,-1,-1,-1,-1,-1,-1],"split_conditions":[2.2E1,1E1,5E0,6E0,1.8E1,2E0,7E0,7E0,3E0,2E0,2E0,2.3E1,2.3E1,2.3E1,-4.9458757E-2,6.137517E-2,-5.918447E-2,4.4821477E-3,-8.254579E-2,1.0427642E-1,2.5236398E-2,-7.6341905E-2,-3.0533196E-3,2.2013428E-2,-6.8804525E-2,-9.506854E-2,-4.0690005E-2,-6.2369124E-4,-3.44451E-2],"split_indices":[1,1,0,0,1,0,0,1,1,0,0,1,1,1,0,0,0,0,0,0,0,0,0,0,0,0,0,0,0],"split_type":[0,0,0,0,0,0,0,0,0,0,0,0,0,0,0,0,0,0,0,0,0,0,0,0,0,0,0,0,0],"sum_hessian":[2.968E3,2.519E3,4.49E2,7.32E2,1.787E3,1.66E2,2.83E2,4.15E2,3.17E2,1.126E3,6.61E2,4.9E1,1.17E2,1.9E2,9.3E1,2.48E2,1.67E2,8.9E1,2.28E2,7.1E1,1.055E3,4.7E1,6.14E2,2.4E1,2.5E1,4.3E1,7.4E1,9.6E1,9.4E1],"tree_param":{"num_deleted":"0","num_feature":"2","num_nodes":"29","size_leaf_vector":"1"}},{"base_weights":[-3.12999E-3,5.518709E-2,-3.2969868E-1,-1.6168775E-1,1.440652E-1,-4.577407E-1,-2.5324547E-1,1.15522064E-1,-5.2381855E-1,2.7289054E-1,-7.5466834E-2,-2.2388071E-1,-5.5295473E-1,-1.5722586E-1,-4.4565506E-2,5.5262323E-2,-5.3301197E-2,-8.855005E-2,-5.7640797E-3,9.399358E-2,2.2715176E-2,-6.886679E-2,-2.748453E-3,1.9900111E-2,-6.218871E-2,-8.577775E-2,-3.6675267E-2,-5.6196394E-4,-3.1036878E-2],"categories":[],"categories_nodes":[],"categories_segments":[],"categories_sizes":[],"default_left":[0,0,0,0,0,0,0,0,0,0,0,0,0,0,0,0,0,0,0,0,0,0,0,0,0,0,0,0,0],"id":32,"left_children":[1,3,5,7,9,11,13,15,17,19,21,23,25,27,-1,-1,-1,-1,-1,-1,-1,-1,-1,-1,-1,-1,-1,-1,-1],"loss_changes":[5.6561413E1,4.8597374E1,4.2892265E0,7.364361E1,5.0587536E1,3.5947533E0,5.176857E0,1.18220146E2,5.3566338E1,3.4171074E1,1.9458967E1,8.53924E0,6.3829308E0,4.432783E0,0E0,0E0,0E0,0E0,0E0,0E0,0E0,0E0,0E0,0E0,0E0,0E0,0E0,0E0,0E0],"parents":[2147483647,0,0,1,1,2,2,3,3,4,4,5,5,6,6,7,7,8,8,9,9,10,10,11,11,12,12,13,13],"right_children":[2,4,6,8,10,12,14,16,18,20,22,24,26,28,-1,-1,-1,-1,-1,-1,-1,-1,-1,-1,-1,-1,-1,-1,-1],"split_conditions":[2.2E1,1E1,5E0,6E0,1.8E1,2E0,7E0,7E0,7E0,2E0,2E0,2.3E1,2.3E1,2.3E1,-4.4565506E-2,5.5262323E-2,-5.3301197E-2,-8.855005E-2,-5.7640797E-3,9.399358E-2,2.2715176E-2,-6.886679E-2,-2.748453E-3,1.9900111E-2,-6.218871E-2,-8.577775E-2,-3.6675267E-2,-5.6196394E-4,-3.1036878E-2],"split_indices":[1,1,0,0,1,0,0,1,1,0,0,1,1,1,0,0,0,0,0,0,0,0,0,0,0,0,0,0,0],"split_type":[0,0,0,0,0,0,0,0,0,0,0,0,0,0,0,0,0,0,0,0,0,0,0,0,0,0,0,0,0],"sum_hessian":[2.968E3,2.519E3,4.49E2,7.32E2,1.787E3,1.66E2,2.83E2,4.15E2,3.17E2,1.126E3,6.61E2,4.9E1,1.17E2,1.9E2,9.3E1,2.48E2,1.67E2,1.78E2,1.39E2,7.1E1,1.055E3,4.7E1,6.14E2,2.4E1,2.5E1,4.3E1,7.4E1,9.6E1,9.4E1],"tree_param":{"num_deleted":"0","num_feature":"2","num_nodes":"29","size_leaf_vector":"1"}},{"base_weights":[-2.913845E-3,4.9649864E-2,-2.9726413E-1,1.2128588E-1,-1.7631552E-1,-4.8308265E-1,-2.4816251E-1,-4.9266177E-1,1.8530159E-1,-9.374787E-1,-4.3726705E-2,-2.0233852E-1,-7.911309E-1,-1.3385351E-1,-3.4740725E-1,-6.519746E-2,3.3054352E-4,9.791164E-2,1.056516E-2,2.4711398E-2,-2.127563E-1,3.0503292E-2,-1.7497376E-2,1.7989686E-2,-5.6209028E-2,-1.4527245E-1,-2.3021078E-2,-4.5375647E-3,-3.5410285E-2,-4.864637E-2,-2.017664E-2],"categories":[],"categories_nodes":[],"categories_segments":[],"categories_sizes":[],"default_left":[0,0,0,0,0,0,0,0,0,0,0,0,0,0,0,0,0,0,0,0,0,0,0,0,0,0,0,0,0,0,0],"id":33,"left_children":[1,3,5,7,9,11,13,15,17,19,21,23,25,27,29,-1,-1,-1,-1,-1,-1,-1,-1,-1,-1,-1,-1,-1,-1,-1,-1],"loss_changes":[4.595155E1,4.081328E1,3.9859161E0,7.531589E1,6.1218494E1,7.882818E0,4.0148525E0,1.4303684E1,1.0953277E2,1.274046E2,2.3764133E1,6.97661E0,1.5994017E1,3.2577803E0,3.7700386E0,0E0,0E0,0E0,0E0,0E0,0E0,0E0,0E0,0E0,0E0,0E0,0E0,0E0,0E0,0E0,0E0],"parents":[2147483647,0,0,1,1,2,2,3,3,4,4,5,5,6,6,7,7,8,8,9,9,10,10,11,11,12,12,13,13,14,14],"right_children":[2,4,6,8,10,12,14,16,18,20,22,24,26,28,30,-1,-1,-1,-1,-1,-1,-1,-1,-1,-1,-1,-1,-1,-1,-1,-1],"split_conditions":[2.2E1,7E0,3E0,5E0,7E0,2E0,2.3E1,6E0,7E0,3E0,1.2E1,2.3E1,2.3E1,7E0,6E0,-6.519746E-2,3.3054352E-4,9.791164E-2,1.056516E-2,2.4711398E-2,-2.127563E-1,3.0503292E-2,-1.7497376E-2,1.7989686E-2,-5.6209028E-2,-1.4527245E-1,-2.3021078E-2,-4.5375647E-3,-3.5410285E-2,-4.864637E-2,-2.017664E-2],"split_indices":[1,0,0,1,1,0,1,0,1,1,1,1,1,0,0,0,0,0,0,0,0,0,0,0,0,0,0,0,0,0,0],"split_type":[0,0,0,0,0,0,0,0,0,0,0,0,0,0,0,0,0,0,0,0,0,0,0,0,0,0,0,0,0,0,0],"sum_hessian":[2.968E3,2.519E3,4.49E2,1.913E3,6.06E2,9.2E1,3.57E2,1.8E2,1.733E3,8.9E1,5.17E2,4.9E1,4.3E1,1.67E2,1.9E2,1.36E2,4.4E1,1.57E2,1.576E3,4.5E1,4.4E1,1.41E2,3.76E2,2.4E1,2.5E1,1.9E1,2.4E1,1.2E2,4.7E1,9.6E1,9.4E1],"tree_param":{"num_deleted":"0","num_feature":"2","num_nodes":"31","size_leaf_vector":"1"}},{"base_weights":[-2.7727287E-3,8.6144954E-2,-1.5155329E-1,-8.083849E-2,3.1170645E-1,-3.0937377E-1,-6.1633386E-2,-5.353839E-2,-9.3627375E-1,1.1995227E0,3.8694043E-2,1.2621495E-1,-4.01318E-1,1.9379193E-1,-1.6591112E-1,-4.342599E-2,1.2163666E-2,1.7231357E-1,-7.225229E-1,5.334363E-2,3.2151458E-1,3.9908495E-2,-2.0868165E-2,9.9093534E-2,-1.6084848E-1,-5.8722276E-2,-3.2683313E-2,1.717673E-1,-2.307046E-2,-6.3872315E-2,1.4107386E-3],"categories":[],"categories_nodes":[],"categories_segments":[],"categories_sizes":[],"default_left":[0,0,0,0,0,0,0,0,0,0,0,0,0,0,0,0,0,0,0,0,0,0,0,0,0,0,0,0,0,0,0],"id":34,"left_children":[1,3,5,7,9,11,13,15,17,19,21,23,25,27,29,-1,-1,-1,-1,-1,-1,-1,-1,-1,-1,-1,-1,-1,-1,-1,-1],"loss_changes":[3.9290615E1,7.0044495E1,1.574736E1,2.491473E1,1.9168002E2,1.6190746E1,1.891649E1,6.9213356E1,5.64372E2,2.4800461E2,5.4109364E1,1.08096054E2,4.419159E0,1.33654E2,4.290693E1,0E0,0E0,0E0,0E0,0E0,0E0,0E0,0E0,0E0,0E0,0E0,0E0,0E0,0E0,0E0,0E0],"parents":[2147483647,0,0,1,1,2,2,3,3,4,4,5,5,6,6,7,7,8,8,9,9,10,10,11,11,12,12,13,13,14,14],"right_children":[2,4,6,8,10,12,14,16,18,20,22,24,26,28,30,-1,-1,-1,-1,-1,-1,-1,-1,-1,-1,-1,-1,-1,-1,-1,-1],"split_conditions":[1.8E1,1.3E1,5E0,1.2E1,5E0,1.9E1,6E0,4E0,3E0,4E0,1.5E1,4E0,2.1E1,2E1,2E1,-4.342599E-2,1.2163666E-2,1.7231357E-1,-7.225229E-1,5.334363E-2,3.2151458E-1,3.9908495E-2,-2.0868165E-2,9.9093534E-2,-1.6084848E-1,-5.8722276E-2,-3.2683313E-2,1.717673E-1,-2.307046E-2,-6.3872315E-2,1.4107386E-3],"split_indices":[1,1,0,1,0,1,0,0,0,0,1,0,1,1,1,0,0,0,0,0,0,0,0,0,0,0,0,0,0,0,0],"split_type":[0,0,0,0,0,0,0,0,0,0,0,0,0,0,0,0,0,0,0,0,0,0,0,0,0,0,0,0,0,0,0],"sum_hessian":[2.968E3,1.858E3,1.11E3,1.068E3,7.9E2,4.02E2,7.08E2,1.036E3,3.2E1,1.85E2,6.05E2,7E1,3.32E2,2.05E2,5.03E2,3.26E2,7.1E2,2.3E1,9E0,1.4E2,4.5E1,2.46E2,3.59E2,4.7E1,2.3E1,9.3E1,2.39E2,4.4E1,1.61E2,1.38E2,3.65E2],"tree_param":{"num_deleted":"0","num_feature":"2","num_nodes":"31","size_leaf_vector":"1"}},{"base_weights":[-2.5810555E-3,4.1931614E-2,-2.5184628E-1,-1.4180969E-1,1.1723387E-1,-4.04663E-1,-2.1144459E-1,1.1662848E-1,-4.7944638E-1,2.1995413E-1,-5.7815928E-2,-1.5083928E-1,-6.8390214E-1,-1.5249585E-1,-3.753805E-1,5.1164187E-2,-4.6953198E-2,1.0340968E-2,-7.0642285E-2,8.178276E-2,1.7898176E-2,-6.497016E-2,-1.1525966E-3,1.940029E-2,-4.766168E-2,-1.2836663E-1,-1.7673463E-2,-2.5395965E-3,-2.575068E-2,-3.2081142E-2,-4.231238E-2],"categories":[],"categories_nodes":[],"categories_segments":[],"categories_sizes":[],"default_left":[0,0,0,0,0,0,0,0,0,0,0,0,0,0,0,0,0,0,0,0,0,0,0,0,0,0,0,0,0,0,0],"id":35,"left_children":[1,3,5,7,9,11,13,15,17,19,21,23,25,27,29,-1,-1,-1,-1,-1,-1,-1,-1,-1,-1,-1,-1,-1,-1,-1,-1],"loss_changes":[3.295298E1,3.4883686E1,2.6927605E0,6.401618E1,3.2163036E1,6.488451E0,3.402401E0,9.656137E1,4.2142723E1,2.7460953E1,1.813023E1,5.7095556E0,1.3157095E1,3.530383E0,1.0915661E-1,0E0,0E0,0E0,0E0,0E0,0E0,0E0,0E0,0E0,0E0,0E0,0E0,0E0,0E0,0E0,0E0],"parents":[2147483647,0,0,1,1,2,2,3,3,4,4,5,5,6,6,7,7,8,8,9,9,10,10,11,11,12,12,13,13,14,14],"right_children":[2,4,6,8,10,12,14,16,18,20,22,24,26,28,30,-1,-1,-1,-1,-1,-1,-1,-1,-1,-1,-1,-1,-1,-1,-1,-1],"split_conditions":[2.2E1,1E1,3E0,6E0,1.8E1,2E0,7E0,7E0,3E0,2E0,2E0,2.3E1,2.3E1,2.3E1,2.3E1,5.1164187E-2,-4.6953198E-2,1.0340968E-2,-7.0642285E-2,8.178276E-2,1.7898176E-2,-6.497016E-2,-1.1525966E-3,1.940029E-2,-4.766168E-2,-1.2836663E-1,-1.7673463E-2,-2.5395965E-3,-2.575068E-2,-3.2081142E-2,-4.231238E-2],"split_indices":[1,1,0,0,1,0,0,1,1,0,0,1,1,1,1,0,0,0,0,0,0,0,0,0,0,0,0,0,0,0,0],"split_type":[0,0,0,0,0,0,0,0,0,0,0,0,0,0,0,0,0,0,0,0,0,0,0,0,0,0,0,0,0,0,0],"sum_hessian":[2.968E3,2.519E3,4.49E2,7.32E2,1.787E3,9.2E1,3.57E2,4.15E2,3.17E2,1.126E3,6.61E2,4.9E1,4.3E1,2.64E2,9.3E1,2.48E2,1.67E2,8.9E1,2.28E2,7.1E1,1.055E3,4.7E1,6.14E2,2.4E1,2.5E1,1.9E1,2.4E1,1.2E2,1.44E2,4.7E1,4.6E1],"tree_param":{"num_deleted":"0","num_feature":"2","num_nodes":"31","size_leaf_vector":"1"}},{"base_weights":[-2.423887E-3,5.304339E-2,-1.822929E-1,-4.700881E-1,9.8322704E-2,-8.284829E-1,-8.6811066E-2,-6.1481714E-1,-1.9022174E-3,8.775135E-1,3.4582153E-2,2.0092446E-2,-1.8623553E-1,2.7482283E-1,-1.9588597E-1,-3.7807234E-2,-8.054852E-2,1.7605309E-1,-1.3107143E-1,-2.3419833E-2,1.681135E-2,-1.5737852E-2,1.18022956E-1,-9.65669E-2,-1.0603939E-2],"categories":[],"categories_nodes":[],"categories_segments":[],"categories_sizes":[],"default_left":[0,0,0,0,0,0,0,0,0,0,0,0,0,0,0,0,0,0,0,0,0,0,0,0,0],"id":36,"left_children":[1,3,5,7,9,11,13,15,-1,17,19,-1,-1,21,23,-1,-1,-1,-1,-1,-1,-1,-1,-1,-1],"loss_changes":[2.963092E1,5.381578E1,4.311766E1,1.1804405E1,1.037717E2,9.615903E1,2.4154839E1,5.8796043E0,0E0,3.0760202E2,6.941594E1,0E0,0E0,5.5752903E1,3.240391E1,0E0,0E0,0E0,0E0,0E0,0E0,0E0,0E0,0E0,0E0],"parents":[2147483647,0,0,1,1,2,2,3,3,4,4,5,5,6,6,7,7,9,9,10,10,13,13,14,14],"right_children":[2,4,6,8,10,12,14,16,-1,18,20,-1,-1,22,24,-1,-1,-1,-1,-1,-1,-1,-1,-1,-1],"split_conditions":[7E0,5E0,7E0,6E0,7E0,3E0,1.2E1,3E0,-1.9022174E-3,6E0,4E0,2.0092446E-2,-1.8623553E-1,1.1E1,1.4E1,-3.7807234E-2,-8.054852E-2,1.7605309E-1,-1.3107143E-1,-2.3419833E-2,1.681135E-2,-1.5737852E-2,1.18022956E-1,-9.65669E-2,-1.0603939E-2],"split_indices":[0,1,1,0,1,1,1,0,0,0,0,0,0,1,1,0,0,0,0,0,0,0,0,0,0],"split_type":[0,0,0,0,0,0,0,0,0,0,0,0,0,0,0,0,0,0,0,0,0,0,0,0,0],"sum_hessian":[2.968E3,2.269E3,6.99E2,1.8E2,2.089E3,8.9E1,6.1E2,1.36E2,4.4E1,1.57E2,1.932E3,4.5E1,4.4E1,1.41E2,4.69E2,6.2E1,7.4E1,1.12E2,4.5E1,6.41E2,1.291E3,9.6E1,4.5E1,4.8E1,4.21E2],"tree_param":{"num_deleted":"0","num_feature":"2","num_nodes":"25","size_leaf_vector":"1"}},{"base_weights":[-2.2666564E-3,3.764725E-2,-2.2577952E-1,-3.024745E-1,7.112432E-2,-3.4290278E-1,-1.9472297E-1,-5.541993E-1,8.406736E-2,1.4748482E-1,-1.6460565E-1,-1.1336901E-1,-5.959434E-1,-1.0245671E-1,-2.7485913E-1,-3.408651E-2,-7.2601065E-2,-1.7162266E-3,1.812688E-2,7.9004616E-2,8.3012935E-3,-1.6802584E-1,-3.2619194E-3,1.9786175E-2,-4.0826898E-2,-1.13946915E-1,-1.37284985E-2,3.8207227E-3,-2.135986E-2,-3.913151E-2,-1.530582E-2],"categories":[],"categories_nodes":[],"categories_segments":[],"categories_sizes":[],"default_left":[0,0,0,0,0,0,0,0,0,0,0,0,0,0,0,0,0,0,0,0,0,0,0,0,0,0,0,0,0,0,0],"id":37,"left_children":[1,3,5,7,9,11,13,15,17,19,21,23,25,27,29,-1,-1,-1,-1,-1,-1,-1,-1,-1,-1,-1,-1,-1,-1,-1,-1],"loss_changes":[2.6495758E1,2.8714935E1,1.5700779E0,2.203688E1,4.133533E1,5.3340054E0,2.6188421E0,4.774021E0,8.886808E-1,7.176909E1,1.1237083E2,4.669878E0,1.0812446E1,2.634615E0,2.6493368E0,0E0,0E0,0E0,0E0,0E0,0E0,0E0,0E0,0E0,0E0,0E0,0E0,0E0,0E0,0E0,0E0],"parents":[2147483647,0,0,1,1,2,2,3,3,4,4,5,5,6,6,7,7,8,8,9,9,10,10,11,11,12,12,13,13,14,14],"right_children":[2,4,6,8,10,12,14,16,18,20,22,24,26,28,30,-1,-1,-1,-1,-1,-1,-1,-1,-1,-1,-1,-1,-1,-1,-1,-1],"split_conditions":[2.2E1,5E0,3E0,6E0,7E0,2E0,2.3E1,3E0,7E0,7E0,7E0,2.3E1,2.3E1,6E0,6E0,-3.408651E-2,-7.2601065E-2,-1.7162266E-3,1.812688E-2,7.9004616E-2,8.3012935E-3,-1.6802584E-1,-3.2619194E-3,1.9786175E-2,-4.0826898E-2,-1.13946915E-1,-1.37284985E-2,3.8207227E-3,-2.135986E-2,-3.913151E-2,-1.530582E-2],"split_indices":[1,1,0,0,0,0,1,0,0,1,1,1,1,0,0,0,0,0,0,0,0,0,0,0,0,0,0,0,0,0,0],"split_type":[0,0,0,0,0,0,0,0,0,0,0,0,0,0,0,0,0,0,0,0,0,0,0,0,0,0,0,0,0,0,0],"sum_hessian":[2.968E3,2.519E3,4.49E2,2.25E2,2.294E3,9.2E1,3.57E2,1.36E2,8.9E1,1.733E3,5.61E2,4.9E1,4.3E1,1.67E2,1.9E2,6.2E1,7.4E1,4.4E1,4.5E1,1.57E2,1.576E3,4.4E1,5.17E2,2.4E1,2.5E1,1.9E1,2.4E1,7.4E1,9.3E1,9.6E1,9.4E1],"tree_param":{"num_deleted":"0","num_feature":"2","num_nodes":"31","size_leaf_vector":"1"}},{"base_weights":[-2.1729576E-3,6.6488594E-2,-1.1706014E-1,-7.497767E-2,2.5758967E-1,-2.3725867E-1,-4.8573438E-2,-2.945522E-1,3.1864088E-2,1.0532895E0,1.2939907E-2,1.3640594E-1,-3.162164E-1,-8.166214E-2,-2.2789339E-2,3.3931598E-2,-8.0013625E-2,1.2528668E-2,-6.613669E-1,4.5687065E-2,2.8585455E-1,3.4819756E-2,-2.1712003E-2,9.404172E-2,-1.4773002E-1,-5.0614942E-2,-2.4050843E-2,9.325101E-3,-2.2728302E-2],"categories":[],"categories_nodes":[],"categories_segments":[],"categories_sizes":[],"default_left":[0,0,0,0,0,0,0,0,0,0,0,0,0,0,0,0,0,0,0,0,0,0,0,0,0,0,0,0,0],"id":38,"left_children":[1,3,5,7,9,11,13,15,17,19,21,23,25,-1,27,-1,-1,-1,-1,-1,-1,-1,-1,-1,-1,-1,-1,-1,-1],"loss_changes":[2.3428242E1,5.027618E1,9.13423E0,2.5087841E1,1.539686E2,1.1933132E1,1.4022017E1,1.1243728E2,4.4783545E2,1.9895807E2,4.6815987E1,9.350736E1,4.666622E0,0E0,1.6323372E1,0E0,0E0,0E0,0E0,0E0,0E0,0E0,0E0,0E0,0E0,0E0,0E0,0E0,0E0],"parents":[2147483647,0,0,1,1,2,2,3,3,4,4,5,5,6,6,7,7,8,8,9,9,10,10,11,11,12,12,14,14],"right_children":[2,4,6,8,10,12,14,16,18,20,22,24,26,-1,28,-1,-1,-1,-1,-1,-1,-1,-1,-1,-1,-1,-1,-1,-1],"split_conditions":[1.8E1,1.3E1,5E0,4E0,5E0,1.9E1,1.9E1,7E0,1.2E1,4E0,1.5E1,4E0,2.1E1,-8.166214E-2,7E0,3.3931598E-2,-8.0013625E-2,1.2528668E-2,-6.613669E-1,4.5687065E-2,2.8585455E-1,3.4819756E-2,-2.1712003E-2,9.404172E-2,-1.4773002E-1,-5.0614942E-2,-2.4050843E-2,9.325101E-3,-2.2728302E-2],"split_indices":[1,1,0,0,0,1,1,1,1,0,1,0,1,0,0,0,0,0,0,0,0,0,0,0,0,0,0,0,0],"split_type":[0,0,0,0,0,0,0,0,0,0,0,0,0,0,0,0,0,0,0,0,0,0,0,0,0,0,0,0,0],"sum_hessian":[2.968E3,1.858E3,1.11E3,1.068E3,7.9E2,4.02E2,7.08E2,3.49E2,7.19E2,1.85E2,6.05E2,7E1,3.32E2,2.2E1,6.86E2,1.55E2,1.94E2,7.1E2,9E0,1.4E2,4.5E1,2.46E2,3.59E2,4.7E1,2.3E1,9.3E1,2.39E2,4.38E2,2.48E2],"tree_param":{"num_deleted":"0","num_feature":"2","num_nodes":"29","size_leaf_vector":"1"}},{"base_weights":[-2.149136E-3,-2.9333892E-1,2.183448E-2,-5.255869E-1,6.3453406E-2,8.121239E-2,-1.6766423E-1,-3.4071258E-1,-6.738735E-1,-2.7734544E-3,1.5127959E-2,6.8988097E-1,3.1418875E-2,-1.5282169E-1,-6.7185454E-2,-4.350279E-2,-1.9884672E-2,-5.7559997E-2,-8.5872136E-2,1.4824322E-1,-1.2720355E-1,-1.911543E-2,1.4199207E-2,2.388585E-2,-1.5950685E-2],"categories":[],"categories_nodes":[],"categories_segments":[],"categories_sizes":[],"default_left":[0,0,0,0,0,0,0,0,0,0,0,0,0,0,0,0,0,0,0,0,0,0,0,0,0],"id":39,"left_children":[1,3,5,7,9,11,13,15,17,-1,-1,19,21,-1,23,-1,-1,-1,-1,-1,-1,-1,-1,-1,-1],"loss_changes":[2.074126E1,1.8760675E1,3.0889204E1,3.5261765E0,7.2497773E-1,6.332151E1,8.9440186E1,7.564435E-1,8.68145E-1,0E0,0E0,2.4756293E2,4.7599476E1,0E0,1.7301538E1,0E0,0E0,0E0,0E0,0E0,0E0,0E0,0E0,0E0,0E0],"parents":[2147483647,0,0,1,1,2,2,3,3,4,4,5,5,6,6,7,7,8,8,11,11,12,12,14,14],"right_children":[2,4,6,8,10,12,14,16,18,-1,-1,20,22,-1,24,-1,-1,-1,-1,-1,-1,-1,-1,-1,-1],"split_conditions":[5E0,6E0,7E0,3E0,7E0,7E0,7E0,3E0,5E0,-2.7734544E-3,1.5127959E-2,6E0,4E0,-1.5282169E-1,1.2E1,-4.350279E-2,-1.9884672E-2,-5.7559997E-2,-8.5872136E-2,1.4824322E-1,-1.2720355E-1,-1.911543E-2,1.4199207E-2,2.388585E-2,-1.5950685E-2],"split_indices":[1,0,0,0,0,1,1,1,0,0,0,0,0,0,1,0,0,0,0,0,0,0,0,0,0],"split_type":[0,0,0,0,0,0,0,0,0,0,0,0,0,0,0,0,0,0,0,0,0,0,0,0,0],"sum_hessian":[2.968E3,2.25E2,2.743E3,1.36E2,8.9E1,2.089E3,6.54E2,6.2E1,7.4E1,4.4E1,4.5E1,1.57E2,1.932E3,4.4E1,6.1E2,3.6E1,2.6E1,5.1E1,2.3E1,1.12E2,4.5E1,6.41E2,1.291E3,1.41E2,4.69E2],"tree_param":{"num_deleted":"0","num_feature":"2","num_nodes":"25","size_leaf_vector":"1"}},{"base_weights":[-2.0427906E-3,4.0777598E-2,-1.548755E-1,-1.2822719E-1,1.18762314E-1,-2.63732E-1,-4.5332448E-3,5.4834854E-2,-3.6730134E-1,1.8034926E-1,-3.1729568E-2,-4.689295E-2,-4.8147503E-1,3.2834074E-1,-1.5855189E-1,-4.7453787E-2,3.1365354E-2,-6.127541E-2,-5.084887E-3,7.695334E-2,1.4000684E-2,-5.9906173E-2,7.282195E-3,4.209319E-2,-2.0799523E-2,-9.50138E-2,-2.2014804E-2,8.2648344E-2,-1.3362303E-2,-4.492054E-3,-2.7170537E-2],"categories":[],"categories_nodes":[],"categories_segments":[],"categories_sizes":[],"default_left":[0,0,0,0,0,0,0,0,0,0,0,0,0,0,0,0,0,0,0,0,0,0,0,0,0,0,0,0,0,0,0],"id":40,"left_children":[1,3,5,7,9,11,13,15,17,19,21,23,25,27,29,-1,-1,-1,-1,-1,-1,-1,-1,-1,-1,-1,-1,-1,-1,-1,-1],"loss_changes":[1.9436508E1,3.059234E1,1.063653E1,3.2100185E1,1.4723839E1,1.7777554E1,1.409971E1,5.7145638E1,2.4669216E1,2.668005E1,2.7447357E1,1.4407406E1,2.2815987E1,2.0131214E1,2.4050574E0,0E0,0E0,0E0,0E0,0E0,0E0,0E0,0E0,0E0,0E0,0E0,0E0,0E0,0E0,0E0,0E0],"parents":[2147483647,0,0,1,1,2,2,3,3,4,4,5,5,6,6,7,7,8,8,9,9,10,10,11,11,12,12,13,13,14,14],"right_children":[2,4,6,8,10,12,14,16,18,20,22,24,26,28,30,-1,-1,-1,-1,-1,-1,-1,-1,-1,-1,-1,-1,-1,-1,-1,-1],"split_conditions":[2.1E1,1E1,6E0,6E0,1.8E1,4E0,2.2E1,5E0,7E0,2E0,3E0,2.2E1,2.2E1,7E0,7E0,-4.7453787E-2,3.1365354E-2,-6.127541E-2,-5.084887E-3,7.695334E-2,1.4000684E-2,-5.9906173E-2,7.282195E-3,4.209319E-2,-2.0799523E-2,-9.50138E-2,-2.2014804E-2,8.2648344E-2,-1.3362303E-2,-4.492054E-3,-2.7170537E-2],"split_indices":[1,1,0,0,1,0,1,1,1,0,0,1,1,0,0,0,0,0,0,0,0,0,0,0,0,0,0,0,0,0,0],"split_type":[0,0,0,0,0,0,0,0,0,0,0,0,0,0,0,0,0,0,0,0,0,0,0,0,0,0,0,0,0,0,0],"sum_hessian":[2.968E3,2.319E3,6.49E2,7.32E2,1.587E3,3.76E2,2.73E2,4.15E2,3.17E2,1.126E3,4.61E2,1.89E2,1.87E2,8.6E1,1.87E2,1.36E2,2.79E2,1.78E2,1.39E2,7.1E1,1.055E3,7.1E1,3.9E2,4.8E1,1.41E2,6.6E1,1.21E2,4.1E1,4.5E1,9.4E1,9.3E1],"tree_param":{"num_deleted":"0","num_feature":"2","num_nodes":"31","size_leaf_vector":"1"}},{"base_weights":[-1.872631E-3,3.6681257E-2,-1.3947746E-1,-1.1551654E-1,1.0691067E-1,-2.376128E-1,-3.9428133E-3,4.9313344E-2,-3.307798E-1,1.623957E-1,-2.8670592E-2,5.591212E-2,-3.6991405E-1,2.9630288E-1,-1.4286533E-1,3.5679054E-2,-4.067053E-2,1.1784001E-2,-5.056488E-2,6.936482E-2,1.2602015E-2,2.1897763E-2,-2.7726678E-2,1.1370172E-1,-2.4693355E-2,-7.5939566E-2,-1.6276048E-2,7.45803E-2,-1.2055157E-2,-4.0476075E-3,-2.4482397E-2],"categories":[],"categories_nodes":[],"categories_segments":[],"categories_sizes":[],"default_left":[0,0,0,0,0,0,0,0,0,0,0,0,0,0,0,0,0,0,0,0,0,0,0,0,0,0,0,0,0,0,0],"id":41,"left_children":[1,3,5,7,9,11,13,15,17,19,21,23,25,27,29,-1,-1,-1,-1,-1,-1,-1,-1,-1,-1,-1,-1,-1,-1,-1,-1],"loss_changes":[1.5756259E1,2.4810276E1,8.644543E0,2.6024487E1,1.1950754E1,1.4660994E1,1.1471115E1,5.8474678E1,2.5006588E1,2.1691408E1,2.8503468E1,3.891491E1,2.0853855E1,1.6391628E1,1.9527106E0,0E0,0E0,0E0,0E0,0E0,0E0,0E0,0E0,0E0,0E0,0E0,0E0,0E0,0E0,0E0,0E0],"parents":[2147483647,0,0,1,1,2,2,3,3,4,4,5,5,6,6,7,7,8,8,9,9,10,10,11,11,12,12,13,13,14,14],"right_children":[2,4,6,8,10,12,14,16,18,20,22,24,26,28,30,-1,-1,-1,-1,-1,-1,-1,-1,-1,-1,-1,-1,-1,-1,-1,-1],"split_conditions":[2.1E1,1E1,6E0,6E0,1.8E1,3E0,2.2E1,7E0,3E0,2E0,6E0,2.2E1,2.2E1,7E0,7E0,3.5679054E-2,-4.067053E-2,1.1784001E-2,-5.056488E-2,6.936482E-2,1.2602015E-2,2.1897763E-2,-2.7726678E-2,1.1370172E-1,-2.4693355E-2,-7.5939566E-2,-1.6276048E-2,7.45803E-2,-1.2055157E-2,-4.0476075E-3,-2.4482397E-2],"split_indices":[1,1,0,0,1,0,1,1,1,0,0,1,1,0,0,0,0,0,0,0,0,0,0,0,0,0,0,0,0,0,0],"split_type":[0,0,0,0,0,0,0,0,0,0,0,0,0,0,0,0,0,0,0,0,0,0,0,0,0,0,0,0,0,0,0],"sum_hessian":[2.968E3,2.319E3,6.49E2,7.32E2,1.587E3,3.76E2,2.73E2,4.15E2,3.17E2,1.126E3,4.61E2,1.17E2,2.59E2,8.6E1,1.87E2,2.48E2,1.67E2,8.9E1,2.28E2,7.1E1,1.055E3,2.31E2,2.3E2,2.5E1,9.2E1,8.9E1,1.7E2,4.1E1,4.5E1,9.4E1,9.3E1],"tree_param":{"num_deleted":"0","num_feature":"2","num_nodes":"31","size_leaf_vector":"1"}},{"base_weights":[-1.6639524E-3,-2.3828974E-1,1.7825512E-2,-4.6284893E-1,1.0618693E-1,6.7205906E-2,-1.3976662E-1,-2.9605952E-1,-5.967807E-1,2.336898E-3,1.8489609E-2,6.053552E-1,2.3183765E-2,-1.2694365E-1,-5.6337956E-2,-3.8124423E-2,-1.6835978E-2,-7.787757E-2,-4.902077E-2,1.2690511E-1,-1.0381879E-1,-1.8699273E-2,1.27603365E-2,2.1652982E-2,-1.3865898E-2],"categories":[],"categories_nodes":[],"categories_segments":[],"categories_sizes":[],"default_left":[0,0,0,0,0,0,0,0,0,0,0,0,0,0,0,0,0,0,0,0,0,0,0,0,0],"id":42,"left_children":[1,3,5,7,9,11,13,15,17,-1,-1,19,21,-1,23,-1,-1,-1,-1,-1,-1,-1,-1,-1,-1],"loss_changes":[1.3696415E1,1.7531471E1,2.1363094E1,2.8836784E0,5.823469E-1,4.9499077E1,6.1660164E1,6.211319E-1,1.0729198E0,0E0,0E0,1.7366592E2,4.2446533E1,0E0,1.3754768E1,0E0,0E0,0E0,0E0,0E0,0E0,0E0,0E0,0E0,0E0],"parents":[2147483647,0,0,1,1,2,2,3,3,4,4,5,5,6,6,7,7,8,8,11,11,12,12,14,14],"right_children":[2,4,6,8,10,12,14,16,18,-1,-1,20,22,-1,24,-1,-1,-1,-1,-1,-1,-1,-1,-1,-1],"split_conditions":[5E0,6E0,7E0,3E0,7E0,7E0,7E0,3E0,4E0,2.336898E-3,1.8489609E-2,6E0,4E0,-1.2694365E-1,1.2E1,-3.8124423E-2,-1.6835978E-2,-7.787757E-2,-4.902077E-2,1.2690511E-1,-1.0381879E-1,-1.8699273E-2,1.27603365E-2,2.1652982E-2,-1.3865898E-2],"split_indices":[1,0,0,0,0,1,1,1,0,0,0,0,0,0,1,0,0,0,0,0,0,0,0,0,0],"split_type":[0,0,0,0,0,0,0,0,0,0,0,0,0,0,0,0,0,0,0,0,0,0,0,0,0],"sum_hessian":[2.968E3,2.25E2,2.743E3,1.36E2,8.9E1,2.089E3,6.54E2,6.2E1,7.4E1,4.4E1,4.5E1,1.57E2,1.932E3,4.4E1,6.1E2,3.6E1,2.6E1,2.5E1,4.9E1,1.12E2,4.5E1,6.41E2,1.291E3,1.41E2,4.69E2],"tree_param":{"num_deleted":"0","num_feature":"2","num_nodes":"25","size_leaf_vector":"1"}},{"base_weights":[-1.585999E-3,3.2549944E-2,-1.23422615E-1,-9.138192E-2,1.05075255E-1,-2.10815E-1,-2.7279097E-3,-3.3954942E-1,2.9634457E-2,2.3284034E-1,3.189514E-2,-1.3104514E-2,-4.0950742E-1,2.685498E-1,-1.282515E-1,2.853871E-3,-1.9235614E-1,1.0326479E-1,-1.0863439E-2,-2.4865083E-2,7.098695E-2,3.7911046E-2,-2.6885713E-2,3.756494E-2,-1.4715971E-2,-7.943064E-2,-1.9482678E-2,6.60542E-2,-9.51942E-3,-4.9097133E-3,-2.0688353E-2],"categories":[],"categories_nodes":[],"categories_segments":[],"categories_sizes":[],"default_left":[0,0,0,0,0,0,0,0,0,0,0,0,0,0,0,0,0,0,0,0,0,0,0,0,0,0,0,0,0,0,0],"id":43,"left_children":[1,3,5,7,9,11,13,15,17,19,21,23,25,27,29,-1,-1,-1,-1,-1,-1,-1,-1,-1,-1,-1,-1,-1,-1,-1,-1],"loss_changes":[1.2352112E1,2.086222E1,6.8554935E0,2.574777E1,1.3680775E1,1.4804543E1,9.364621E0,1.6389362E2,8.013371E1,1.225988E2,9.7426765E1,9.957031E0,1.5375719E1,1.2467758E1,1.1599674E0,0E0,0E0,0E0,0E0,0E0,0E0,0E0,0E0,0E0,0E0,0E0,0E0,0E0,0E0,0E0,0E0],"parents":[2147483647,0,0,1,1,2,2,3,3,4,4,5,5,6,6,7,7,8,8,9,9,10,10,11,11,12,12,13,13,14,14],"right_children":[2,4,6,8,10,12,14,16,18,20,22,24,26,28,30,-1,-1,-1,-1,-1,-1,-1,-1,-1,-1,-1,-1,-1,-1,-1,-1],"split_conditions":[2.1E1,1.1E1,6E0,4E0,1.5E1,4E0,2.2E1,9E0,5E0,6E0,6E0,2.2E1,2.2E1,7E0,7E0,2.853871E-3,-1.9235614E-1,1.0326479E-1,-1.0863439E-2,-2.4865083E-2,7.098695E-2,3.7911046E-2,-2.6885713E-2,3.756494E-2,-1.4715971E-2,-7.943064E-2,-1.9482678E-2,6.60542E-2,-9.51942E-3,-4.9097133E-3,-2.0688353E-2],"split_indices":[1,1,0,0,1,0,1,1,0,0,0,1,1,0,0,0,0,0,0,0,0,0,0,0,0,0,0,0,0,0,0],"split_type":[0,0,0,0,0,0,0,0,0,0,0,0,0,0,0,0,0,0,0,0,0,0,0,0,0,0,0,0,0,0,0],"sum_hessian":[2.968E3,2.319E3,6.49E2,8.56E2,1.463E3,3.76E2,2.73E2,2.8E2,5.76E2,5.32E2,9.31E2,1.89E2,1.87E2,8.6E1,1.87E2,2.28E2,5.2E1,6.9E1,5.07E2,2.65E2,2.67E2,4.32E2,4.99E2,4.8E1,1.41E2,6.6E1,1.21E2,4.1E1,4.5E1,9.4E1,9.3E1],"tree_param":{"num_deleted":"0","num_feature":"2","num_nodes":"31","size_leaf_vector":"1"}},{"base_weights":[-1.456052E-3,-2.2276829E-1,1.677209E-2,-4.3747774E-1,1.0654239E-1,6.136553E-2,-1.2554403E-1,-2.7013454E-1,-5.72213E-1,3.1706027E-3,1.7743576E-2,5.3685504E-1,2.2468109E-2,-1.134692E-1,-5.1015057E-2,-3.4692705E-2,-1.548954E-2,-7.0663765E-2,-4.908679E-2,1.1276022E-1,-9.2599876E-2,-1.6041482E-2,1.1332598E-2,1.7987818E-2,-1.2066576E-2],"categories":[],"categories_nodes":[],"categories_segments":[],"categories_sizes":[],"default_left":[0,0,0,0,0,0,0,0,0,0,0,0,0,0,0,0,0,0,0,0,0,0,0,0,0],"id":44,"left_children":[1,3,5,7,9,11,13,15,17,-1,-1,19,21,-1,23,-1,-1,-1,-1,-1,-1,-1,-1,-1,-1],"loss_changes":[1.1981012E1,1.6026192E1,1.742213E1,2.9343681E0,4.718603E-1,3.8643147E1,4.9205154E1,5.037813E-1,4.732437E-1,0E0,0E0,1.3758408E2,3.213759E1,0E0,9.84773E0,0E0,0E0,0E0,0E0,0E0,0E0,0E0,0E0,0E0,0E0],"parents":[2147483647,0,0,1,1,2,2,3,3,4,4,5,5,6,6,7,7,8,8,11,11,12,12,14,14],"right_children":[2,4,6,8,10,12,14,16,18,-1,-1,20,22,-1,24,-1,-1,-1,-1,-1,-1,-1,-1,-1,-1],"split_conditions":[5E0,6E0,7E0,3E0,7E0,7E0,7E0,3E0,4E0,3.1706027E-3,1.7743576E-2,6E0,4E0,-1.134692E-1,1.2E1,-3.4692705E-2,-1.548954E-2,-7.0663765E-2,-4.908679E-2,1.1276022E-1,-9.2599876E-2,-1.6041482E-2,1.1332598E-2,1.7987818E-2,-1.2066576E-2],"split_indices":[1,0,0,0,0,1,1,1,0,0,0,0,0,0,1,0,0,0,0,0,0,0,0,0,0],"split_type":[0,0,0,0,0,0,0,0,0,0,0,0,0,0,0,0,0,0,0,0,0,0,0,0,0],"sum_hessian":[2.968E3,2.25E2,2.743E3,1.36E2,8.9E1,2.089E3,6.54E2,6.2E1,7.4E1,4.4E1,4.5E1,1.57E2,1.932E3,4.4E1,6.1E2,3.6E1,2.6E1,2.5E1,4.9E1,1.12E2,4.5E1,6.41E2,1.291E3,1.41E2,4.69E2],"tree_param":{"num_deleted":"0","num_feature":"2","num_nodes":"25","size_leaf_vector":"1"}},{"base_weights":[-1.3919858E-3,4.3156955E-2,-7.593302E-2,-1.9112345E-2,3.4044585E-1,-1.7019832E-1,-2.2244936E-2,-2.2091013E-1,1.8349859E-1,1.3862599E0,-4.3168843E-1,-7.693065E-2,-4.676592E-1,-7.2986394E-2,1.4777437E-3,2.4369048E-2,-4.4168383E-2,5.365352E-2,-2.0169482E-2,7.051613E-2,2.0670047E-1,-1.1257739E-1,4.062929E-2,8.675705E-2,-2.5033725E-2,-1.4367177E-1,-1.4265837E-2,1.42116835E-2,-9.331181E-3],"categories":[],"categories_nodes":[],"categories_segments":[],"categories_sizes":[],"default_left":[0,0,0,0,0,0,0,0,0,0,0,0,0,0,0,0,0,0,0,0,0,0,0,0,0,0,0,0,0],"id":45,"left_children":[1,3,5,7,9,11,13,15,17,19,21,23,25,-1,27,-1,-1,-1,-1,-1,-1,-1,-1,-1,-1,-1,-1,-1,-1],"loss_changes":[9.862507E0,3.442026E1,5.6189E0,6.2923878E1,2.606163E2,1.1144647E1,1.1902791E1,7.919032E1,1.0454651E2,6.206308E1,1.0864069E2,5.0662262E1,3.002974E1,0E0,9.171739E0,0E0,0E0,0E0,0E0,0E0,0E0,0E0,0E0,0E0,0E0,0E0,0E0,0E0,0E0],"parents":[2147483647,0,0,1,1,2,2,3,3,4,4,5,5,6,6,7,7,8,8,9,9,10,10,11,11,12,12,14,14],"right_children":[2,4,6,8,10,12,14,16,18,20,22,24,26,-1,28,-1,-1,-1,-1,-1,-1,-1,-1,-1,-1,-1,-1,-1,-1],"split_conditions":[1.8E1,1.6E1,5E0,6E0,6E0,4E0,1.9E1,7E0,7E0,4E0,7E0,1.9E1,1.9E1,-7.2986394E-2,2.1E1,2.4369048E-2,-4.4168383E-2,5.365352E-2,-2.0169482E-2,7.051613E-2,2.0670047E-1,-1.1257739E-1,4.062929E-2,8.675705E-2,-2.5033725E-2,-1.4367177E-1,-1.4265837E-2,1.42116835E-2,-9.331181E-3],"split_indices":[1,1,0,0,0,0,1,1,0,0,0,1,1,0,1,0,0,0,0,0,0,0,0,0,0,0,0,0,0],"split_type":[0,0,0,0,0,0,0,0,0,0,0,0,0,0,0,0,0,0,0,0,0,0,0,0,0,0,0,0,0],"sum_hessian":[2.968E3,1.858E3,1.11E3,1.537E3,3.21E2,4.02E2,7.08E2,7.7E2,7.67E2,1.36E2,1.85E2,3.07E2,9.5E1,2.2E1,6.86E2,2.48E2,5.22E2,4E2,3.67E2,6.9E1,6.7E1,1.01E2,8.4E1,4.7E1,2.6E2,2.3E1,7.2E1,2.76E2,4.1E2],"tree_param":{"num_deleted":"0","num_feature":"2","num_nodes":"29","size_leaf_vector":"1"}},{"base_weights":[-1.2343345E-3,-2.222451E-1,1.6968897E-2,-4.1916147E-1,7.997475E-2,7.50627E-2,-6.848767E-2,-2.678998E-1,-5.406324E-1,-2.3855227E-3,1.7980896E-2,2.7774388E-1,-1.979543E-2,-1.5341716E-1,-2.011661E-2,-3.368823E-2,-1.6344605E-2,-4.6403553E-2,-6.8406604E-2,-9.523003E-4,1.2482549E-1,-2.7597234E-2,7.324165E-3,-6.9037126E-3,-4.2253837E-2,1.7753856E-2,-1.0086433E-2],"categories":[],"categories_nodes":[],"categories_segments":[],"categories_sizes":[],"default_left":[0,0,0,0,0,0,0,0,0,0,0,0,0,0,0,0,0,0,0,0,0,0,0,0,0,0,0],"id":46,"left_children":[1,3,5,7,9,11,13,15,17,-1,-1,19,21,23,25,-1,-1,-1,-1,-1,-1,-1,-1,-1,-1,-1,-1],"loss_changes":[1.1948386E1,1.3483242E1,1.3627719E1,2.3723888E0,9.372099E-1,3.1420712E1,4.5610456E0,3.9888382E-1,5.065613E-1,0E0,0E0,1.452644E2,2.6571236E1,9.122336E0,1.1333692E1,0E0,0E0,0E0,0E0,0E0,0E0,0E0,0E0,0E0,0E0,0E0,0E0],"parents":[2147483647,0,0,1,1,2,2,3,3,4,4,5,5,6,6,7,7,8,8,11,11,12,12,13,13,14,14],"right_children":[2,4,6,8,10,12,14,16,18,-1,-1,20,22,24,26,-1,-1,-1,-1,-1,-1,-1,-1,-1,-1,-1,-1],"split_conditions":[5E0,6E0,1.8E1,3E0,7E0,5E0,5E0,3E0,5E0,-2.3855227E-3,1.7980896E-2,4E0,1E1,4E0,6E0,-3.368823E-2,-1.6344605E-2,-4.6403553E-2,-6.8406604E-2,-9.523003E-4,1.2482549E-1,-2.7597234E-2,7.324165E-3,-6.9037126E-3,-4.2253837E-2,1.7753856E-2,-1.0086433E-2],"split_indices":[1,0,1,0,0,0,0,1,0,0,0,0,1,0,0,0,0,0,0,0,0,0,0,0,0,0,0],"split_type":[0,0,0,0,0,0,0,0,0,0,0,0,0,0,0,0,0,0,0,0,0,0,0,0,0,0,0],"sum_hessian":[2.968E3,2.25E2,2.743E3,1.36E2,8.9E1,1.633E3,1.11E3,6.2E1,7.4E1,4.4E1,4.5E1,5.2E2,1.113E3,4.02E2,7.08E2,3.6E1,2.6E1,5.1E1,2.3E1,4.02E2,1.18E2,2.96E2,8.17E2,3.07E2,9.5E1,2.05E2,5.03E2],"tree_param":{"num_deleted":"0","num_feature":"2","num_nodes":"27","size_leaf_vector":"1"}},{"base_weights":[-1.1403958E-3,-2.0068093E-1,1.5294481E-2,-3.7844855E-1,7.2150655E-2,5.2888557E-2,-1.04685545E-1,-2.4190402E-1,-4.8809993E-1,-2.1522548E-3,1.62219E-2,4.4933236E-1,2.0456584E-2,-9.770392E-2,-4.026558E-2,-3.0410452E-2,-1.4770691E-2,-6.1750468E-2,-4.1104753E-2,9.787256E-2,-8.609018E-2,-5.674607E-3,1.6674116E-2,1.8657632E-2,-1.0871513E-2],"categories":[],"categories_nodes":[],"categories_segments":[],"categories_sizes":[],"default_left":[0,0,0,0,0,0,0,0,0,0,0,0,0,0,0,0,0,0,0,0,0,0,0,0,0],"id":47,"left_children":[1,3,5,7,9,11,13,15,17,-1,-1,19,21,-1,23,-1,-1,-1,-1,-1,-1,-1,-1,-1,-1],"loss_changes":[9.739679E0,1.0988446E1,1.2382453E1,1.9331303E0,7.628204E-1,2.686289E1,3.6769688E1,3.242054E-1,4.9399757E-1,0E0,0E0,1.1043599E2,2.1839909E1,0E0,9.507418E0,0E0,0E0,0E0,0E0,0E0,0E0,0E0,0E0,0E0,0E0],"parents":[2147483647,0,0,1,1,2,2,3,3,4,4,5,5,6,6,7,7,8,8,11,11,12,12,14,14],"right_children":[2,4,6,8,10,12,14,16,18,-1,-1,20,22,-1,24,-1,-1,-1,-1,-1,-1,-1,-1,-1,-1],"split_conditions":[5E0,6E0,7E0,3E0,7E0,7E0,7E0,3E0,4E0,-2.1522548E-3,1.62219E-2,6E0,6E0,-9.770392E-2,1.2E1,-3.0410452E-2,-1.4770691E-2,-6.1750468E-2,-4.1104753E-2,9.787256E-2,-8.609018E-2,-5.674607E-3,1.6674116E-2,1.8657632E-2,-1.0871513E-2],"split_indices":[1,0,0,0,0,1,1,1,0,0,0,0,0,0,1,0,0,0,0,0,0,0,0,0,0],"split_type":[0,0,0,0,0,0,0,0,0,0,0,0,0,0,0,0,0,0,0,0,0,0,0,0,0],"sum_hessian":[2.968E3,2.25E2,2.743E3,1.36E2,8.9E1,2.089E3,6.54E2,6.2E1,7.4E1,4.4E1,4.5E1,1.57E2,1.932E3,4.4E1,6.1E2,3.6E1,2.6E1,2.5E1,4.9E1,1.12E2,4.5E1,1.265E3,6.67E2,1.41E2,4.69E2],"tree_param":{"num_deleted":"0","num_feature":"2","num_nodes":"25","size_leaf_vector":"1"}},{"base_weights":[-1.09409E-3,-9.758609E-2,3.0524028E-2,-3.7385714E-1,-4.1810434E-2,1.3769364E-1,-5.088821E-2,8.93187E-2,-1.9485366E-1,2.602737E-1,-1.9164237E-1,-1.3093574E-1,3.4457144E-1,6.011624E-2,-1.7769146E-1,3.4024835E-2,-5.9934765E-2,-1.0752197E-3,2.1057479E-1,-2.830829E-3,-3.2377437E-2,-4.6120472E-2,1.6524988E-1,7.468171E-2,-5.163559E-3,5.560679E-2,-1.6160708E-2,-5.6199748E-2,6.3247792E-3],"categories":[],"categories_nodes":[],"categories_segments":[],"categories_sizes":[],"default_left":[0,0,0,0,0,0,0,0,0,0,0,0,0,0,0,0,0,0,0,0,0,0,0,0,0,0,0,0,0],"id":48,"left_children":[1,3,5,7,9,11,13,15,-1,17,19,21,23,25,27,-1,-1,-1,-1,-1,-1,-1,-1,-1,-1,-1,-1,-1,-1],"loss_changes":[9.061087E0,1.1279312E1,1.9524649E1,8.988452E1,2.770487E1,5.3729076E1,1.7915005E1,1.679338E1,0E0,1.0155742E2,8.817732E0,2.4873665E2,8.7055984E1,7.475545E1,5.5036625E1,0E0,0E0,0E0,0E0,0E0,0E0,0E0,0E0,0E0,0E0,0E0,0E0,0E0,0E0],"parents":[2147483647,0,0,1,1,2,2,3,3,4,4,5,5,6,6,7,7,9,9,10,10,11,11,12,12,13,13,14,14],"right_children":[2,4,6,8,10,12,14,16,-1,18,20,22,24,26,28,-1,-1,-1,-1,-1,-1,-1,-1,-1,-1,-1,-1,-1,-1],"split_conditions":[1E1,2E0,1.7E1,8E0,5E0,6E0,6E0,7E0,-1.9485366E-1,9E0,6E0,1.6E1,7E0,2E1,2E1,3.4024835E-2,-5.9934765E-2,-1.0752197E-3,2.1057479E-1,-2.830829E-3,-3.2377437E-2,-4.6120472E-2,1.6524988E-1,7.468171E-2,-5.163559E-3,5.560679E-2,-1.6160708E-2,-5.6199748E-2,6.3247792E-3],"split_indices":[1,0,1,1,0,0,0,1,0,1,1,1,0,1,1,0,0,0,0,0,0,0,0,0,0,0,0,0,0],"split_type":[0,0,0,0,0,0,0,0,0,0,0,0,0,0,0,0,0,0,0,0,0,0,0,0,0,0,0,0,0],"sum_hessian":[2.968E3,7.32E2,2.236E3,1.22E2,6.1E2,9.65E2,1.271E3,9.5E1,2.7E1,2.02E2,4.08E2,4.2E2,5.45E2,6.78E2,5.93E2,7E1,2.5E1,1.77E2,2.5E1,1.83E2,2.25E2,3.55E2,6.5E1,2.7E2,2.75E2,2.09E2,4.69E2,2.28E2,3.65E2],"tree_param":{"num_deleted":"0","num_feature":"2","num_nodes":"29","size_leaf_vector":"1"}},{"base_weights":[-9.404803E-4,-1.8672001E-1,1.4360947E-2,-3.5261992E-1,6.789116E-2,6.1620217E-2,-5.5158414E-2,-3.0241415E-1,-5.764048E-2,-1.6650333E-3,1.491189E-2,2.3673852E-1,-2.0335125E-2,-1.3315621E-1,-1.0746187E-2,-3.4075584E-2,-1.6624806E-2,-8.1000937E-4,1.0639085E-1,8.408151E-3,-2.3926351E-2,-5.693525E-3,-3.7631143E-2,1.6627133E-2,-8.307727E-3],"categories":[],"categories_nodes":[],"categories_segments":[],"categories_sizes":[],"default_left":[0,0,0,0,0,0,0,0,0,0,0,0,0,0,0,0,0,0,0,0,0,0,0,0,0],"id":49,"left_children":[1,3,5,7,9,11,13,15,-1,-1,-1,17,19,21,23,-1,-1,-1,-1,-1,-1,-1,-1,-1,-1],"loss_changes":[8.442634E0,9.570171E0,9.018631E0,1.3649235E0,6.2052315E-1,2.3455786E1,3.8471355E0,5.385256E-1,0E0,0E0,0E0,1.0552316E2,2.5485893E1,7.4475837E0,9.091755E0,0E0,0E0,0E0,0E0,0E0,0E0,0E0,0E0,0E0,0E0],"parents":[2147483647,0,0,1,1,2,2,3,3,4,4,5,5,6,6,7,7,11,11,12,12,13,13,14,14],"right_children":[2,4,6,8,10,12,14,16,-1,-1,-1,18,20,22,24,-1,-1,-1,-1,-1,-1,-1,-1,-1,-1],"split_conditions":[5E0,6E0,1.8E1,5E0,7E0,5E0,5E0,3E0,-5.764048E-2,-1.6650333E-3,1.491189E-2,4E0,1.5E1,4E0,6E0,-3.4075584E-2,-1.6624806E-2,-8.1000937E-4,1.0639085E-1,8.408151E-3,-2.3926351E-2,-5.693525E-3,-3.7631143E-2,1.6627133E-2,-8.307727E-3],"split_indices":[1,0,1,0,0,0,0,1,0,0,0,0,1,0,0,0,0,0,0,0,0,0,0,0,0],"split_type":[0,0,0,0,0,0,0,0,0,0,0,0,0,0,0,0,0,0,0,0,0,0,0,0,0],"sum_hessian":[2.968E3,2.25E2,2.743E3,1.36E2,8.9E1,1.633E3,1.11E3,1.13E2,2.3E1,4.4E1,4.5E1,5.2E2,1.113E3,4.02E2,7.08E2,8.7E1,2.6E1,4.02E2,1.18E2,7.54E2,3.59E2,3.07E2,9.5E1,2.05E2,5.03E2],"tree_param":{"num_deleted":"0","num_feature":"2","num_nodes":"25","size_leaf_vector":"1"}}]},"name":"gbtree"},"learner_model_param":{"base_score":"[1.3624326E1]","boost_from_average":"1","num_class":"0","num_feature":"2","num_target":"1"},"objective":{"name":"reg:squarederror","reg_loss_param":{"scale_pos_weight":"1"}}},"version":[3,2,0]}