{"learner":{"attributes":{},"feature_names":["day_of_week","hour_of_day"],"feature_types":[],"gradient_booster":{"model":{"cats":{"enc":[],"feature_segments":[],"sorted_idx":[]},"gbtree_model_param":{"num_parallel_tree":"1","num_trees":"50"},"iteration_indptr":[0,1,2,3,4,5,6,7,8,9,10,11,12,13,14,15,16,17,18,19,20,21,22,23,24,25,26,27,28,29,30,31,32,33,34,35,36,37,38,39,40,41,42,43,44,45,46,47,48,49,50],"tree_info":[0,0,0,0,0,0,0,0,0,0,0,0,0,0,0,0,0,0,0,0,0,0,0,0,0,0,0,0,0,0,0,0,0,0,0,0,0,0,0,0,0,0,0,0,0,0,0,0,0,0],"trees":[{"base_weights":[3.2373276E-7,1.8283839E0,-6.2372274E0,-8.398852E0,3.3060672E0,-2.9515598E0,-8.035361E0,-1.0487498E1,-6.7225356E0,4.095273E0,-6.295318E-1,-4.3998914E0,-1.8705517E0,-9.886819E0,-6.426411E0,-1.1003624E0,-8.3489925E-1,-7.6448953E-1,-4.968802E-1,4.708874E-1,1.6575573E-1,-3.113788E-1,-1.3394124E-2,-3.607946E-1,-5.0255525E-1,-2.6429107E-2,-5.023875E-1,-9.067418E-1,-1.0423483E0,-4.6816665E-1,-1.0211405E0],"categories":[],"categories_nodes":[],"categories_segments":[],"categories_sizes":[],"default_left":[0,0,0,0,0,0,0,0,0,0,0,0,0,0,0,0,0,0,0,0,0,0,0,0,0,0,0,0,0,0,0],"id":0,"left_children":[1,3,5,7,9,11,13,15,17,19,21,23,25,27,29,-1,-1,-1,-1,-1,-1,-1,-1,-1,-1,-1,-1,-1,-1,-1,-1],"loss_changes":[8.255388E4,8.46282E4,9.671418E3,2.4048672E3,1.5197117E4,9.029834E2,3.0941016E3,2.5360156E2,6.009551E2,6.087508E3,1.0066831E3,1.0474902E2,1.695467E3,1.2140234E2,3.7163867E3,0E0,0E0,0E0,0E0,0E0,0E0,0E0,0E0,0E0,0E0,0E0,0E0,0E0,0E0,0E0,0E0],"parents":[2147483647,0,0,1,1,2,2,3,3,4,4,5,5,6,6,7,7,8,8,9,9,10,10,11,11,12,12,13,13,14,14],"right_children":[2,4,6,8,10,12,14,16,18,20,22,24,26,28,30,-1,-1,-1,-1,-1,-1,-1,-1,-1,-1,-1,-1,-1,-1,-1,-1],"split_conditions":[2.1E1,5E0,2.2E1,3E0,1.9E1,5E0,5E0,7E0,4E0,7E0,3E0,3E0,7E0,2.3E1,7E0,-1.1003624E0,-8.3489925E-1,-7.6448953E-1,-4.968802E-1,4.708874E-1,1.6575573E-1,-3.113788E-1,-1.3394124E-2,-3.607946E-1,-5.0255525E-1,-2.6429107E-2,-5.023875E-1,-9.067418E-1,-1.0423483E0,-4.6816665E-1,-1.0211405E0],"split_indices":[1,1,1,1,1,0,0,0,1,0,0,0,0,1,0,0,0,0,0,0,0,0,0,0,0,0,0,0,0,0,0],"split_type":[0,0,0,0,0,0,0,0,0,0,0,0,0,0,0,0,0,0,0,0,0,0,0,0,0,0,0,0,0,0,0],"sum_hessian":[7.237E3,5.597E3,1.64E3,7.06E2,4.891E3,5.81E2,1.059E3,3.12E2,3.94E2,4.074E3,8.17E2,2.47E2,3.34E2,4.9E2,5.69E2,2.48E2,6.4E1,2.56E2,1.38E2,3.254E3,8.2E2,1.35E2,6.82E2,1.12E2,1.35E2,2.22E2,1.12E2,2.01E2,2.89E2,3.91E2,1.78E2],"tree_param":{"num_deleted":"0","num_feature":"2","num_nodes":"31","size_leaf_vector":"1"}},{"base_weights":[-1.0654138E-3,1.6450305E0,-5.616449E0,-7.5634885E0,2.9755247E0,-2.6587958E0,-7.235069E0,-9.444931E0,-6.0534754E0,3.8265495E0,-2.8251573E-2,-3.9633834E0,-1.685075E0,-8.902107E0,-5.786383E0,-9.907681E-1,-7.5269383E-1,-5.2903515E-1,-8.2517874E-1,1.9561535E-1,4.7168016E-1,7.405677E-2,-1.4484696E-1,-3.2503438E-1,-4.526693E-1,-2.3798034E-2,-4.5259342E-1,-8.165165E-1,-9.3847287E-1,-4.2146942E-1,-9.1959685E-1],"categories":[],"categories_nodes":[],"categories_segments":[],"categories_sizes":[],"default_left":[0,0,0,0,0,0,0,0,0,0,0,0,0,0,0,0,0,0,0,0,0,0,0,0,0,0,0,0,0,0,0],"id":1,"left_children":[1,3,5,7,9,11,13,15,17,19,21,23,25,27,29,-1,-1,-1,-1,-1,-1,-1,-1,-1,-1,-1,-1,-1,-1,-1,-1],"loss_changes":[6.69134E4,6.860853E4,7.83675E3,1.9514141E3,1.2505473E4,7.326387E2,2.5084062E3,2.0322656E2,6.189912E2,6.3382266E3,1.1814066E3,8.489844E1,1.3761055E3,9.8E1,3.0157637E3,0E0,0E0,0E0,0E0,0E0,0E0,0E0,0E0,0E0,0E0,0E0,0E0,0E0,0E0,0E0,0E0],"parents":[2147483647,0,0,1,1,2,2,3,3,4,4,5,5,6,6,7,7,8,8,9,9,10,10,11,11,12,12,13,13,14,14],"right_children":[2,4,6,8,10,12,14,16,18,20,22,24,26,28,30,-1,-1,-1,-1,-1,-1,-1,-1,-1,-1,-1,-1,-1,-1,-1,-1],"split_conditions":[2.1E1,5E0,2.2E1,3E0,1.8E1,5E0,5E0,7E0,6E0,1E1,2E1,3E0,7E0,2.3E1,7E0,-9.907681E-1,-7.5269383E-1,-5.2903515E-1,-8.2517874E-1,1.9561535E-1,4.7168016E-1,7.405677E-2,-1.4484696E-1,-3.2503438E-1,-4.526693E-1,-2.3798034E-2,-4.5259342E-1,-8.165165E-1,-9.3847287E-1,-4.2146942E-1,-9.1959685E-1],"split_indices":[1,1,1,1,1,0,0,0,0,1,1,0,0,1,0,0,0,0,0,0,0,0,0,0,0,0,0,0,0,0,0],"split_type":[0,0,0,0,0,0,0,0,0,0,0,0,0,0,0,0,0,0,0,0,0,0,0,0,0,0,0,0,0,0,0],"sum_hessian":[7.237E3,5.597E3,1.64E3,7.06E2,4.891E3,5.81E2,1.059E3,3.12E2,3.94E2,3.811E3,1.08E3,2.47E2,3.34E2,4.9E2,5.69E2,2.48E2,6.4E1,2.95E2,9.9E1,1.23E3,2.581E3,7.01E2,3.79E2,1.12E2,1.35E2,2.22E2,1.12E2,2.01E2,2.89E2,3.91E2,1.78E2],"tree_param":{"num_deleted":"0","num_feature":"2","num_nodes":"31","size_leaf_vector":"1"}},{"base_weights":[-1.9052889E-3,1.4800808E0,-5.0574546E0,-6.8115206E0,2.6780944E0,-2.3950713E0,-6.5144825E0,-8.506008E0,-5.4515557E0,3.3233285E0,-5.39518E-1,-3.5701811E0,-1.5179895E0,-8.0154705E0,-5.210098E0,-9.3362135E-1,-7.576799E-1,-6.3010925E-1,-3.8416097E-1,3.8811237E-1,1.1078031E-1,-2.7703688E-1,-9.45177E-3,-2.9281864E-1,-4.077352E-1,-2.1428907E-2,-4.0773454E-1,-7.3526907E-1,-8.449492E-1,-3.7942997E-1,-8.281509E-1],"categories":[],"categories_nodes":[],"categories_segments":[],"categories_sizes":[],"default_left":[0,0,0,0,0,0,0,0,0,0,0,0,0,0,0,0,0,0,0,0,0,0,0,0,0,0,0,0,0,0,0],"id":2,"left_children":[1,3,5,7,9,11,13,15,17,19,21,23,25,27,29,-1,-1,-1,-1,-1,-1,-1,-1,-1,-1,-1,-1,-1,-1,-1,-1],"loss_changes":[5.4236418E4,5.56257E4,6.3501133E3,1.5828711E3,1.0158137E4,5.9442896E2,2.0335781E3,1.7071875E2,5.1603906E2,5.031621E3,8.117908E2,6.8809814E1,1.1168984E3,7.9115234E1,2.4472217E3,0E0,0E0,0E0,0E0,0E0,0E0,0E0,0E0,0E0,0E0,0E0,0E0,0E0,0E0,0E0,0E0],"parents":[2147483647,0,0,1,1,2,2,3,3,4,4,5,5,6,6,7,7,8,8,9,9,10,10,11,11,12,12,13,13,14,14],"right_children":[2,4,6,8,10,12,14,16,18,20,22,24,26,28,30,-1,-1,-1,-1,-1,-1,-1,-1,-1,-1,-1,-1,-1,-1,-1,-1],"split_conditions":[2.1E1,5E0,2.2E1,3E0,1.9E1,5E0,5E0,6E0,4E0,7E0,3E0,3E0,7E0,2.3E1,7E0,-9.3362135E-1,-7.576799E-1,-6.3010925E-1,-3.8416097E-1,3.8811237E-1,1.1078031E-1,-2.7703688E-1,-9.45177E-3,-2.9281864E-1,-4.077352E-1,-2.1428907E-2,-4.0773454E-1,-7.3526907E-1,-8.449492E-1,-3.7942997E-1,-8.281509E-1],"split_indices":[1,1,1,1,1,0,0,0,1,0,0,0,0,1,0,0,0,0,0,0,0,0,0,0,0,0,0,0,0,0,0],"split_type":[0,0,0,0,0,0,0,0,0,0,0,0,0,0,0,0,0,0,0,0,0,0,0,0,0,0,0,0,0,0,0],"sum_hessian":[7.237E3,5.597E3,1.64E3,7.06E2,4.891E3,5.81E2,1.059E3,3.12E2,3.94E2,4.074E3,8.17E2,2.47E2,3.34E2,4.9E2,5.69E2,1.6E2,1.52E2,2.56E2,1.38E2,3.254E3,8.2E2,1.35E2,6.82E2,1.12E2,1.35E2,2.22E2,1.12E2,2.01E2,2.89E2,3.91E2,1.78E2],"tree_param":{"num_deleted":"0","num_feature":"2","num_nodes":"31","size_leaf_vector":"1"}},{"base_weights":[-2.6003737E-3,1.3316276E0,-4.5540967E0,-6.1341953E0,2.4103286E0,-2.157505E0,-5.865665E0,-7.6608105E0,-4.9089684E0,3.1138248E0,-7.268584E-2,-3.215988E0,-1.3674715E0,-7.217142E0,-4.6912065E0,-8.0531996E-1,-6.0398006E-1,-4.2074117E-1,-6.936485E-1,1.0106504E-1,3.7691814E-1,5.6330144E-2,-1.24739744E-1,-2.6379582E-1,-3.6726153E-1,-1.9295609E-2,-3.673219E-1,-7.701482E-1,-6.638658E-1,-3.415838E-1,-7.457985E-1],"categories":[],"categories_nodes":[],"categories_segments":[],"categories_sizes":[],"default_left":[0,0,0,0,0,0,0,0,0,0,0,0,0,0,0,0,0,0,0,0,0,0,0,0,0,0,0,0,0,0,0],"id":3,"left_children":[1,3,5,7,9,11,13,15,17,19,21,23,25,27,29,-1,-1,-1,-1,-1,-1,-1,-1,-1,-1,-1,-1,-1,-1,-1,-1],"loss_changes":[4.396051E4,4.5097664E4,5.1454883E3,1.2848027E3,8.545533E3,4.82292E2,1.6486289E3,1.5044922E2,5.326699E2,5.250379E3,8.0831946E2,5.5769775E1,9.0651666E2,8.644336E1,1.9858633E3,0E0,0E0,0E0,0E0,0E0,0E0,0E0,0E0,0E0,0E0,0E0,0E0,0E0,0E0,0E0,0E0],"parents":[2147483647,0,0,1,1,2,2,3,3,4,4,5,5,6,6,7,7,8,8,9,9,10,10,11,11,12,12,13,13,14,14],"right_children":[2,4,6,8,10,12,14,16,18,20,22,24,26,28,30,-1,-1,-1,-1,-1,-1,-1,-1,-1,-1,-1,-1,-1,-1,-1,-1],"split_conditions":[2.1E1,5E0,2.2E1,3E0,1.8E1,5E0,5E0,7E0,6E0,9E0,2E1,3E0,7E0,3E0,7E0,-8.0531996E-1,-6.0398006E-1,-4.2074117E-1,-6.936485E-1,1.0106504E-1,3.7691814E-1,5.6330144E-2,-1.24739744E-1,-2.6379582E-1,-3.6726153E-1,-1.9295609E-2,-3.673219E-1,-7.701482E-1,-6.638658E-1,-3.415838E-1,-7.457985E-1],"split_indices":[1,1,1,1,1,0,0,0,0,1,1,0,0,0,0,0,0,0,0,0,0,0,0,0,0,0,0,0,0,0,0],"split_type":[0,0,0,0,0,0,0,0,0,0,0,0,0,0,0,0,0,0,0,0,0,0,0,0,0,0,0,0,0,0,0],"sum_hessian":[7.237E3,5.597E3,1.64E3,7.06E2,4.891E3,5.81E2,1.059E3,3.12E2,3.94E2,3.811E3,1.08E3,2.47E2,3.34E2,4.9E2,5.69E2,2.48E2,6.4E1,2.95E2,9.9E1,9.06E2,2.905E3,7.01E2,3.79E2,1.12E2,1.35E2,2.22E2,1.12E2,2.6E2,2.3E2,3.91E2,1.78E2],"tree_param":{"num_deleted":"0","num_feature":"2","num_nodes":"31","size_leaf_vector":"1"}},{"base_weights":[-3.1211898E-3,1.1980873E0,-4.1008434E0,-5.5243454E0,2.1693797E0,-1.9435029E0,-5.281477E0,-6.145384E0,-2.9423668E0,2.802568E0,-6.548029E-2,-3.2244053E0,-1.384824E0,-6.4983487E0,-4.2239933E0,-6.899232E-1,-5.203361E-1,-1.8532743E-1,-7.3914444E-1,3.7928167E-1,1.5959442E-1,5.0705194E-2,-1.122986E-1,-2.3764971E-1,-4.6711117E-1,-6.43016E-2,-3.3091477E-1,-5.9015536E-1,-6.891639E-1,-3.075125E-1,-6.716353E-1],"categories":[],"categories_nodes":[],"categories_segments":[],"categories_sizes":[],"default_left":[0,0,0,0,0,0,0,0,0,0,0,0,0,0,0,0,0,0,0,0,0,0,0,0,0,0,0,0,0,0,0],"id":4,"left_children":[1,3,5,7,9,11,13,15,17,19,21,23,25,27,29,-1,-1,-1,-1,-1,-1,-1,-1,-1,-1,-1,-1,-1,-1,-1,-1],"loss_changes":[3.5631934E4,3.656383E4,4.169408E3,1.1155977E3,6.922791E3,4.1202148E2,1.336582E3,3.6817188E2,6.5982007E2,4.548742E3,6.5506744E2,2.0479382E2,5.7885596E2,7.457422E1,1.6114805E3,0E0,0E0,0E0,0E0,0E0,0E0,0E0,0E0,0E0,0E0,0E0,0E0,0E0,0E0,0E0,0E0],"parents":[2147483647,0,0,1,1,2,2,3,3,4,4,5,5,6,6,7,7,8,8,9,9,10,10,11,11,12,12,13,13,14,14],"right_children":[2,4,6,8,10,12,14,16,18,20,22,24,26,28,30,-1,-1,-1,-1,-1,-1,-1,-1,-1,-1,-1,-1,-1,-1,-1,-1],"split_conditions":[2.1E1,5E0,2.2E1,4E0,1.8E1,4E0,5E0,3E0,7E0,6E0,2E1,3E0,7E0,2.3E1,7E0,-6.899232E-1,-5.203361E-1,-1.8532743E-1,-7.3914444E-1,3.7928167E-1,1.5959442E-1,5.0705194E-2,-1.122986E-1,-2.3764971E-1,-4.6711117E-1,-6.43016E-2,-3.3091477E-1,-5.9015536E-1,-6.891639E-1,-3.075125E-1,-6.716353E-1],"split_indices":[1,1,1,1,1,0,0,1,0,0,1,0,0,1,0,0,0,0,0,0,0,0,0,0,0,0,0,0,0,0,0],"split_type":[0,0,0,0,0,0,0,0,0,0,0,0,0,0,0,0,0,0,0,0,0,0,0,0,0,0,0,0,0,0,0],"sum_hessian":[7.237E3,5.597E3,1.64E3,7.06E2,4.891E3,5.81E2,1.059E3,5.68E2,1.38E2,3.811E3,1.08E3,1.75E2,4.06E2,4.9E2,5.69E2,3.12E2,2.56E2,1.12E2,2.6E1,2.092E3,1.719E3,7.01E2,3.79E2,1.12E2,6.3E1,2.94E2,1.12E2,2.01E2,2.89E2,3.91E2,1.78E2],"tree_param":{"num_deleted":"0","num_feature":"2","num_nodes":"31","size_leaf_vector":"1"}},{"base_weights":[-3.5021529E-3,1.0779824E0,-3.6928055E0,-4.9749303E0,1.9525391E0,-1.7510427E0,-4.75546E0,-5.5329723E0,-2.6547809E0,2.5224524E0,-5.8989E-2,-2.652278E0,-1.0786325E0,-5.851119E0,-3.8033118E0,-6.211513E-1,-4.685049E-1,-1.6695867E-1,-6.6796756E-1,9.611436E-2,3.2658485E-1,-1.5263025E-1,2.7584529E-2,-2.1409503E-1,-3.0576295E-1,-1.0973379E-2,-2.9811615E-1,-6.2902474E-1,-5.3296316E-1,-2.768397E-1,-6.04847E-1],"categories":[],"categories_nodes":[],"categories_segments":[],"categories_sizes":[],"default_left":[0,0,0,0,0,0,0,0,0,0,0,0,0,0,0,0,0,0,0,0,0,0,0,0,0,0,0,0,0,0,0],"id":5,"left_children":[1,3,5,7,9,11,13,15,17,19,21,23,25,27,29,-1,-1,-1,-1,-1,-1,-1,-1,-1,-1,-1,-1,-1,-1,-1,-1],"loss_changes":[2.8883057E4,2.9643375E4,3.377748E3,9.006914E2,5.6083203E3,3.4983105E2,1.0835684E3,2.9827344E2,5.4002484E2,4.421338E3,5.3152374E2,4.48562E1,6.1719775E2,7.891406E1,1.3076768E3,0E0,0E0,0E0,0E0,0E0,0E0,0E0,0E0,0E0,0E0,0E0,0E0,0E0,0E0,0E0,0E0],"parents":[2147483647,0,0,1,1,2,2,3,3,4,4,5,5,6,6,7,7,8,8,9,9,10,10,11,11,12,12,13,13,14,14],"right_children":[2,4,6,8,10,12,14,16,18,20,22,24,26,28,30,-1,-1,-1,-1,-1,-1,-1,-1,-1,-1,-1,-1,-1,-1,-1,-1],"split_conditions":[2.1E1,5E0,2.2E1,4E0,1.8E1,5E0,5E0,3E0,7E0,1E1,3E0,3E0,7E0,3E0,7E0,-6.211513E-1,-4.685049E-1,-1.6695867E-1,-6.6796756E-1,9.611436E-2,3.2658485E-1,-1.5263025E-1,2.7584529E-2,-2.1409503E-1,-3.0576295E-1,-1.0973379E-2,-2.9811615E-1,-6.2902474E-1,-5.3296316E-1,-2.768397E-1,-6.04847E-1],"split_indices":[1,1,1,1,1,0,0,1,0,1,0,0,0,0,0,0,0,0,0,0,0,0,0,0,0,0,0,0,0,0,0],"split_type":[0,0,0,0,0,0,0,0,0,0,0,0,0,0,0,0,0,0,0,0,0,0,0,0,0,0,0,0,0,0,0],"sum_hessian":[7.237E3,5.597E3,1.64E3,7.06E2,4.891E3,5.81E2,1.059E3,5.68E2,1.38E2,3.811E3,1.08E3,2.47E2,3.34E2,4.9E2,5.69E2,3.12E2,2.56E2,1.12E2,2.6E1,1.23E3,2.581E3,2E2,8.8E2,1.12E2,1.35E2,2.22E2,1.12E2,2.6E2,2.3E2,3.91E2,1.78E2],"tree_param":{"num_deleted":"0","num_feature":"2","num_nodes":"31","size_leaf_vector":"1"}},{"base_weights":[-3.7737517E-3,9.698934E-1,-3.325276E0,-4.4801598E0,1.7573459E0,-2.3405225E0,-5.089483E0,-4.9815903E0,-2.3953092E0,2.1962373E0,-4.312109E-1,-3.4479206E0,-1.5175203E0,-5.870287E-1,-4.5208616E0,-5.592347E-1,-4.218367E-1,-1.5041055E-1,-6.036447E-1,2.679561E-1,2.773397E-2,-1.5820721E-1,2.278828E-2,-2.3891464E-1,-4.7307333E-1,-5.3177793E-2,-3.8902828E-1,-4.1954595E-1,-5.1405734E-1],"categories":[],"categories_nodes":[],"categories_segments":[],"categories_sizes":[],"default_left":[0,0,0,0,0,0,0,0,0,0,0,0,0,0,0,0,0,0,0,0,0,0,0,0,0,0,0,0,0],"id":6,"left_children":[1,3,5,7,9,11,13,15,17,19,21,23,25,-1,27,-1,-1,-1,-1,-1,-1,-1,-1,-1,-1,-1,-1,-1,-1],"loss_changes":[2.3411188E4,2.4032574E4,2.8390137E3,7.2717285E2,4.6999023E3,9.5628516E2,2.340791E2,2.4164453E2,4.4197498E2,3.7786094E3,6.208342E2,5.985332E2,1.4176632E3,0E0,4.7802246E1,0E0,0E0,0E0,0E0,0E0,0E0,0E0,0E0,0E0,0E0,0E0,0E0,0E0,0E0],"parents":[2147483647,0,0,1,1,2,2,3,3,4,4,5,5,6,6,7,7,8,8,9,9,10,10,11,11,12,12,14,14],"right_children":[2,4,6,8,10,12,14,16,18,20,22,24,26,-1,28,-1,-1,-1,-1,-1,-1,-1,-1,-1,-1,-1,-1,-1,-1],"split_conditions":[2.1E1,5E0,2.3E1,4E0,1.9E1,5E0,4E0,3E0,7E0,7E0,5E0,2.2E1,7E0,-5.870287E-1,7E0,-5.592347E-1,-4.218367E-1,-1.5041055E-1,-6.036447E-1,2.679561E-1,2.773397E-2,-1.5820721E-1,2.278828E-2,-2.3891464E-1,-4.7307333E-1,-5.3177793E-2,-3.8902828E-1,-4.1954595E-1,-5.1405734E-1],"split_indices":[1,1,1,1,1,0,0,1,0,0,0,1,0,0,0,0,0,0,0,0,0,0,0,0,0,0,0,0,0],"split_type":[0,0,0,0,0,0,0,0,0,0,0,0,0,0,0,0,0,0,0,0,0,0,0,0,0,0,0,0,0],"sum_hessian":[7.237E3,5.597E3,1.64E3,7.06E2,4.891E3,1.054E3,5.86E2,5.68E2,1.38E2,4.074E3,8.17E2,4.48E2,6.06E2,2.43E2,3.43E2,3.12E2,2.56E2,1.12E2,2.6E1,3.254E3,8.2E2,2.97E2,5.2E2,2.47E2,2.01E2,4.29E2,1.77E2,2.3E2,1.13E2],"tree_param":{"num_deleted":"0","num_feature":"2","num_nodes":"29","size_leaf_vector":"1"}},{"base_weights":[-3.983336E-3,1.0056065E0,-2.6124215E0,-4.034598E0,1.7949747E0,-1.2143116E0,-3.8774889E0,-4.4851556E0,-2.1612031E0,2.515958E0,8.8698673E-1,-2.73859E0,-5.64412E-1,-4.9268346E0,-3.2366178E0,-5.034899E-1,-3.798172E-1,-1.3550259E-1,-5.45516E-1,2.8987417E-1,6.160012E-2,-5.760519E-1,1.5479606E-1,-3.2105058E-1,-2.42272E-1,7.6410556E-3,-2.0443328E-1,-4.3377814E-1,-5.285665E-1,-2.5833672E-1,-4.981218E-1],"categories":[],"categories_nodes":[],"categories_segments":[],"categories_sizes":[],"default_left":[0,0,0,0,0,0,0,0,0,0,0,0,0,0,0,0,0,0,0,0,0,0,0,0,0,0,0,0,0,0,0],"id":7,"left_children":[1,3,5,7,9,11,13,15,17,19,21,23,25,27,29,-1,-1,-1,-1,-1,-1,-1,-1,-1,-1,-1,-1,-1,-1,-1,-1],"loss_changes":[1.9063557E4,2.0771438E4,3.5680723E3,5.870654E2,2.9521777E3,9.5044775E2,6.968994E2,1.9576758E2,3.6172443E2,1.8273018E3,8.792179E3,3.500293E1,6.403037E2,6.161914E1,7.4044775E2,0E0,0E0,0E0,0E0,0E0,0E0,0E0,0E0,0E0,0E0,0E0,0E0,0E0,0E0,0E0,0E0],"parents":[2147483647,0,0,1,1,2,2,3,3,4,4,5,5,6,6,7,7,8,8,9,9,10,10,11,11,12,12,13,13,14,14],"right_children":[2,4,6,8,10,12,14,16,18,20,22,24,26,28,30,-1,-1,-1,-1,-1,-1,-1,-1,-1,-1,-1,-1,-1,-1,-1,-1],"split_conditions":[2E1,5E0,2.2E1,4E0,6E0,4E0,4E0,3E0,7E0,1.8E1,7E0,2.1E1,7E0,2.3E1,7E0,-5.034899E-1,-3.798172E-1,-1.3550259E-1,-5.45516E-1,2.8987417E-1,6.160012E-2,-5.760519E-1,1.5479606E-1,-3.2105058E-1,-2.42272E-1,7.6410556E-3,-2.0443328E-1,-4.3377814E-1,-5.285665E-1,-2.5833672E-1,-4.981218E-1],"split_indices":[1,1,1,1,0,0,0,1,0,1,1,1,0,1,0,0,0,0,0,0,0,0,0,0,0,0,0,0,0,0,0],"split_type":[0,0,0,0,0,0,0,0,0,0,0,0,0,0,0,0,0,0,0,0,0,0,0,0,0,0,0,0,0,0,0],"sum_hessian":[7.237E3,5.218E3,2.019E3,7.06E2,4.512E3,9.6E2,1.059E3,5.68E2,1.38E2,2.514E3,1.998E3,2.86E2,6.74E2,3.99E2,6.6E2,3.12E2,2.56E2,1.12E2,2.6E1,2.092E3,4.22E2,1.8E2,1.818E3,1.11E2,1.75E2,4.71E2,2.03E2,1.56E2,2.43E2,4.82E2,1.78E2],"tree_param":{"num_deleted":"0","num_feature":"2","num_nodes":"31","size_leaf_vector":"1"}},{"base_weights":[-4.15333E-3,7.880261E-1,-2.7065399E0,-3.6333506E0,1.4268497E0,-1.8912647E0,-4.167202E0,-4.0381923E0,-1.949982E0,1.8580924E0,-9.51891E-2,-2.8349104E0,-1.190131E0,-4.7592646E-1,-3.7351367E0,-4.5330176E-1,-3.419833E-1,-1.2207222E-1,-4.9298483E-1,5.1368665E-2,2.4983346E-1,-1.2885691E-1,1.771884E-2,-1.9824551E-1,-3.867455E-1,-3.5830628E-2,-3.1929088E-1,-3.5205108E-1,-4.1372728E-1],"categories":[],"categories_nodes":[],"categories_segments":[],"categories_sizes":[],"default_left":[0,0,0,0,0,0,0,0,0,0,0,0,0,0,0,0,0,0,0,0,0,0,0,0,0,0,0,0,0],"id":8,"left_children":[1,3,5,7,9,11,13,15,17,19,21,23,25,-1,27,-1,-1,-1,-1,-1,-1,-1,-1,-1,-1,-1,-1,-1,-1],"loss_changes":[1.5497062E4,1.5816624E4,1.9462891E3,4.7394434E2,3.21113E3,6.9463745E2,1.3238379E2,1.5860059E2,2.9604248E2,3.279877E3,3.5160724E2,3.87542E2,1.0100936E3,0E0,1.5125E1,0E0,0E0,0E0,0E0,0E0,0E0,0E0,0E0,0E0,0E0,0E0,0E0,0E0,0E0],"parents":[2147483647,0,0,1,1,2,2,3,3,4,4,5,5,6,6,7,7,8,8,9,9,10,10,11,11,12,12,14,14],"right_children":[2,4,6,8,10,12,14,16,18,20,22,24,26,-1,28,-1,-1,-1,-1,-1,-1,-1,-1,-1,-1,-1,-1,-1,-1],"split_conditions":[2.1E1,5E0,2.3E1,4E0,1.8E1,5E0,4E0,3E0,7E0,1E1,3E0,2.2E1,7E0,-4.7592646E-1,7E0,-4.5330176E-1,-3.419833E-1,-1.2207222E-1,-4.9298483E-1,5.1368665E-2,2.4983346E-1,-1.2885691E-1,1.771884E-2,-1.9824551E-1,-3.867455E-1,-3.5830628E-2,-3.1929088E-1,-3.5205108E-1,-4.1372728E-1],"split_indices":[1,1,1,1,1,0,0,1,0,1,0,1,0,0,0,0,0,0,0,0,0,0,0,0,0,0,0,0,0],"split_type":[0,0,0,0,0,0,0,0,0,0,0,0,0,0,0,0,0,0,0,0,0,0,0,0,0,0,0,0,0],"sum_hessian":[7.237E3,5.597E3,1.64E3,7.06E2,4.891E3,1.054E3,5.86E2,5.68E2,1.38E2,3.811E3,1.08E3,4.48E2,6.06E2,2.43E2,3.43E2,3.12E2,2.56E2,1.12E2,2.6E1,1.23E3,2.581E3,2E2,8.8E2,2.47E2,2.01E2,4.29E2,1.77E2,2.3E2,1.13E2],"tree_param":{"num_deleted":"0","num_feature":"2","num_nodes":"29","size_leaf_vector":"1"}},{"base_weights":[-4.2082686E-3,8.193783E-1,-2.1320767E0,-2.3150432E0,1.6715214E0,-9.9399745E-1,-3.1618524E0,-1.0309571E0,-4.3457932E0,2.0528924E0,6.5734476E-1,-2.3184476E0,-4.2938834E-1,-2.423605E0,-3.7525973E0,-3.0353945E-1,2.94754E-1,-1.463884E-1,-4.710675E-1,1.02121845E-1,2.4443702E-1,1.2853095E-1,-2.3729758E-2,-1.9930288E-1,-2.8393447E-1,1.0923438E-2,-1.6735087E-1,-2.0494364E-1,-4.7055957E-1,-4.2852885E-1,-3.3638495E-1],"categories":[],"categories_nodes":[],"categories_segments":[],"categories_sizes":[],"default_left":[0,0,0,0,0,0,0,0,0,0,0,0,0,0,0,0,0,0,0,0,0,0,0,0,0,0,0,0,0,0,0],"id":9,"left_children":[1,3,5,7,9,11,13,15,17,19,21,23,25,27,29,-1,-1,-1,-1,-1,-1,-1,-1,-1,-1,-1,-1,-1,-1,-1,-1],"loss_changes":[1.2686226E4,1.394369E4,2.3642295E3,2.905666E3,1.5859873E3,7.176369E2,4.531875E2,5.4715806E3,4.473755E2,1.2018662E3,6.3121063E2,4.2990356E1,4.52508E2,3.950808E2,1.0714258E2,0E0,0E0,0E0,0E0,0E0,0E0,0E0,0E0,0E0,0E0,0E0,0E0,0E0,0E0,0E0,0E0],"parents":[2147483647,0,0,1,1,2,2,3,3,4,4,5,5,6,6,7,7,8,8,9,9,10,10,11,11,12,12,13,13,14,14],"right_children":[2,4,6,8,10,12,14,16,18,20,22,24,26,28,30,-1,-1,-1,-1,-1,-1,-1,-1,-1,-1,-1,-1,-1,-1,-1,-1],"split_conditions":[2E1,7E0,2.2E1,6E0,1.7E1,4E0,2.3E1,5E0,2E0,1E1,6E0,3E0,7E0,7E0,4E0,-3.0353945E-1,2.94754E-1,-1.463884E-1,-4.710675E-1,1.02121845E-1,2.4443702E-1,1.2853095E-1,-2.3729758E-2,-1.9930288E-1,-2.8393447E-1,1.0923438E-2,-1.6735087E-1,-2.0494364E-1,-4.7055957E-1,-4.2852885E-1,-3.3638495E-1],"split_indices":[1,1,1,0,1,0,1,1,1,1,0,0,0,0,0,0,0,0,0,0,0,0,0,0,0,0,0,0,0,0,0],"split_type":[0,0,0,0,0,0,0,0,0,0,0,0,0,0,0,0,0,0,0,0,0,0,0,0,0,0,0,0,0,0,0],"sum_hessian":[7.237E3,5.218E3,2.019E3,1.115E3,4.103E3,9.6E2,1.059E3,6.84E2,4.31E2,2.981E3,1.122E3,2.86E2,6.74E2,4.73E2,5.86E2,4.55E2,2.29E2,4.9E1,3.82E2,8.21E2,2.16E3,6.59E2,4.63E2,1.79E2,1.07E2,4.71E2,2.03E2,4.08E2,6.5E1,2.43E2,3.43E2],"tree_param":{"num_deleted":"0","num_feature":"2","num_nodes":"31","size_leaf_vector":"1"}},{"base_weights":[-4.098774E-3,7.3740727E-1,-1.9198987E0,-2.0841E0,1.5044796E0,-8.952634E-1,-2.8470259E0,-9.2787415E-1,-3.912643E0,1.7653248E0,2.3786856E-1,-2.0882866E0,-3.8668123E-1,-3.5432527E0,-2.242299E0,-2.732521E-1,2.6540682E-1,-3.0193946E-1,-4.9433342E-1,2.0464838E-1,6.96019E-2,7.7924475E-2,-3.1021906E-3,-2.5914273E-1,-1.7562409E-1,9.833417E-3,-1.5069781E-1,-3.8751122E-1,-3.1529555E-1,-1.5592885E-1,-3.7255272E-1],"categories":[],"categories_nodes":[],"categories_segments":[],"categories_sizes":[],"default_left":[0,0,0,0,0,0,0,0,0,0,0,0,0,0,0,0,0,0,0,0,0,0,0,0,0,0,0,0,0,0,0],"id":10,"left_children":[1,3,5,7,9,11,13,15,17,19,21,23,25,27,29,-1,-1,-1,-1,-1,-1,-1,-1,-1,-1,-1,-1,-1,-1,-1,-1],"loss_changes":[1.0283554E4,1.1298617E4,1.9163857E3,2.3558267E3,1.355498E3,5.822796E2,4.3834375E2,4.4351885E3,3.828003E2,1.0216699E3,1.02214935E2,4.339673E1,3.6691708E2,5.137793E1,5.7163525E2,0E0,0E0,0E0,0E0,0E0,0E0,0E0,0E0,0E0,0E0,0E0,0E0,0E0,0E0,0E0,0E0],"parents":[2147483647,0,0,1,1,2,2,3,3,4,4,5,5,6,6,7,7,8,8,9,9,10,10,11,11,12,12,13,13,14,14],"right_children":[2,4,6,8,10,12,14,16,18,20,22,24,26,28,30,-1,-1,-1,-1,-1,-1,-1,-1,-1,-1,-1,-1,-1,-1,-1,-1],"split_conditions":[2E1,7E0,2.2E1,6E0,1.8E1,4E0,5E0,5E0,7E0,7E0,4E0,2.1E1,7E0,3E0,7E0,-2.732521E-1,2.6540682E-1,-3.0193946E-1,-4.9433342E-1,2.0464838E-1,6.96019E-2,7.7924475E-2,-3.1021906E-3,-2.5914273E-1,-1.7562409E-1,9.833417E-3,-1.5069781E-1,-3.8751122E-1,-3.1529555E-1,-1.5592885E-1,-3.7255272E-1],"split_indices":[1,1,1,0,1,0,0,1,0,0,0,1,0,0,0,0,0,0,0,0,0,0,0,0,0,0,0,0,0,0,0],"split_type":[0,0,0,0,0,0,0,0,0,0,0,0,0,0,0,0,0,0,0,0,0,0,0,0,0,0,0,0,0,0,0],"sum_hessian":[7.237E3,5.218E3,2.019E3,1.115E3,4.103E3,9.6E2,1.059E3,6.84E2,4.31E2,3.402E3,7.01E2,2.86E2,6.74E2,4.9E2,5.69E2,4.55E2,2.29E2,2.33E2,1.98E2,2.693E3,7.09E2,2.32E2,4.69E2,1.11E2,1.75E2,4.71E2,2.03E2,2.6E2,2.3E2,3.91E2,1.78E2],"tree_param":{"num_deleted":"0","num_feature":"2","num_nodes":"31","size_leaf_vector":"1"}},{"base_weights":[-4.0015858E-3,5.7802343E-1,-1.9894811E0,-1.8764106E0,1.1889024E0,-1.3782693E0,-3.0846071E0,-8.350982E-1,-3.5232222E0,1.5245379E0,-3.1675646E-1,-2.147142E0,-8.0726093E-1,-3.5007095E-1,-2.7804978E0,-2.964346E-1,1.646061E-1,-9.206297E-2,-3.8537872E-1,1.7472602E-1,6.355112E-2,-1.1992829E-1,1.8863635E-2,-1.5049712E-1,-2.92492E-1,-1.5955321E-2,-2.3674129E-1,-2.6480663E-1,-3.0244562E-1],"categories":[],"categories_nodes":[],"categories_segments":[],"categories_sizes":[],"default_left":[0,0,0,0,0,0,0,0,0,0,0,0,0,0,0,0,0,0,0,0,0,0,0,0,0,0,0,0,0],"id":11,"left_children":[1,3,5,7,9,11,13,15,17,19,21,23,25,-1,27,-1,-1,-1,-1,-1,-1,-1,-1,-1,-1,-1,-1,-1,-1],"loss_changes":[8.365373E3,8.39566E3,1.0941587E3,1.9108247E3,2.265979E3,4.6144604E2,6.45459E1,3.6237363E3,3.6811328E2,7.247803E2,3.6507266E2,2.198584E2,6.130094E2,0E0,3.1049805E0,0E0,0E0,0E0,0E0,0E0,0E0,0E0,0E0,0E0,0E0,0E0,0E0,0E0,0E0],"parents":[2147483647,0,0,1,1,2,2,3,3,4,4,5,5,6,6,7,7,8,8,9,9,10,10,11,11,12,12,14,14],"right_children":[2,4,6,8,10,12,14,16,18,20,22,24,26,-1,28,-1,-1,-1,-1,-1,-1,-1,-1,-1,-1,-1,-1,-1,-1],"split_conditions":[2.1E1,7E0,2.3E1,6E0,1.9E1,5E0,4E0,4E0,2E0,7E0,5E0,2.2E1,7E0,-3.5007095E-1,7E0,-2.964346E-1,1.646061E-1,-9.206297E-2,-3.8537872E-1,1.7472602E-1,6.355112E-2,-1.1992829E-1,1.8863635E-2,-1.5049712E-1,-2.92492E-1,-1.5955321E-2,-2.3674129E-1,-2.6480663E-1,-3.0244562E-1],"split_indices":[1,1,1,0,1,0,0,1,1,0,0,1,0,0,0,0,0,0,0,0,0,0,0,0,0,0,0,0,0],"split_type":[0,0,0,0,0,0,0,0,0,0,0,0,0,0,0,0,0,0,0,0,0,0,0,0,0,0,0,0,0],"sum_hessian":[7.237E3,5.597E3,1.64E3,1.115E3,4.482E3,1.054E3,5.86E2,6.84E2,4.31E2,3.665E3,8.17E2,4.48E2,6.06E2,2.43E2,3.43E2,3.68E2,3.16E2,4.9E1,3.82E2,2.93E3,7.35E2,2.97E2,5.2E2,2.47E2,2.01E2,4.29E2,1.77E2,2.3E2,1.13E2],"tree_param":{"num_deleted":"0","num_feature":"2","num_nodes":"29","size_leaf_vector":"1"}},{"base_weights":[-3.889705E-3,5.98763E-1,-1.5609394E0,-1.6893156E0,1.2208139E0,-7.2157586E-1,-2.320437E0,-7.51781E-1,-3.172005E0,1.5193348E0,4.2703804E-1,-1.5084451E0,-1.5542758E-1,-2.8725598E0,-1.8407655E0,-2.252045E-1,2.2259243E-1,-2.3625906E-1,-4.1078392E-1,5.8104422E-2,1.8755382E-1,9.678578E-2,-3.4315173E-2,-1.7428227E-1,-9.155591E-2,4.6216827E-2,-1.2354584E-1,-3.1650645E-1,-2.5296324E-1,-1.2710355E-1,-3.078159E-1],"categories":[],"categories_nodes":[],"categories_segments":[],"categories_sizes":[],"default_left":[0,0,0,0,0,0,0,0,0,0,0,0,0,0,0,0,0,0,0,0,0,0,0,0,0,0,0,0,0,0,0],"id":12,"left_children":[1,3,5,7,9,11,13,15,17,19,21,23,25,27,29,-1,-1,-1,-1,-1,-1,-1,-1,-1,-1,-1,-1,-1,-1,-1,-1],"loss_changes":[6.792786E3,7.4302725E3,1.286065E3,1.5489365E3,9.718296E2,4.2787637E2,2.7543994E2,3.0651436E3,3.175249E2,9.9556104E2,4.680996E2,5.426593E1,3.7410364E2,4.1245117E1,3.979264E2,0E0,0E0,0E0,0E0,0E0,0E0,0E0,0E0,0E0,0E0,0E0,0E0,0E0,0E0,0E0,0E0],"parents":[2147483647,0,0,1,1,2,2,3,3,4,4,5,5,6,6,7,7,8,8,9,9,10,10,11,11,12,12,13,13,14,14],"right_children":[2,4,6,8,10,12,14,16,18,20,22,24,26,28,30,-1,-1,-1,-1,-1,-1,-1,-1,-1,-1,-1,-1,-1,-1,-1,-1],"split_conditions":[2E1,7E0,2.2E1,6E0,1.7E1,5E0,5E0,5E0,7E0,1E1,6E0,4E0,7E0,3E0,7E0,-2.252045E-1,2.2259243E-1,-2.3625906E-1,-4.1078392E-1,5.8104422E-2,1.8755382E-1,9.678578E-2,-3.4315173E-2,-1.7428227E-1,-9.155591E-2,4.6216827E-2,-1.2354584E-1,-3.1650645E-1,-2.5296324E-1,-1.2710355E-1,-3.078159E-1],"split_indices":[1,1,1,0,1,0,0,1,0,1,0,0,0,0,0,0,0,0,0,0,0,0,0,0,0,0,0,0,0,0,0],"split_type":[0,0,0,0,0,0,0,0,0,0,0,0,0,0,0,0,0,0,0,0,0,0,0,0,0,0,0,0,0,0,0],"sum_hessian":[7.237E3,5.218E3,2.019E3,1.115E3,4.103E3,9.6E2,1.059E3,6.84E2,4.31E2,2.981E3,1.122E3,4.01E2,5.59E2,4.9E2,5.69E2,4.55E2,2.29E2,2.33E2,1.98E2,8.21E2,2.16E3,6.59E2,4.63E2,2.86E2,1.15E2,3.56E2,2.03E2,2.6E2,2.3E2,3.91E2,1.78E2],"tree_param":{"num_deleted":"0","num_feature":"2","num_nodes":"31","size_leaf_vector":"1"}},{"base_weights":[-3.7339386E-3,4.6931425E-1,-1.6174573E0,-1.5209663E0,9.646709E-1,-1.1037092E0,-2.538048E0,-6.76607E-1,-2.8563023E0,1.2994107E0,-8.998609E-2,-1.7217131E0,-6.447513E-1,-2.8616044E-1,-2.3011708E0,-2.4441206E-1,1.3829802E-1,-5.046308E-2,-3.1558514E-1,1.5281598E-1,4.296225E-2,-1.12605095E-1,1.4649406E-2,-1.2055186E-1,-2.3469333E-1,-1.0630903E-2,-1.9418606E-1,-2.4705653E-1,-2.1785353E-1],"categories":[],"categories_nodes":[],"categories_segments":[],"categories_sizes":[],"default_left":[0,0,0,0,0,0,0,0,0,0,0,0,0,0,0,0,0,0,0,0,0,0,0,0,0,0,0,0,0],"id":13,"left_children":[1,3,5,7,9,11,13,15,17,19,21,23,25,-1,27,-1,-1,-1,-1,-1,-1,-1,-1,-1,-1,-1,-1,-1,-1],"loss_changes":[5.526023E3,5.5205283E3,7.733125E2,1.2563611E3,1.5827764E3,2.981278E2,3.840454E1,2.4970188E3,3.0272583E2,6.7641504E2,2.6501947E2,1.4207886E2,4.2373352E2,0E0,1.7640381E0,0E0,0E0,0E0,0E0,0E0,0E0,0E0,0E0,0E0,0E0,0E0,0E0,0E0,0E0],"parents":[2147483647,0,0,1,1,2,2,3,3,4,4,5,5,6,6,7,7,8,8,9,9,10,10,11,11,12,12,14,14],"right_children":[2,4,6,8,10,12,14,16,18,20,22,24,26,-1,28,-1,-1,-1,-1,-1,-1,-1,-1,-1,-1,-1,-1,-1,-1],"split_conditions":[2.1E1,7E0,2.3E1,6E0,1.8E1,5E0,4E0,4E0,2E0,7E0,3E0,2.2E1,7E0,-2.8616044E-1,6E0,-2.4441206E-1,1.3829802E-1,-5.046308E-2,-3.1558514E-1,1.5281598E-1,4.296225E-2,-1.12605095E-1,1.4649406E-2,-1.2055186E-1,-2.3469333E-1,-1.0630903E-2,-1.9418606E-1,-2.4705653E-1,-2.1785353E-1],"split_indices":[1,1,1,0,1,0,0,1,1,0,0,1,0,0,0,0,0,0,0,0,0,0,0,0,0,0,0,0,0],"split_type":[0,0,0,0,0,0,0,0,0,0,0,0,0,0,0,0,0,0,0,0,0,0,0,0,0,0,0,0,0],"sum_hessian":[7.237E3,5.597E3,1.64E3,1.115E3,4.482E3,1.054E3,5.86E2,6.84E2,4.31E2,3.402E3,1.08E3,4.48E2,6.06E2,2.43E2,3.43E2,3.68E2,3.16E2,4.9E1,3.82E2,2.693E3,7.09E2,2E2,8.8E2,2.47E2,2.01E2,4.29E2,1.77E2,1.36E2,2.07E2],"tree_param":{"num_deleted":"0","num_feature":"2","num_nodes":"29","size_leaf_vector":"1"}},{"base_weights":[-3.5937491E-3,4.8783988E-1,-1.2732911E0,-1.3692927E0,9.927308E-1,-5.906089E-1,-1.8910121E0,-9.230212E-1,-3.4210918E0,1.2374115E0,3.4212467E-1,-1.2685945E0,-1.0285745E-1,-1.3984619E0,-2.2855227E0,-2.3092134E-1,6.080261E-2,-1.7292461E-1,-5.623991E-1,3.885558E-2,1.5597261E-1,8.326204E-2,-3.5630055E-2,-1.4715989E-1,-7.553976E-2,4.1719276E-2,-1.0124411E-1,-1.1127684E-1,-3.1477073E-1,-2.5766167E-1,-2.072405E-1],"categories":[],"categories_nodes":[],"categories_segments":[],"categories_sizes":[],"default_left":[0,0,0,0,0,0,0,0,0,0,0,0,0,0,0,0,0,0,0,0,0,0,0,0,0,0,0,0,0,0,0],"id":14,"left_children":[1,3,5,7,9,11,13,15,17,19,21,23,25,27,29,-1,-1,-1,-1,-1,-1,-1,-1,-1,-1,-1,-1,-1,-1,-1,-1],"loss_changes":[4.51693E3,4.8949517E3,8.507317E2,1.01871826E3,6.528955E2,3.1766116E2,2.0277881E2,1.9496995E3,7.319409E2,8.1526514E2,3.8500787E2,4.0769165E1,2.653187E2,2.3337793E2,3.1075928E1,0E0,0E0,0E0,0E0,0E0,0E0,0E0,0E0,0E0,0E0,0E0,0E0,0E0,0E0,0E0,0E0],"parents":[2147483647,0,0,1,1,2,2,3,3,4,4,5,5,6,6,7,7,8,8,9,9,10,10,11,11,12,12,13,13,14,14],"right_children":[2,4,6,8,10,12,14,16,18,20,22,24,26,28,30,-1,-1,-1,-1,-1,-1,-1,-1,-1,-1,-1,-1,-1,-1,-1,-1],"split_conditions":[2E1,7E0,2.2E1,7E0,1.7E1,5E0,2.3E1,4E0,5E0,1E1,6E0,4E0,7E0,7E0,4E0,-2.3092134E-1,6.080261E-2,-1.7292461E-1,-5.623991E-1,3.885558E-2,1.5597261E-1,8.326204E-2,-3.5630055E-2,-1.4715989E-1,-7.553976E-2,4.1719276E-2,-1.0124411E-1,-1.1127684E-1,-3.1477073E-1,-2.5766167E-1,-2.072405E-1],"split_indices":[1,1,1,0,1,0,1,1,1,1,0,0,0,0,0,0,0,0,0,0,0,0,0,0,0,0,0,0,0,0,0],"split_type":[0,0,0,0,0,0,0,0,0,0,0,0,0,0,0,0,0,0,0,0,0,0,0,0,0,0,0,0,0,0,0],"sum_hessian":[7.237E3,5.218E3,2.019E3,1.115E3,4.103E3,9.6E2,1.059E3,9.17E2,1.98E2,2.981E3,1.122E3,4.01E2,5.59E2,4.73E2,5.86E2,4.81E2,4.36E2,1.13E2,8.5E1,8.21E2,2.16E3,6.59E2,4.63E2,2.86E2,1.15E2,3.56E2,2.03E2,4.08E2,6.5E1,2.43E2,3.43E2],"tree_param":{"num_deleted":"0","num_feature":"2","num_nodes":"31","size_leaf_vector":"1"}},{"base_weights":[-3.4884429E-3,4.389284E-1,-1.1465429E0,-1.4591118E0,8.492132E-1,-5.3184193E-1,-1.7027515E0,-9.1700584E-1,-2.389608E0,1.0920129E0,-4.9331013E-2,-1.1422893E0,-9.267817E-2,-2.1331308E0,-1.3290339E0,-3.2345432E-1,-4.307943E-3,-1.8158744E-1,-3.9695105E-1,1.3916185E-1,2.5639031E-2,-3.133988E-1,5.70094E-2,-1.3249521E-1,-6.8050936E-2,3.7559018E-2,-9.116935E-2,-2.3929341E-1,-1.8303527E-1,-8.736428E-2,-2.3188904E-1],"categories":[],"categories_nodes":[],"categories_segments":[],"categories_sizes":[],"default_left":[0,0,0,0,0,0,0,0,0,0,0,0,0,0,0,0,0,0,0,0,0,0,0,0,0,0,0,0,0,0,0],"id":15,"left_children":[1,3,5,7,9,11,13,15,17,19,21,23,25,27,29,-1,-1,-1,-1,-1,-1,-1,-1,-1,-1,-1,-1,-1,-1,-1,-1],"loss_changes":[3.6608071E3,4.0654678E3,6.897363E2,4.659176E2,9.3642334E2,2.5752518E2,1.67656E2,1.1907705E3,3.0188904E2,8.4560034E2,1.7481791E3,3.300702E1,2.15113E2,3.4243652E1,2.5491412E2,0E0,0E0,0E0,0E0,0E0,0E0,0E0,0E0,0E0,0E0,0E0,0E0,0E0,0E0,0E0,0E0],"parents":[2147483647,0,0,1,1,2,2,3,3,4,4,5,5,6,6,7,7,8,8,9,9,10,10,11,11,12,12,13,13,14,14],"right_children":[2,4,6,8,10,12,14,16,18,20,22,24,26,28,30,-1,-1,-1,-1,-1,-1,-1,-1,-1,-1,-1,-1,-1,-1,-1,-1],"split_conditions":[2E1,6E0,2.2E1,6E0,7E0,5E0,5E0,3E0,5E0,1.7E1,9E0,4E0,7E0,3E0,7E0,-3.2345432E-1,-4.307943E-3,-1.8158744E-1,-3.9695105E-1,1.3916185E-1,2.5639031E-2,-3.133988E-1,5.70094E-2,-1.3249521E-1,-6.8050936E-2,3.7559018E-2,-9.116935E-2,-2.3929341E-1,-1.8303527E-1,-8.736428E-2,-2.3188904E-1],"split_indices":[1,1,1,0,0,0,0,1,1,1,1,0,0,0,0,0,0,0,0,0,0,0,0,0,0,0,0,0,0,0,0],"split_type":[0,0,0,0,0,0,0,0,0,0,0,0,0,0,0,0,0,0,0,0,0,0,0,0,0,0,0,0,0,0,0],"sum_hessian":[7.237E3,5.218E3,2.019E3,9.27E2,4.291E3,9.6E2,1.059E3,5.87E2,3.4E2,3.378E3,9.13E2,4.01E2,5.59E2,4.9E2,5.69E2,1.6E2,4.27E2,2.51E2,8.9E1,2.486E3,8.92E2,1.52E2,7.61E2,2.86E2,1.15E2,3.56E2,2.03E2,2.6E2,2.3E2,3.91E2,1.78E2],"tree_param":{"num_deleted":"0","num_feature":"2","num_nodes":"31","size_leaf_vector":"1"}},{"base_weights":[-3.41501E-3,3.4349427E-1,-1.1868365E0,-1.3141773E0,6.7275476E-1,-7.992361E-1,-1.881439E0,-8.258626E-1,-2.152344E0,8.668043E-1,-2.423306E-1,-1.272525E0,-4.4782603E-1,-2.0359986E0,-1.5900248E0,-1.565439E-1,1.7160372E-1,-1.6350077E-1,-3.5769707E-1,1.11334205E-1,-7.1302676E-3,-9.3239605E-2,1.5283607E-2,-8.464282E-2,-1.789354E-1,-4.1007865E-3,-1.4280732E-1,-2.1999767E-1,-1.9219095E-1,-1.3593248E-1,-1.7683272E-1],"categories":[],"categories_nodes":[],"categories_segments":[],"categories_sizes":[],"default_left":[0,0,0,0,0,0,0,0,0,0,0,0,0,0,0,0,0,0,0,0,0,0,0,0,0,0,0,0,0,0,0],"id":16,"left_children":[1,3,5,7,9,11,13,15,17,19,21,23,25,27,29,-1,-1,-1,-1,-1,-1,-1,-1,-1,-1,-1,-1,-1,-1,-1,-1],"loss_changes":[2.9718955E3,3.0563047E3,4.4029956E2,3.780426E2,8.296487E2,1.7489606E2,2.3201904E1,1.1080846E3,2.4547229E2,8.9142773E2,2.232036E2,9.736389E1,2.4200232E2,2.8807373E0,6.1522217E0,0E0,0E0,0E0,0E0,0E0,0E0,0E0,0E0,0E0,0E0,0E0,0E0,0E0,0E0,0E0,0E0],"parents":[2147483647,0,0,1,1,2,2,3,3,4,4,5,5,6,6,7,7,8,8,9,9,10,10,11,11,12,12,13,13,14,14],"right_children":[2,4,6,8,10,12,14,16,18,20,22,24,26,28,30,-1,-1,-1,-1,-1,-1,-1,-1,-1,-1,-1,-1,-1,-1,-1,-1],"split_conditions":[2.1E1,6E0,2.3E1,6E0,1.9E1,5E0,6E0,5E0,5E0,7E0,5E0,2.2E1,7E0,3E0,7E0,-1.565439E-1,1.7160372E-1,-1.6350077E-1,-3.5769707E-1,1.11334205E-1,-7.1302676E-3,-9.3239605E-2,1.5283607E-2,-8.464282E-2,-1.789354E-1,-4.1007865E-3,-1.4280732E-1,-2.1999767E-1,-1.9219095E-1,-1.3593248E-1,-1.7683272E-1],"split_indices":[1,1,1,0,1,0,0,1,1,0,0,1,0,0,0,0,0,0,0,0,0,0,0,0,0,0,0,0,0,0,0],"split_type":[0,0,0,0,0,0,0,0,0,0,0,0,0,0,0,0,0,0,0,0,0,0,0,0,0,0,0,0,0,0,0],"sum_hessian":[7.237E3,5.597E3,1.64E3,9.27E2,4.67E3,1.054E3,5.86E2,5.87E2,3.4E2,3.853E3,8.17E2,4.48E2,6.06E2,3.79E2,2.07E2,4.55E2,1.32E2,2.51E2,8.9E1,3.051E3,8.02E2,2.97E2,5.2E2,2.47E2,2.01E2,4.29E2,1.77E2,1.48E2,2.31E2,9.4E1,1.13E2],"tree_param":{"num_deleted":"0","num_feature":"2","num_nodes":"31","size_leaf_vector":"1"}},{"base_weights":[-3.2965555E-3,3.5581633E-1,-9.311217E-1,-1.183305E0,6.8851644E-1,-6.179755E-1,-1.6945299E0,-1.6493858E0,-4.4335157E-1,8.854474E-1,-4.0278036E-2,-1.1669961E0,-2.193247E-1,-1.8334833E0,-1.4325259E0,-1.9961528E-1,-1.2206409E-1,1.7660883E-1,-1.7149791E-1,1.1412232E-1,1.7212141E-2,-2.815554E-1,5.1701527E-2,-9.408339E-2,-1.6113043E-1,2.3640007E-2,-1.1740067E-1,-1.9814552E-1,-1.7305468E-1,-1.2248226E-1,-1.5930459E-1],"categories":[],"categories_nodes":[],"categories_segments":[],"categories_sizes":[],"default_left":[0,0,0,0,0,0,0,0,0,0,0,0,0,0,0,0,0,0,0,0,0,0,0,0,0,0,0,0,0,0,0],"id":17,"left_children":[1,3,5,7,9,11,13,15,17,19,21,23,25,27,29,-1,-1,-1,-1,-1,-1,-1,-1,-1,-1,-1,-1,-1,-1,-1,-1],"loss_changes":[2.4119893E3,2.6732861E3,4.8185095E2,3.1931567E2,6.1603296E2,3.136001E2,1.8744019E1,8.215918E1,1.0144791E3,6.163074E2,1.4150873E3,5.9076965E1,3.6225763E2,2.3590088E0,4.9836426E0,0E0,0E0,0E0,0E0,0E0,0E0,0E0,0E0,0E0,0E0,0E0,0E0,0E0,0E0,0E0,0E0],"parents":[2147483647,0,0,1,1,2,2,3,3,4,4,5,5,6,6,7,7,8,8,9,9,10,10,11,11,12,12,13,13,14,14],"right_children":[2,4,6,8,10,12,14,16,18,20,22,24,26,28,30,-1,-1,-1,-1,-1,-1,-1,-1,-1,-1,-1,-1,-1,-1,-1,-1],"split_conditions":[2E1,6E0,2.3E1,4E0,7E0,5E0,6E0,3E0,4E0,1.7E1,9E0,2.2E1,7E0,3E0,7E0,-1.9961528E-1,-1.2206409E-1,1.7660883E-1,-1.7149791E-1,1.1412232E-1,1.7212141E-2,-2.815554E-1,5.1701527E-2,-9.408339E-2,-1.6113043E-1,2.3640007E-2,-1.1740067E-1,-1.9814552E-1,-1.7305468E-1,-1.2248226E-1,-1.5930459E-1],"split_indices":[1,1,1,1,0,0,0,1,0,1,1,1,0,0,0,0,0,0,0,0,0,0,0,0,0,0,0,0,0,0,0],"split_type":[0,0,0,0,0,0,0,0,0,0,0,0,0,0,0,0,0,0,0,0,0,0,0,0,0,0,0,0,0,0,0],"sum_hessian":[7.237E3,5.218E3,2.019E3,9.27E2,4.291E3,1.433E3,5.86E2,5.68E2,3.59E2,3.378E3,9.13E2,6.02E2,8.31E2,3.79E2,2.07E2,3.12E2,2.56E2,1.31E2,2.28E2,2.486E3,8.92E2,1.52E2,7.61E2,4.01E2,2.01E2,5.63E2,2.68E2,1.48E2,2.31E2,9.4E1,1.13E2],"tree_param":{"num_deleted":"0","num_feature":"2","num_nodes":"31","size_leaf_vector":"1"}},{"base_weights":[-3.162542E-3,2.7974337E-1,-9.6824735E-1,-1.0653156E0,5.469099E-1,-6.5689176E-1,-1.5261893E0,-6.594349E-1,-1.7620679E0,7.3708373E-1,-8.533887E-2,-1.0219712E0,-3.8575906E-1,-1.6511118E0,-1.290628E0,-2.5591508E-1,5.6718546E-3,2.7361715E-2,-2.1046098E-1,9.6244015E-2,-8.031049E-3,-9.462542E-2,1.1117569E-2,-6.684227E-2,-1.4509715E-1,-6.050131E-3,-1.1693269E-1,-1.7846398E-1,-1.558238E-1,-1.1036296E-1,-1.4351386E-1],"categories":[],"categories_nodes":[],"categories_segments":[],"categories_sizes":[],"default_left":[0,0,0,0,0,0,0,0,0,0,0,0,0,0,0,0,0,0,0,0,0,0,0,0,0,0,0,0,0,0,0],"id":18,"left_children":[1,3,5,7,9,11,13,15,17,19,21,23,25,27,29,-1,-1,-1,-1,-1,-1,-1,-1,-1,-1,-1,-1,-1,-1,-1,-1],"loss_changes":[1.9764491E3,2.0122505E3,2.8406934E2,2.612749E2,5.616908E2,1.0403494E2,1.5142578E1,8.00112E2,2.3835754E2,6.615574E2,1.8299138E2,6.713104E1,1.5463019E2,1.9316406E0,4.036957E0,0E0,0E0,0E0,0E0,0E0,0E0,0E0,0E0,0E0,0E0,0E0,0E0,0E0,0E0,0E0,0E0],"parents":[2147483647,0,0,1,1,2,2,3,3,4,4,5,5,6,6,7,7,8,8,9,9,10,10,11,11,12,12,13,13,14,14],"right_children":[2,4,6,8,10,12,14,16,18,20,22,24,26,28,30,-1,-1,-1,-1,-1,-1,-1,-1,-1,-1,-1,-1,-1,-1,-1,-1],"split_conditions":[2.1E1,6E0,2.3E1,6E0,1.8E1,5E0,6E0,3E0,2E0,7E0,3E0,2.2E1,7E0,3E0,7E0,-2.5591508E-1,5.6718546E-3,2.7361715E-2,-2.1046098E-1,9.6244015E-2,-8.031049E-3,-9.462542E-2,1.1117569E-2,-6.684227E-2,-1.4509715E-1,-6.050131E-3,-1.1693269E-1,-1.7846398E-1,-1.558238E-1,-1.1036296E-1,-1.4351386E-1],"split_indices":[1,1,1,0,1,0,0,1,1,0,0,1,0,0,0,0,0,0,0,0,0,0,0,0,0,0,0,0,0,0,0],"split_type":[0,0,0,0,0,0,0,0,0,0,0,0,0,0,0,0,0,0,0,0,0,0,0,0,0,0,0,0,0,0,0],"sum_hessian":[7.237E3,5.597E3,1.64E3,9.27E2,4.67E3,1.054E3,5.86E2,5.87E2,3.4E2,3.59E3,1.08E3,4.48E2,6.06E2,3.79E2,2.07E2,1.6E2,4.27E2,4.9E1,2.91E2,2.814E3,7.76E2,2E2,8.8E2,2.47E2,2.01E2,4.29E2,1.77E2,1.48E2,2.31E2,9.4E1,1.13E2],"tree_param":{"num_deleted":"0","num_feature":"2","num_nodes":"31","size_leaf_vector":"1"}},{"base_weights":[-3.0333663E-3,1.9201173E-1,-1.1399962E0,-1.3616283E0,3.4952897E-1,-1.6080587E0,-9.8586583E-1,-1.4864186E0,-6.626449E-1,5.569406E-1,-2.7532795E-1,-1.3518438E0,-1.8718456E0,-7.9357284E-1,-1.6485496E0,-1.9690946E-1,-9.6644975E-2,8.979484E-2,-1.3681199E-1,-9.757723E-3,8.7169565E-2,-6.906783E-2,-1.0250452E-3,-1.2204144E-1,-1.4549777E-1,-2.0761941E-1,-1.7239903E-1,-2.4786426E-2,-1.2883025E-1,-2.2379032E-1,-1.2928838E-1],"categories":[],"categories_nodes":[],"categories_segments":[],"categories_sizes":[],"default_left":[0,0,0,0,0,0,0,0,0,0,0,0,0,0,0,0,0,0,0,0,0,0,0,0,0,0,0,0,0,0,0],"id":19,"left_children":[1,3,5,7,9,11,13,15,17,19,21,23,25,27,29,-1,-1,-1,-1,-1,-1,-1,-1,-1,-1,-1,-1,-1,-1,-1,-1],"loss_changes":[1.6053108E3,1.5126323E3,7.4885864E1,4.864673E1,7.2735364E2,1.5109497E1,1.00635254E2,1.1906763E2,9.811292E1,8.6801697E2,1.5402289E2,6.777954E-2,2.276001E-1,1.6760715E2,3.462732E1,0E0,0E0,0E0,0E0,0E0,0E0,0E0,0E0,0E0,0E0,0E0,0E0,0E0,0E0,0E0,0E0],"parents":[2147483647,0,0,1,1,2,2,3,3,4,4,5,5,6,6,7,7,8,8,9,9,10,10,11,11,12,12,13,13,14,14],"right_children":[2,4,6,8,10,12,14,16,18,20,22,24,26,28,30,-1,-1,-1,-1,-1,-1,-1,-1,-1,-1,-1,-1,-1,-1,-1,-1],"split_conditions":[2.2E1,4E0,3E0,7E0,1.9E1,2E0,7E0,3E0,2E0,1E1,5E0,2.3E1,2.3E1,2.3E1,2.3E1,-1.9690946E-1,-9.6644975E-2,8.979484E-2,-1.3681199E-1,-9.757723E-3,8.7169565E-2,-6.906783E-2,-1.0250452E-3,-1.2204144E-1,-1.4549777E-1,-2.0761941E-1,-1.7239903E-1,-2.4786426E-2,-1.2883025E-1,-2.2379032E-1,-1.2928838E-1],"split_indices":[1,1,0,0,1,0,0,1,1,1,0,1,1,1,1,0,0,0,0,0,0,0,0,0,0,0,0,0,0,0,0],"split_type":[0,0,0,0,0,0,0,0,0,0,0,0,0,0,0,0,0,0,0,0,0,0,0,0,0,0,0,0,0,0,0],"sum_hessian":[7.237E3,6.178E3,1.059E3,5.68E2,5.61E3,2.6E2,7.99E2,4.81E2,8.7E1,4.212E3,1.398E3,1.35E2,1.25E2,6.21E2,1.78E2,2.48E2,2.33E2,2.7E1,6E1,1.368E3,2.844E3,5.44E2,8.54E2,6.5E1,7E1,4.7E1,7.8E1,2.96E2,3.25E2,6.5E1,1.13E2],"tree_param":{"num_deleted":"0","num_feature":"2","num_nodes":"31","size_leaf_vector":"1"}},{"base_weights":[-2.935515E-3,2.2732995E-1,-7.8844625E-1,-5.571158E-1,5.447117E-1,-5.375143E-1,-1.2380966E0,-2.1897079E-1,-2.1387203E0,8.47883E-1,4.276405E-2,-8.379376E-1,-3.1440473E-1,-1.3463758E0,-1.0343263E0,-1.3383858E-1,4.16809E-2,-1.2754561E-2,-2.7232096E-1,5.3031065E-2,1.14595234E-1,2.628748E-2,-2.3169803E-2,-5.330607E-2,-1.2080937E-1,-4.200416E-3,-9.706847E-2,-1.4487697E-1,-1.2748109E-1,-8.6695455E-2,-1.16472974E-1],"categories":[],"categories_nodes":[],"categories_segments":[],"categories_sizes":[],"default_left":[0,0,0,0,0,0,0,0,0,0,0,0,0,0,0,0,0,0,0,0,0,0,0,0,0,0,0,0,0,0,0],"id":20,"left_children":[1,3,5,7,9,11,13,15,17,19,21,23,25,27,29,-1,-1,-1,-1,-1,-1,-1,-1,-1,-1,-1,-1,-1,-1,-1,-1],"loss_changes":[1.3093597E3,1.3940305E3,1.8449121E2,8.62183E2,6.065376E2,7.045038E1,1.1559082E1,9.4712085E2,3.3349744E2,2.346189E2,9.0799805E1,5.002658E1,1.0847325E2,9.376831E-1,3.530014E0,0E0,0E0,0E0,0E0,0E0,0E0,0E0,0E0,0E0,0E0,0E0,0E0,0E0,0E0,0E0,0E0],"parents":[2147483647,0,0,1,1,2,2,3,3,4,4,5,5,6,6,7,7,8,8,9,9,10,10,11,11,12,12,13,13,14,14],"right_children":[2,4,6,8,10,12,14,16,18,20,22,24,26,28,30,-1,-1,-1,-1,-1,-1,-1,-1,-1,-1,-1,-1,-1,-1,-1,-1],"split_conditions":[2.1E1,9E0,2.3E1,7E0,1.7E1,5E0,6E0,4E0,3E0,1.3E1,6E0,2.2E1,7E0,3E0,7E0,-1.3383858E-1,4.16809E-2,-1.2754561E-2,-2.7232096E-1,5.3031065E-2,1.14595234E-1,2.628748E-2,-2.3169803E-2,-5.330607E-2,-1.2080937E-1,-4.200416E-3,-9.706847E-2,-1.4487697E-1,-1.2748109E-1,-8.6695455E-2,-1.16472974E-1],"split_indices":[1,1,1,0,1,0,0,1,1,1,0,1,0,0,0,0,0,0,0,0,0,0,0,0,0,0,0,0,0,0,0],"split_type":[0,0,0,0,0,0,0,0,0,0,0,0,0,0,0,0,0,0,0,0,0,0,0,0,0,0,0,0,0,0,0],"sum_hessian":[7.237E3,5.597E3,1.64E3,1.612E3,3.985E3,1.054E3,5.86E2,1.329E3,2.83E2,2.484E3,1.501E3,4.48E2,6.06E2,3.79E2,2.07E2,4.81E2,8.48E2,6.4E1,2.19E2,1.204E3,1.28E3,8.33E2,6.68E2,2.47E2,2.01E2,4.29E2,1.77E2,1.48E2,2.31E2,9.4E1,1.13E2],"tree_param":{"num_deleted":"0","num_feature":"2","num_nodes":"31","size_leaf_vector":"1"}},{"base_weights":[-2.774437E-3,2.3684591E-1,-6.218714E-1,-5.016383E-1,5.6702006E-1,-2.8213504E-1,-9.29291E-1,-1.9714323E-1,-1.9258524E0,7.6316166E-1,1.3248864E-1,-8.591831E-1,-3.636479E-2,-1.3157399E0,-8.020504E-1,-1.204825E-1,3.7517678E-2,-7.1050845E-2,-2.7248195E-1,4.7732275E-2,1.0314464E-1,5.6546766E-2,-4.8367225E-2,-1.4239618E-1,-4.9489673E-2,1.67845E-2,-5.0867196E-2,-1.0863179E-1,-1.5529275E-1,-6.3533254E-2,-1.3768911E-1],"categories":[],"categories_nodes":[],"categories_segments":[],"categories_sizes":[],"default_left":[0,0,0,0,0,0,0,0,0,0,0,0,0,0,0,0,0,0,0,0,0,0,0,0,0,0,0,0,0,0,0],"id":21,"left_children":[1,3,5,7,9,11,13,15,17,19,21,23,25,27,29,-1,-1,-1,-1,-1,-1,-1,-1,-1,-1,-1,-1,-1,-1,-1,-1],"loss_changes":[1.0738918E3,1.2728248E3,2.107099E2,6.991239E2,3.0732227E2,1.3625896E2,5.1066956E1,7.6748486E2,2.738335E2,1.9007288E2,2.9987274E2,5.8343033E1,6.518896E1,1.25155945E1,7.579425E1,0E0,0E0,0E0,0E0,0E0,0E0,0E0,0E0,0E0,0E0,0E0,0E0,0E0,0E0,0E0,0E0],"parents":[2147483647,0,0,1,1,2,2,3,3,4,4,5,5,6,6,7,7,8,8,9,9,10,10,11,11,12,12,13,13,14,14],"right_children":[2,4,6,8,10,12,14,16,18,20,22,24,26,28,30,-1,-1,-1,-1,-1,-1,-1,-1,-1,-1,-1,-1,-1,-1,-1,-1],"split_conditions":[2E1,9E0,2.2E1,7E0,1.7E1,4E0,3E0,4E0,5E0,1.3E1,6E0,2.1E1,7E0,2E0,7E0,-1.204825E-1,3.7517678E-2,-7.1050845E-2,-2.7248195E-1,4.7732275E-2,1.0314464E-1,5.6546766E-2,-4.8367225E-2,-1.4239618E-1,-4.9489673E-2,1.67845E-2,-5.0867196E-2,-1.0863179E-1,-1.5529275E-1,-6.3533254E-2,-1.3768911E-1],"split_indices":[1,1,1,0,1,0,0,1,1,1,0,1,0,0,0,0,0,0,0,0,0,0,0,0,0,0,0,0,0,0,0],"split_type":[0,0,0,0,0,0,0,0,0,0,0,0,0,0,0,0,0,0,0,0,0,0,0,0,0,0,0,0,0,0,0],"sum_hessian":[7.237E3,5.218E3,2.019E3,1.612E3,3.606E3,9.6E2,1.059E3,1.329E3,2.83E2,2.484E3,1.122E3,2.86E2,6.74E2,2.6E2,7.99E2,4.81E2,8.48E2,1.13E2,1.7E2,1.204E3,1.28E3,6.59E2,4.63E2,1.11E2,1.75E2,4.71E2,2.03E2,1.35E2,1.25E2,6.21E2,1.78E2],"tree_param":{"num_deleted":"0","num_feature":"2","num_nodes":"31","size_leaf_vector":"1"}},{"base_weights":[-2.62916E-3,1.8555105E-1,-6.445732E-1,-7.329416E-1,3.679907E-1,-4.3517247E-1,-1.0198257E0,-3.7284517E-1,-1.3517209E0,5.072131E-1,-1.4036405E-1,-6.93359E-1,-2.4347404E-1,-1.1219465E0,-8.2835597E-1,-8.915688E-2,1.4084391E-1,-8.328997E-2,-2.7894017E-1,7.3405825E-2,2.9083572E-3,-3.0916512E-1,7.3738187E-3,-4.4992056E-2,-9.888016E-2,-1.5895127E-3,-7.918755E-2,-1.0687782E-1,-1.2790547E-1,-7.1830735E-2,-9.127969E-2],"categories":[],"categories_nodes":[],"categories_segments":[],"categories_sizes":[],"default_left":[0,0,0,0,0,0,0,0,0,0,0,0,0,0,0,0,0,0,0,0,0,0,0,0,0,0,0,0,0,0,0],"id":22,"left_children":[1,3,5,7,9,11,13,15,17,19,21,23,25,27,29,-1,-1,-1,-1,-1,-1,-1,-1,-1,-1,-1,-1,-1,-1,-1,-1],"loss_changes":[8.7447845E2,9.383237E2,1.2850293E2,2.0627316E2,3.3065826E2,5.2047318E1,1.0548279E1,5.445644E2,2.5202838E2,3.9770642E2,6.352645E2,3.1848145E1,7.5743805E1,1.8072205E0,1.2772064E0,0E0,0E0,0E0,0E0,0E0,0E0,0E0,0E0,0E0,0E0,0E0,0E0,0E0,0E0,0E0,0E0],"parents":[2147483647,0,0,1,1,2,2,3,3,4,4,5,5,6,6,7,7,8,8,9,9,10,10,11,11,12,12,13,13,14,14],"right_children":[2,4,6,8,10,12,14,16,18,20,22,24,26,28,30,-1,-1,-1,-1,-1,-1,-1,-1,-1,-1,-1,-1,-1,-1,-1,-1],"split_conditions":[2.1E1,6E0,2.3E1,6E0,7E0,5E0,6E0,5E0,5E0,1.7E1,7E0,2.2E1,7E0,5E0,7E0,-8.915688E-2,1.4084391E-1,-8.328997E-2,-2.7894017E-1,7.3405825E-2,2.9083572E-3,-3.0916512E-1,7.3738187E-3,-4.4992056E-2,-9.888016E-2,-1.5895127E-3,-7.918755E-2,-1.0687782E-1,-1.2790547E-1,-7.1830735E-2,-9.127969E-2],"split_indices":[1,1,1,0,0,0,0,1,1,1,1,1,0,0,0,0,0,0,0,0,0,0,0,0,0,0,0,0,0,0,0],"split_type":[0,0,0,0,0,0,0,0,0,0,0,0,0,0,0,0,0,0,0,0,0,0,0,0,0,0,0,0,0,0,0],"sum_hessian":[7.237E3,5.597E3,1.64E3,9.27E2,4.67E3,1.054E3,5.86E2,5.87E2,3.4E2,3.666E3,1.004E3,4.48E2,6.06E2,3.79E2,2.07E2,4.55E2,1.32E2,2.51E2,8.9E1,2.486E3,1.18E3,6.7E1,9.37E2,2.47E2,2.01E2,4.29E2,1.77E2,2.89E2,9E1,9.4E1,1.13E2],"tree_param":{"num_deleted":"0","num_feature":"2","num_nodes":"31","size_leaf_vector":"1"}},{"base_weights":[-2.5264707E-3,1.9339405E-1,-5.087179E-1,-4.2156628E-1,4.683421E-1,-8.830281E-1,-3.1599468E-1,-1.6685337E-1,-1.6129276E0,5.8527136E-1,-1.6365591E-2,-1.2857199E0,-8.03055E-1,-1.6074551E-2,-6.217891E-1,-9.969957E-2,3.0463714E-2,3.6978896E-3,-2.0930684E-1,8.273448E-2,3.0986309E-2,4.6763074E-2,-2.5626937E-2,-1.6041316E-1,-7.759928E-2,-4.0095113E-2,-9.779731E-2,1.5761603E-2,-4.1786805E-2,-4.2341508E-2,-1.1535927E-1],"categories":[],"categories_nodes":[],"categories_segments":[],"categories_sizes":[],"default_left":[0,0,0,0,0,0,0,0,0,0,0,0,0,0,0,0,0,0,0,0,0,0,0,0,0,0,0,0,0,0,0],"id":23,"left_children":[1,3,5,7,9,11,13,15,17,19,21,23,25,27,29,-1,-1,-1,-1,-1,-1,-1,-1,-1,-1,-1,-1,-1,-1,-1,-1],"loss_changes":[7.179146E2,8.826372E2,1.4544025E2,4.8920398E2,2.0444177E2,2.1059814E1,1.2242804E2,5.2087134E2,2.2505865E2,1.9348383E2,8.1630844E1,1.6933151E1,4.005063E1,4.7172592E1,6.9244415E1,0E0,0E0,0E0,0E0,0E0,0E0,0E0,0E0,0E0,0E0,0E0,0E0,0E0,0E0,0E0,0E0],"parents":[2147483647,0,0,1,1,2,2,3,3,4,4,5,5,6,6,7,7,8,8,9,9,10,10,11,11,12,12,13,13,14,14],"right_children":[2,4,6,8,10,12,14,16,18,20,22,24,26,28,30,-1,-1,-1,-1,-1,-1,-1,-1,-1,-1,-1,-1,-1,-1,-1,-1],"split_conditions":[2E1,9E0,4E0,7E0,1.8E1,2.1E1,2.2E1,4E0,3E0,6E0,4E0,3E0,2.2E1,7E0,7E0,-9.969957E-2,3.0463714E-2,3.6978896E-3,-2.0930684E-1,8.273448E-2,3.0986309E-2,4.6763074E-2,-2.5626937E-2,-1.6041316E-1,-7.759928E-2,-4.0095113E-2,-9.779731E-2,1.5761603E-2,-4.1786805E-2,-4.2341508E-2,-1.1535927E-1],"split_indices":[1,1,0,0,1,1,1,1,1,0,0,0,1,0,0,0,0,0,0,0,0,0,0,0,0,0,0,0,0,0,0],"split_type":[0,0,0,0,0,0,0,0,0,0,0,0,0,0,0,0,0,0,0,0,0,0,0,0,0,0,0,0,0,0,0],"sum_hessian":[7.237E3,5.218E3,2.019E3,1.612E3,3.606E3,6.85E2,1.334E3,1.329E3,2.83E2,2.905E3,7.01E2,1.11E2,5.74E2,6.74E2,6.6E2,4.81E2,8.48E2,6.4E1,2.19E2,1.545E3,1.36E3,2.32E2,4.69E2,6.7E1,4.4E1,1.75E2,3.99E2,4.71E2,2.03E2,4.82E2,1.78E2],"tree_param":{"num_deleted":"0","num_feature":"2","num_nodes":"31","size_leaf_vector":"1"}},{"base_weights":[-2.3707198E-3,1.515553E-1,-5.274624E-1,-3.7958035E-1,3.6644998E-1,-3.5349092E-1,-8.392384E-1,-1.5022042E-1,-1.452359E0,5.267829E-1,-6.490407E-2,-5.730211E-1,-1.9052128E-1,-9.32677E-1,-6.644985E-1,-1.3336514E-1,1.2226068E-2,3.3337902E-3,-1.8847132E-1,7.446632E-2,2.7889913E-2,-8.3037384E-2,1.098114E-2,-3.3322405E-2,-8.102714E-2,-2.0634274E-4,-6.447143E-2,-8.736052E-2,-1.11067854E-1,-6.0533714E-2,-7.079707E-2],"categories":[],"categories_nodes":[],"categories_segments":[],"categories_sizes":[],"default_left":[0,0,0,0,0,0,0,0,0,0,0,0,0,0,0,0,0,0,0,0,0,0,0,0,0,0,0,0,0,0,0],"id":24,"left_children":[1,3,5,7,9,11,13,15,17,19,21,23,25,27,29,-1,-1,-1,-1,-1,-1,-1,-1,-1,-1,-1,-1,-1,-1,-1,-1],"loss_changes":[5.850933E2,6.390849E2,8.8711426E1,3.9666437E2,2.757069E2,3.7635315E1,8.964447E0,4.2903833E2,1.824895E2,1.5674237E2,1.4466348E2,2.5274475E1,5.195559E1,3.02536E0,1.0638428E-1,0E0,0E0,0E0,0E0,0E0,0E0,0E0,0E0,0E0,0E0,0E0,0E0,0E0,0E0,0E0,0E0],"parents":[2147483647,0,0,1,1,2,2,3,3,4,4,5,5,6,6,7,7,8,8,9,9,10,10,11,11,12,12,13,13,14,14],"right_children":[2,4,6,8,10,12,14,16,18,20,22,24,26,28,30,-1,-1,-1,-1,-1,-1,-1,-1,-1,-1,-1,-1,-1,-1,-1,-1],"split_conditions":[2.1E1,9E0,2.3E1,7E0,1.8E1,5E0,6E0,3E0,3E0,6E0,3E0,3E0,7E0,5E0,7E0,-1.3336514E-1,1.2226068E-2,3.3337902E-3,-1.8847132E-1,7.446632E-2,2.7889913E-2,-8.3037384E-2,1.098114E-2,-3.3322405E-2,-8.102714E-2,-2.0634274E-4,-6.447143E-2,-8.736052E-2,-1.11067854E-1,-6.0533714E-2,-7.079707E-2],"split_indices":[1,1,1,0,1,0,0,1,1,0,0,0,0,0,0,0,0,0,0,0,0,0,0,0,0,0,0,0,0,0,0],"split_type":[0,0,0,0,0,0,0,0,0,0,0,0,0,0,0,0,0,0,0,0,0,0,0,0,0,0,0,0,0,0,0],"sum_hessian":[7.237E3,5.597E3,1.64E3,1.612E3,3.985E3,1.054E3,5.86E2,1.329E3,2.83E2,2.905E3,1.08E3,4.48E2,6.06E2,3.79E2,2.07E2,2.48E2,1.081E3,6.4E1,2.19E2,1.545E3,1.36E3,2E2,8.8E2,2.24E2,2.24E2,4.29E2,1.77E2,2.89E2,9E1,9.4E1,1.13E2],"tree_param":{"num_deleted":"0","num_feature":"2","num_nodes":"31","size_leaf_vector":"1"}},{"base_weights":[-2.2421158E-3,1.8278407E-1,-3.6213145E-1,-2.8896728E-1,5.039087E-1,-6.282109E-1,-1.6848369E-1,-9.1030054E-2,-1.2352492E0,7.929958E-1,1.5233758E-1,-4.9604085E-1,-7.7363753E-1,-2.1579105E-2,-7.234937E-1,-8.347938E-2,2.2856455E-2,9.657078E-2,-1.4313255E-1,5.2405804E-2,1.2457239E-1,3.8744226E-2,-7.760076E-2,-6.390192E-2,-3.222361E-2,-9.2088096E-2,-6.0392257E-2,1.7469091E-2,-4.0786438E-2,-1.00083135E-1,-5.986802E-2],"categories":[],"categories_nodes":[],"categories_segments":[],"categories_sizes":[],"default_left":[0,0,0,0,0,0,0,0,0,0,0,0,0,0,0,0,0,0,0,0,0,0,0,0,0,0,0,0,0,0,0],"id":25,"left_children":[1,3,5,7,9,11,13,15,17,19,21,23,25,27,29,-1,-1,-1,-1,-1,-1,-1,-1,-1,-1,-1,-1,-1,-1,-1,-1],"loss_changes":[4.82037E2,7.2442395E2,1.2654428E2,3.6269623E2,2.890299E2,1.951004E1,1.16088104E2,3.812285E2,1.4595346E2,1.8940771E2,2.807626E2,1.3337509E1,1.1713654E1,8.551612E1,9.716248E0,0E0,0E0,0E0,0E0,0E0,0E0,0E0,0E0,0E0,0E0,0E0,0E0,0E0,0E0,0E0,0E0],"parents":[2147483647,0,0,1,1,2,2,3,3,4,4,5,5,6,6,7,7,8,8,9,9,10,10,11,11,12,12,13,13,14,14],"right_children":[2,4,6,8,10,12,14,16,18,20,22,24,26,28,30,-1,-1,-1,-1,-1,-1,-1,-1,-1,-1,-1,-1,-1,-1,-1,-1],"split_conditions":[1.9E1,1E1,5E0,7E0,6E0,2.2E1,2.3E1,4E0,2E0,1.6E1,1.7E1,2.1E1,3E0,7E0,6E0,-8.347938E-2,2.2856455E-2,9.657078E-2,-1.4313255E-1,5.2405804E-2,1.2457239E-1,3.8744226E-2,-7.760076E-2,-6.390192E-2,-3.222361E-2,-9.2088096E-2,-6.0392257E-2,1.7469091E-2,-4.0786438E-2,-1.00083135E-1,-5.986802E-2],"split_indices":[1,1,0,0,0,1,1,1,1,1,1,1,0,0,0,0,0,0,0,0,0,0,0,0,0,0,0,0,0,0,0],"split_type":[0,0,0,0,0,0,0,0,0,0,0,0,0,0,0,0,0,0,0,0,0,0,0,0,0,0,0,0,0,0,0],"sum_hessian":[7.237E3,4.78E3,2.457E3,1.936E3,2.844E3,1.034E3,1.423E3,1.602E3,3.34E2,1.56E3,1.284E3,5.44E2,4.9E2,1.126E3,2.97E2,4.81E2,1.121E3,2.7E1,3.07E2,9.8E2,5.8E2,1.025E3,2.59E2,2.97E2,2.47E2,2.6E2,2.3E2,7.47E2,3.79E2,9E1,2.07E2],"tree_param":{"num_deleted":"0","num_feature":"2","num_nodes":"31","size_leaf_vector":"1"}},{"base_weights":[-2.0733187E-3,1.2461491E-1,-4.3424797E-1,-5.1325005E-1,2.5131455E-1,-2.9615733E-1,-6.81695E-1,-2.1327789E-1,-1.0289991E0,3.3942893E-1,-7.044337E-2,-4.6330553E-1,-1.7202932E-1,-7.579529E-1,-5.3910017E-1,-6.260664E-2,1.2036007E-1,-5.1488407E-2,-2.4570878E-1,5.09273E-2,-1.8523263E-3,-2.2540767E-1,8.79335E-3,-2.3817016E-2,-6.8638176E-2,-1.9286693E-3,-5.4004785E-2,-7.1018614E-2,-9.018478E-2,-4.8620317E-2,-5.78452E-2],"categories":[],"categories_nodes":[],"categories_segments":[],"categories_sizes":[],"default_left":[0,0,0,0,0,0,0,0,0,0,0,0,0,0,0,0,0,0,0,0,0,0,0,0,0,0,0,0,0,0,0],"id":26,"left_children":[1,3,5,7,9,11,13,15,17,19,21,23,25,27,29,-1,-1,-1,-1,-1,-1,-1,-1,-1,-1,-1,-1,-1,-1,-1,-1],"loss_changes":[3.96345E2,4.525441E2,5.5871277E1,1.4335175E2,1.3245377E2,2.1809196E1,5.9744263E0,3.446578E2,2.4909769E2,2.2294855E2,3.477644E2,2.2386375E1,3.411034E1,1.971405E0,1.5172195E-1,0E0,0E0,0E0,0E0,0E0,0E0,0E0,0E0,0E0,0E0,0E0,0E0,0E0,0E0,0E0,0E0],"parents":[2147483647,0,0,1,1,2,2,3,3,4,4,5,5,6,6,7,7,8,8,9,9,10,10,11,11,12,12,13,13,14,14],"right_children":[2,4,6,8,10,12,14,16,18,20,22,24,26,28,30,-1,-1,-1,-1,-1,-1,-1,-1,-1,-1,-1,-1,-1,-1,-1,-1],"split_conditions":[2.1E1,6E0,2.3E1,6E0,7E0,5E0,6E0,5E0,5E0,1.7E1,7E0,3E0,7E0,5E0,7E0,-6.260664E-2,1.2036007E-1,-5.1488407E-2,-2.4570878E-1,5.09273E-2,-1.8523263E-3,-2.2540767E-1,8.79335E-3,-2.3817016E-2,-6.8638176E-2,-1.9286693E-3,-5.4004785E-2,-7.1018614E-2,-9.018478E-2,-4.8620317E-2,-5.78452E-2],"split_indices":[1,1,1,0,0,0,0,1,1,1,1,0,0,0,0,0,0,0,0,0,0,0,0,0,0,0,0,0,0,0,0],"split_type":[0,0,0,0,0,0,0,0,0,0,0,0,0,0,0,0,0,0,0,0,0,0,0,0,0,0,0,0,0,0,0],"sum_hessian":[7.237E3,5.597E3,1.64E3,9.27E2,4.67E3,1.054E3,5.86E2,5.87E2,3.4E2,3.666E3,1.004E3,4.48E2,6.06E2,3.79E2,2.07E2,4.55E2,1.32E2,2.51E2,8.9E1,2.486E3,1.18E3,6.7E1,9.37E2,2.24E2,2.24E2,4.29E2,1.77E2,2.89E2,9E1,9.4E1,1.13E2],"tree_param":{"num_deleted":"0","num_feature":"2","num_nodes":"31","size_leaf_vector":"1"}},{"base_weights":[-1.9799725E-3,8.627367E-2,-5.1643026E-1,-4.6218297E-1,1.8316656E-1,-4.4570363E-1,-8.620418E-1,1.7374533E-1,-6.671595E-1,2.9732934E-1,-1.3146277E-1,-5.770736E-1,-2.25717E-2,-1.4378552E-1,-5.2111443E-2,-6.7582384E-2,9.6424416E-2,-4.2057727E-2,-9.269708E-2,-5.4167146E-3,4.2200916E-2,-4.237073E-2,5.4975506E-3,-7.7865414E-2,-4.4828523E-2,3.179219E-2,-4.3809474E-2],"categories":[],"categories_nodes":[],"categories_segments":[],"categories_sizes":[],"default_left":[0,0,0,0,0,0,0,0,0,0,0,0,0,0,0,0,0,0,0,0,0,0,0,0,0,0,0],"id":27,"left_children":[1,3,5,7,9,11,13,15,17,19,21,23,25,-1,-1,-1,-1,-1,-1,-1,-1,-1,-1,-1,-1,-1,-1],"loss_changes":[3.2866504E2,3.284463E2,2.5526367E1,1.21081085E2,1.8868542E2,4.9014557E1,3.4390305E1,1.5310109E2,4.458362E1,1.6892255E2,7.624859E1,1.7122864E1,2.9850697E1,0E0,0E0,0E0,0E0,0E0,0E0,0E0,0E0,0E0,0E0,0E0,0E0,0E0,0E0],"parents":[2147483647,0,0,1,1,2,2,3,3,4,4,5,5,6,6,7,7,8,8,9,9,10,10,11,11,12,12],"right_children":[2,4,6,8,10,12,14,16,18,20,22,24,26,-1,-1,-1,-1,-1,-1,-1,-1,-1,-1,-1,-1,-1,-1],"split_conditions":[2.2E1,6E0,7E0,3E0,1.9E1,6E0,2.3E1,2E0,6E0,1E1,5E0,3E0,2.3E1,-1.4378552E-1,-5.2111443E-2,-6.7582384E-2,9.6424416E-2,-4.2057727E-2,-9.269708E-2,-5.4167146E-3,4.2200916E-2,-4.237073E-2,5.4975506E-3,-7.7865414E-2,-4.4828523E-2,3.179219E-2,-4.3809474E-2],"split_indices":[1,1,0,0,1,0,1,0,0,1,0,0,1,0,0,0,0,0,0,0,0,0,0,0,0,0,0],"split_type":[0,0,0,0,0,0,0,0,0,0,0,0,0,0,0,0,0,0,0,0,0,0,0,0,0,0,0],"sum_hessian":[7.237E3,6.178E3,1.059E3,9.27E2,5.251E3,8.81E2,1.78E2,2.26E2,7.01E2,3.853E3,1.398E3,6.72E2,2.09E2,6.5E1,1.13E2,1.09E2,1.17E2,3.61E2,3.4E2,1.009E3,2.844E3,5.44E2,8.54E2,2.6E2,4.12E2,1.15E2,9.4E1],"tree_param":{"num_deleted":"0","num_feature":"2","num_nodes":"27","size_leaf_vector":"1"}},{"base_weights":[-1.8420214E-3,7.762948E-2,-4.6509913E-1,-4.160788E-1,1.6485028E-1,-4.0128604E-1,-7.769319E-1,1.5649793E-1,-6.006356E-1,2.819439E-1,-8.8247195E-2,-5.195486E-1,-2.0371838E-2,-1.2962483E-1,-4.694598E-2,-1.3463457E-1,5.777658E-2,-3.7863586E-2,-8.345454E-2,7.610343E-3,5.103555E-2,-5.6897134E-2,-4.6059308E-3,-7.0108704E-2,-4.0356535E-2,2.864033E-2,-3.9474603E-2],"categories":[],"categories_nodes":[],"categories_segments":[],"categories_sizes":[],"default_left":[0,0,0,0,0,0,0,0,0,0,0,0,0,0,0,0,0,0,0,0,0,0,0,0,0,0,0],"id":28,"left_children":[1,3,5,7,9,11,13,15,17,19,21,23,25,-1,-1,-1,-1,-1,-1,-1,-1,-1,-1,-1,-1,-1,-1],"loss_changes":[2.665084E2,2.6614645E2,2.0781189E1,9.815845E1,1.5567366E2,3.9721664E1,2.7973335E1,1.4449152E2,3.6137405E1,1.6879688E2,3.368038E1,1.388736E1,2.4231281E1,0E0,0E0,0E0,0E0,0E0,0E0,0E0,0E0,0E0,0E0,0E0,0E0,0E0,0E0],"parents":[2147483647,0,0,1,1,2,2,3,3,4,4,5,5,6,6,7,7,8,8,9,9,10,10,11,11,12,12],"right_children":[2,4,6,8,10,12,14,16,18,20,22,24,26,-1,-1,-1,-1,-1,-1,-1,-1,-1,-1,-1,-1,-1,-1],"split_conditions":[2.2E1,6E0,7E0,3E0,1.8E1,6E0,2.3E1,3E0,6E0,1.3E1,2E0,3E0,2.3E1,-1.2962483E-1,-4.694598E-2,-1.3463457E-1,5.777658E-2,-3.7863586E-2,-8.345454E-2,7.610343E-3,5.103555E-2,-5.6897134E-2,-4.6059308E-3,-7.0108704E-2,-4.0356535E-2,2.864033E-2,-3.9474603E-2],"split_indices":[1,1,0,0,1,0,1,1,0,1,0,0,1,0,0,0,0,0,0,0,0,0,0,0,0,0,0],"split_type":[0,0,0,0,0,0,0,0,0,0,0,0,0,0,0,0,0,0,0,0,0,0,0,0,0,0,0],"sum_hessian":[7.237E3,6.178E3,1.059E3,9.27E2,5.251E3,8.81E2,1.78E2,2.26E2,7.01E2,3.59E3,1.661E3,6.72E2,2.09E2,6.5E1,1.13E2,4.9E1,1.77E2,3.61E2,3.4E2,1.889E3,1.701E3,1.33E2,1.528E3,2.6E2,4.12E2,1.15E2,9.4E1],"tree_param":{"num_deleted":"0","num_feature":"2","num_nodes":"27","size_leaf_vector":"1"}},{"base_weights":[-1.7265358E-3,1.2257406E-1,-2.435001E-1,-2.0889485E-1,3.4820944E-1,-4.4001898E-1,-1.00494094E-1,-4.9240872E-2,-9.7222745E-1,6.075058E-1,3.294891E-2,-3.6837316E-1,-5.186482E-1,4.6007624E-3,-4.9761292E-1,-1.0162065E-1,1.1101888E-2,-7.974573E-3,-1.4261495E-1,3.51858E-2,1.0381134E-1,2.3856211E-2,-7.785591E-2,-5.189457E-2,-1.8595785E-2,-6.312469E-2,-3.8918115E-2,1.5968053E-2,-3.0067364E-2,-7.284051E-2,-3.9424896E-2],"categories":[],"categories_nodes":[],"categories_segments":[],"categories_sizes":[],"default_left":[0,0,0,0,0,0,0,0,0,0,0,0,0,0,0,0,0,0,0,0,0,0,0,0,0,0,0,0,0,0,0],"id":29,"left_children":[1,3,5,7,9,11,13,15,17,19,21,23,25,27,29,-1,-1,-1,-1,-1,-1,-1,-1,-1,-1,-1,-1,-1,-1,-1,-1],"loss_changes":[2.1755054E2,3.5764905E2,6.903389E1,2.3601256E2,2.3254706E2,5.6395874E0,5.9433136E1,2.485228E2,1.3560052E2,1.7147565E2,2.1459666E2,1.4872871E1,6.9120483E0,5.3402313E1,6.821808E0,0E0,0E0,0E0,0E0,0E0,0E0,0E0,0E0,0E0,0E0,0E0,0E0,0E0,0E0,0E0,0E0],"parents":[2147483647,0,0,1,1,2,2,3,3,4,4,5,5,6,6,7,7,8,8,9,9,10,10,11,11,12,12,13,13,14,14],"right_children":[2,4,6,8,10,12,14,16,18,20,22,24,26,28,30,-1,-1,-1,-1,-1,-1,-1,-1,-1,-1,-1,-1,-1,-1,-1,-1],"split_conditions":[1.9E1,1E1,5E0,7E0,6E0,2.2E1,2.3E1,2E0,5E0,1.6E1,1.7E1,2.1E1,3E0,7E0,6E0,-1.0162065E-1,1.1101888E-2,-7.974573E-3,-1.4261495E-1,3.51858E-2,1.0381134E-1,2.3856211E-2,-7.785591E-2,-5.189457E-2,-1.8595785E-2,-6.312469E-2,-3.8918115E-2,1.5968053E-2,-3.0067364E-2,-7.284051E-2,-3.9424896E-2],"split_indices":[1,1,0,0,0,1,1,0,1,1,1,1,0,0,0,0,0,0,0,0,0,0,0,0,0,0,0,0,0,0,0],"split_type":[0,0,0,0,0,0,0,0,0,0,0,0,0,0,0,0,0,0,0,0,0,0,0,0,0,0,0,0,0,0,0],"sum_hessian":[7.237E3,4.78E3,2.457E3,1.936E3,2.844E3,1.034E3,1.423E3,1.602E3,3.34E2,1.56E3,1.284E3,5.44E2,4.9E2,1.126E3,2.97E2,2.27E2,1.375E3,1.13E2,2.21E2,9.8E2,5.8E2,1.025E3,2.59E2,2.97E2,2.47E2,2.6E2,2.3E2,7.47E2,3.79E2,9E1,2.07E2],"tree_param":{"num_deleted":"0","num_feature":"2","num_nodes":"31","size_leaf_vector":"1"}},{"base_weights":[-1.6168745E-3,8.39388E-2,-2.934749E-1,-3.672301E-1,1.7355575E-1,-2.0031455E-1,-4.604097E-1,1.8358304E-1,-5.448189E-1,2.4268846E-1,-7.886535E-2,-2.9872763E-1,-1.2718804E-1,-5.1688856E-1,-3.550136E-1,-1.17117696E-1,5.6310225E-2,-3.519484E-2,-7.479694E-2,1.4749157E-1,2.002253E-2,-1.893627E-1,5.277928E-3,-6.651204E-3,-5.2961554E-2,-3.1691145E-3,-3.5716828E-2,-4.713395E-2,-6.56365E-2,-3.1667713E-2,-3.8384654E-2],"categories":[],"categories_nodes":[],"categories_segments":[],"categories_sizes":[],"default_left":[0,0,0,0,0,0,0,0,0,0,0,0,0,0,0,0,0,0,0,0,0,0,0,0,0,0,0,0,0,0,0],"id":30,"left_children":[1,3,5,7,9,11,13,15,17,19,21,23,25,27,29,-1,-1,-1,-1,-1,-1,-1,-1,-1,-1,-1,-1,-1,-1,-1,-1],"loss_changes":[1.807583E2,2.2640417E2,2.5428131E1,9.087535E1,8.1530685E1,7.5544243E0,3.3106995E0,1.1737322E2,2.724231E1,1.9157784E2,2.401981E2,2.403825E1,1.3319857E1,2.1047897E0,1.0835838E-1,0E0,0E0,0E0,0E0,0E0,0E0,0E0,0E0,0E0,0E0,0E0,0E0,0E0,0E0,0E0,0E0],"parents":[2147483647,0,0,1,1,2,2,3,3,4,4,5,5,6,6,7,7,8,8,9,9,10,10,11,11,12,12,13,13,14,14],"right_children":[2,4,6,8,10,12,14,16,18,20,22,24,26,28,30,-1,-1,-1,-1,-1,-1,-1,-1,-1,-1,-1,-1,-1,-1,-1,-1],"split_conditions":[2.1E1,6E0,2.3E1,3E0,7E0,5E0,6E0,3E0,6E0,7E0,7E0,3E0,7E0,5E0,7E0,-1.17117696E-1,5.6310225E-2,-3.519484E-2,-7.479694E-2,1.4749157E-1,2.002253E-2,-1.893627E-1,5.277928E-3,-6.651204E-3,-5.2961554E-2,-3.1691145E-3,-3.5716828E-2,-4.713395E-2,-6.56365E-2,-3.1667713E-2,-3.8384654E-2],"split_indices":[1,1,1,0,0,0,0,1,0,1,1,0,0,0,0,0,0,0,0,0,0,0,0,0,0,0,0,0,0,0,0],"split_type":[0,0,0,0,0,0,0,0,0,0,0,0,0,0,0,0,0,0,0,0,0,0,0,0,0,0,0,0,0,0,0],"sum_hessian":[7.237E3,5.597E3,1.64E3,9.27E2,4.67E3,1.054E3,5.86E2,2.26E2,7.01E2,3.666E3,1.004E3,4.48E2,6.06E2,3.79E2,2.07E2,4.9E1,1.77E2,3.61E2,3.4E2,1.21E2,3.545E3,6.7E1,9.37E2,2.24E2,2.24E2,4.29E2,1.77E2,2.89E2,9E1,9.4E1,1.13E2],"tree_param":{"num_deleted":"0","num_feature":"2","num_nodes":"31","size_leaf_vector":"1"}},{"base_weights":[-1.5202113E-3,1.0321456E-1,-2.0523684E-1,-1.8073978E-1,2.965068E-1,-3.291218E-1,-2.7301613E-2,-4.9022965E-2,-8.1047505E-1,5.268344E-1,1.6477259E-2,-1.1747235E-1,-3.6978725E-1,2.1129534E-1,-2.7794242E-1,-9.469184E-2,9.979185E-3,1.1719117E-1,-9.880606E-2,2.967061E-2,9.144919E-2,2.01623E-2,-7.141997E-2,1.6478293E-2,-4.1343253E-2,-6.888493E-2,-3.1579528E-2,5.660937E-2,-2.6676834E-3,-7.858342E-3,-6.27217E-2],"categories":[],"categories_nodes":[],"categories_segments":[],"categories_sizes":[],"default_left":[0,0,0,0,0,0,0,0,0,0,0,0,0,0,0,0,0,0,0,0,0,0,0,0,0,0,0,0,0,0,0],"id":31,"left_children":[1,3,5,7,9,11,13,15,17,19,21,23,25,27,29,-1,-1,-1,-1,-1,-1,-1,-1,-1,-1,-1,-1,-1,-1,-1,-1],"loss_changes":[1.5445271E2,2.6246436E2,5.4173943E1,1.6062808E2,1.8348965E2,1.2427826E1,6.0458885E1,2.1428758E2,1.1909242E2,1.3898706E2,1.7398099E2,1.9699158E1,2.0713028E1,4.3750942E1,3.4278812E1,0E0,0E0,0E0,0E0,0E0,0E0,0E0,0E0,0E0,0E0,0E0,0E0,0E0,0E0,0E0,0E0],"parents":[2147483647,0,0,1,1,2,2,3,3,4,4,5,5,6,6,7,7,8,8,9,9,10,10,11,11,12,12,13,13,14,14],"right_children":[2,4,6,8,10,12,14,16,18,20,22,24,26,28,30,-1,-1,-1,-1,-1,-1,-1,-1,-1,-1,-1,-1,-1,-1,-1,-1],"split_conditions":[1.9E1,1E1,6E0,7E0,6E0,2E1,7E0,2E0,2E0,1.6E1,1.7E1,4E0,2.1E1,2.1E1,2.2E1,-9.469184E-2,9.979185E-3,1.1719117E-1,-9.880606E-2,2.967061E-2,9.144919E-2,2.01623E-2,-7.141997E-2,1.6478293E-2,-4.1343253E-2,-6.888493E-2,-3.1579528E-2,5.660937E-2,-2.6676834E-3,-7.858342E-3,-6.27217E-2],"split_indices":[1,1,0,0,0,1,0,0,1,1,1,0,1,1,1,0,0,0,0,0,0,0,0,0,0,0,0,0,0,0,0],"split_type":[0,0,0,0,0,0,0,0,0,0,0,0,0,0,0,0,0,0,0,0,0,0,0,0,0,0,0,0,0,0,0],"sum_hessian":[7.237E3,4.78E3,2.457E3,1.936E3,2.844E3,1.448E3,1.009E3,1.602E3,3.34E2,1.56E3,1.284E3,2.34E2,1.214E3,5.17E2,4.92E2,2.27E2,1.375E3,2.7E1,3.07E2,9.8E2,5.8E2,1.025E3,2.59E2,1.2E2,1.14E2,1.74E2,1.04E3,2.07E2,3.1E2,3.14E2,1.78E2],"tree_param":{"num_deleted":"0","num_feature":"2","num_nodes":"31","size_leaf_vector":"1"}},{"base_weights":[-1.3873848E-3,-4.6011943E-1,3.7746035E-2,-8.4241045E-1,-1.9251162E-1,1.8072636E-1,-1.698284E-1,-1.4238709E-1,-1.8472109E0,6.343031E-1,-4.204092E-1,3.6484677E-1,-4.601739E-2,-7.524218E-2,-3.1797224E-1,-1.0430168E-1,7.1018524E-2,-1.4738877E-1,-2.1611904E-1,-4.4318177E-2,1.1388097E-1,3.5248496E-2,-6.9035456E-2,1.8240087E-2,1.1939776E-1,-9.244537E-2,8.6348355E-3,-5.3305138E-2,-3.5071038E-3,-2.6750928E-2,-5.648457E-2],"categories":[],"categories_nodes":[],"categories_segments":[],"categories_sizes":[],"default_left":[0,0,0,0,0,0,0,0,0,0,0,0,0,0,0,0,0,0,0,0,0,0,0,0,0,0,0,0,0,0,0],"id":32,"left_children":[1,3,5,7,9,11,13,15,17,19,21,23,25,27,29,-1,-1,-1,-1,-1,-1,-1,-1,-1,-1,-1,-1,-1,-1,-1,-1],"loss_changes":[1.2995216E2,5.8048836E1,1.9799002E2,1.6432877E2,6.357883E1,1.6492198E2,3.810372E1,1.0747216E2,8.067352E0,4.018738E1,5.532408E1,3.2955405E2,2.0600264E2,3.0546677E1,1.3054337E1,0E0,0E0,0E0,0E0,0E0,0E0,0E0,0E0,0E0,0E0,0E0,0E0,0E0,0E0,0E0,0E0],"parents":[2147483647,0,0,1,1,2,2,3,3,4,4,5,5,6,6,7,7,8,8,9,9,10,10,11,11,12,12,13,13,14,14],"right_children":[2,4,6,8,10,12,14,16,18,20,22,24,26,28,30,-1,-1,-1,-1,-1,-1,-1,-1,-1,-1,-1,-1,-1,-1,-1,-1],"split_conditions":[4E0,4E0,1.8E1,3E0,5E0,6E0,2.2E1,2E0,3E0,3E0,2E0,1.6E1,7E0,2E0,7E0,-1.0430168E-1,7.1018524E-2,-1.4738877E-1,-2.1611904E-1,-4.4318177E-2,1.1388097E-1,3.5248496E-2,-6.9035456E-2,1.8240087E-2,1.1939776E-1,-9.244537E-2,8.6348355E-3,-5.3305138E-2,-3.5071038E-3,-2.6750928E-2,-5.648457E-2],"split_indices":[1,0,1,0,0,0,1,0,1,1,1,1,1,0,0,0,0,0,0,0,0,0,0,0,0,0,0,0,0,0,0],"split_type":[0,0,0,0,0,0,0,0,0,0,0,0,0,0,0,0,0,0,0,0,0,0,0,0,0,0,0,0,0,0,0],"sum_hessian":[7.237E3,5.68E2,6.669E3,2.33E2,3.35E2,3.949E3,2.72E3,1.38E2,9.5E1,7.2E1,2.63E2,2.179E3,1.77E3,1.661E3,1.059E3,6.7E1,7.1E1,4.6E1,4.9E1,2.3E1,4.9E1,6.8E1,1.95E2,1.787E3,3.92E2,2.31E2,1.539E3,1.33E2,1.528E3,8.81E2,1.78E2],"tree_param":{"num_deleted":"0","num_feature":"2","num_nodes":"31","size_leaf_vector":"1"}},{"base_weights":[-1.3104639E-3,-4.14742E-1,3.395848E-2,-7.598652E-1,-1.7315395E-1,1.8701507E-1,-1.379609E-1,-1.2838788E-1,-1.6662765E0,5.7182544E-1,-3.7849617E-1,3.0464178E-1,-2.659754E-1,-4.875428E-1,-9.828532E-2,-9.402491E-2,6.4015314E-2,-1.329635E-1,-1.949394E-1,-4.007101E-2,1.0272061E-1,3.177474E-2,-6.216712E-2,2.5270602E-2,8.361249E-2,-1.7423289E-1,2.4485055E-4,-1.082559E-1,-2.2770304E-2,-6.664639E-4,-2.8627384E-2],"categories":[],"categories_nodes":[],"categories_segments":[],"categories_sizes":[],"default_left":[0,0,0,0,0,0,0,0,0,0,0,0,0,0,0,0,0,0,0,0,0,0,0,0,0,0,0,0,0,0,0],"id":33,"left_children":[1,3,5,7,9,11,13,15,17,19,21,23,25,27,29,-1,-1,-1,-1,-1,-1,-1,-1,-1,-1,-1,-1,-1,-1,-1,-1],"loss_changes":[1.0555348E2,4.7310295E1,1.7553615E2,1.3372255E2,5.1616276E1,1.8811945E2,4.3531204E1,8.7330765E1,6.557678E0,3.27414E1,4.4895123E1,7.713226E1,2.8850232E2,4.922834E1,4.8620422E1,0E0,0E0,0E0,0E0,0E0,0E0,0E0,0E0,0E0,0E0,0E0,0E0,0E0,0E0,0E0,0E0],"parents":[2147483647,0,0,1,1,2,2,3,3,4,4,5,5,6,6,7,7,8,8,9,9,10,10,11,11,12,12,13,13,14,14],"right_children":[2,4,6,8,10,12,14,16,18,20,22,24,26,28,30,-1,-1,-1,-1,-1,-1,-1,-1,-1,-1,-1,-1,-1,-1,-1,-1],"split_conditions":[4E0,4E0,1.7E1,3E0,5E0,7E0,2E0,2E0,3E0,3E0,2E0,1.6E1,7E0,1.9E1,2.2E1,-9.402491E-2,6.4015314E-2,-1.329635E-1,-1.949394E-1,-4.007101E-2,1.0272061E-1,3.177474E-2,-6.216712E-2,2.5270602E-2,8.361249E-2,-1.7423289E-1,2.4485055E-4,-1.082559E-1,-2.2770304E-2,-6.664639E-4,-2.8627384E-2],"split_indices":[1,0,1,0,0,0,0,0,1,1,1,1,1,1,1,0,0,0,0,0,0,0,0,0,0,0,0,0,0,0,0],"split_type":[0,0,0,0,0,0,0,0,0,0,0,0,0,0,0,0,0,0,0,0,0,0,0,0,0,0,0,0,0,0,0],"sum_hessian":[7.237E3,5.68E2,6.669E3,2.33E2,3.35E2,3.528E3,3.141E3,1.38E2,9.5E1,7.2E1,2.63E2,2.801E3,7.27E2,3.19E2,2.822E3,6.7E1,7.1E1,4.6E1,4.9E1,2.3E1,4.9E1,6.8E1,1.95E2,2.553E3,2.48E2,1.11E2,6.16E2,9.6E1,2.23E2,1.898E3,9.24E2],"tree_param":{"num_deleted":"0","num_feature":"2","num_nodes":"31","size_leaf_vector":"1"}},{"base_weights":[-1.2554667E-3,-5.244747E-1,2.2390053E-2,-1.1168681E0,1.0232157E-1,1.4408447E-1,-1.24215856E-1,-2.9228961E-2,-1.2591864E0,7.695215E-1,-2.1943147E-1,-6.898986E-3,4.3922067E-1,-4.3919805E-1,-8.846718E-2,-1.1281859E-1,-1.5193227E-1,4.6244916E-2,9.9427655E-2,-3.4367364E-2,5.4016116E-4,1.39161395E-2,-7.140331E-2,1.6580968E-1,2.3973165E-2,-9.754192E-2,-2.0503445E-2,-5.99855E-4,-2.5767742E-2],"categories":[],"categories_nodes":[],"categories_segments":[],"categories_sizes":[],"default_left":[0,0,0,0,0,0,0,0,0,0,0,0,0,0,0,0,0,0,0,0,0,0,0,0,0,0,0,0,0],"id":34,"left_children":[1,3,5,7,9,11,13,-1,15,17,19,21,23,25,27,-1,-1,-1,-1,-1,-1,-1,-1,-1,-1,-1,-1,-1,-1],"loss_changes":[8.955877E1,1.1633432E2,1.23585495E2,1.8525711E1,3.301392E1,1.6866522E2,3.5340683E1,0E0,2.9545898E0,2.9910011E0,2.9069672E0,2.5882645E2,3.110808E2,3.9980316E1,3.9392105E1,0E0,0E0,0E0,0E0,0E0,0E0,0E0,0E0,0E0,0E0,0E0,0E0,0E0,0E0],"parents":[2147483647,0,0,1,1,2,2,3,3,4,4,5,5,6,6,8,8,9,9,10,10,11,11,12,12,13,13,14,14],"right_children":[2,4,6,8,10,12,14,-1,16,18,20,22,24,26,28,-1,-1,-1,-1,-1,-1,-1,-1,-1,-1,-1,-1,-1,-1],"split_conditions":[3E0,6E0,1.7E1,2E0,2E0,1.3E1,2E0,-2.9228961E-2,5E0,7E0,7E0,7E0,3E0,1.9E1,2.2E1,-1.1281859E-1,-1.5193227E-1,4.6244916E-2,9.9427655E-2,-3.4367364E-2,5.4016116E-4,1.39161395E-2,-7.140331E-2,1.6580968E-1,2.3973165E-2,-9.754192E-2,-2.0503445E-2,-5.99855E-4,-2.5767742E-2],"split_indices":[1,0,1,0,1,1,0,0,0,0,0,0,0,1,1,0,0,0,0,0,0,0,0,0,0,0,0,0,0],"split_type":[0,0,0,0,0,0,0,0,0,0,0,0,0,0,0,0,0,0,0,0,0,0,0,0,0,0,0,0,0],"sum_hessian":[7.237E3,3.12E2,6.925E3,1.6E2,1.52E2,3.784E3,3.141E3,2.4E1,1.36E2,4.9E1,1.03E2,2.504E3,1.28E3,3.19E2,2.822E3,9.4E1,4.2E1,2.2E1,2.7E1,6.6E1,3.7E1,2.076E3,4.28E2,1.79E2,1.101E3,9.6E1,2.23E2,1.898E3,9.24E2],"tree_param":{"num_deleted":"0","num_feature":"2","num_nodes":"29","size_leaf_vector":"1"}},{"base_weights":[-1.1568314E-3,-3.481217E-1,2.8441994E-2,-6.5638596E-1,-1.3240157E-1,1.5333256E-1,-1.118404E-1,-9.933741E-2,-1.4561085E0,5.417058E-1,-3.1830093E-1,2.4780601E-1,-2.10497E-1,-3.9564726E-1,-7.9629965E-2,-8.4609054E-2,6.0730916E-2,-1.0890825E-1,-1.7719908E-1,-2.5419105E-2,9.129021E-2,-5.732205E-2,1.9805199E-2,2.040748E-2,6.953632E-2,-1.4988858E-1,2.3716993E-3,-8.788829E-2,-1.8462269E-2,1.4183263E-2,-1.3795741E-2],"categories":[],"categories_nodes":[],"categories_segments":[],"categories_sizes":[],"default_left":[0,0,0,0,0,0,0,0,0,0,0,0,0,0,0,0,0,0,0,0,0,0,0,0,0,0,0,0,0,0,0],"id":35,"left_children":[1,3,5,7,9,11,13,15,17,19,21,23,25,27,29,-1,-1,-1,-1,-1,-1,-1,-1,-1,-1,-1,-1,-1,-1,-1,-1],"loss_changes":[7.434237E1,3.77509E1,1.1687521E2,1.0409869E2,4.227864E1,1.2135177E2,2.869122E1,7.386282E1,9.200104E0,2.1798729E1,3.4863434E1,5.4699463E1,2.1971587E2,3.2469616E1,3.6485237E1,0E0,0E0,0E0,0E0,0E0,0E0,0E0,0E0,0E0,0E0,0E0,0E0,0E0,0E0,0E0,0E0],"parents":[2147483647,0,0,1,1,2,2,3,3,4,4,5,5,6,6,7,7,8,8,9,9,10,10,11,11,12,12,13,13,14,14],"right_children":[2,4,6,8,10,12,14,16,18,20,22,24,26,28,30,-1,-1,-1,-1,-1,-1,-1,-1,-1,-1,-1,-1,-1,-1,-1,-1],"split_conditions":[4E0,4E0,1.7E1,3E0,5E0,7E0,2E0,2E0,3E0,3E0,7E0,1.6E1,7E0,1.9E1,1.9E1,-8.4609054E-2,6.0730916E-2,-1.0890825E-1,-1.7719908E-1,-2.5419105E-2,9.129021E-2,-5.732205E-2,1.9805199E-2,2.040748E-2,6.953632E-2,-1.4988858E-1,2.3716993E-3,-8.788829E-2,-1.8462269E-2,1.4183263E-2,-1.3795741E-2],"split_indices":[1,0,1,0,0,0,0,0,1,1,0,1,1,1,1,0,0,0,0,0,0,0,0,0,0,0,0,0,0,0,0],"split_type":[0,0,0,0,0,0,0,0,0,0,0,0,0,0,0,0,0,0,0,0,0,0,0,0,0,0,0,0,0,0,0],"sum_hessian":[7.237E3,5.68E2,6.669E3,2.33E2,3.35E2,3.528E3,3.141E3,1.38E2,9.5E1,7.2E1,2.63E2,2.801E3,7.27E2,3.19E2,2.822E3,6.7E1,7.1E1,4.6E1,4.9E1,2.3E1,4.9E1,1.76E2,8.7E1,2.553E3,2.48E2,1.11E2,6.16E2,9.6E1,2.23E2,5.88E2,2.234E3],"tree_param":{"num_deleted":"0","num_feature":"2","num_nodes":"31","size_leaf_vector":"1"}},{"base_weights":[-1.1022893E-3,-4.3334055E-1,1.8431595E-2,-9.541237E-1,1.1750535E-1,9.89954E-2,-1.2805258E-1,-1.830052E-2,-1.0878743E0,7.100095E-1,-1.6848229E-1,2.347417E-1,-8.5683286E-2,-2.820531E-1,-1.6031079E-2,-1.5693669E-1,-9.663861E-2,4.7304448E-2,8.7930195E-2,-2.533528E-2,-1.4408412E-3,9.128149E-3,7.271889E-2,-1.04143895E-1,2.0250778E-3,-4.2227663E-2,-2.2504954E-2,7.7835307E-3,-1.9344984E-2],"categories":[],"categories_nodes":[],"categories_segments":[],"categories_sizes":[],"default_left":[0,0,0,0,0,0,0,0,0,0,0,0,0,0,0,0,0,0,0,0,0,0,0,0,0,0,0,0,0],"id":36,"left_children":[1,3,5,7,9,11,13,-1,15,17,19,21,23,25,27,-1,-1,-1,-1,-1,-1,-1,-1,-1,-1,-1,-1,-1,-1],"loss_changes":[6.1120533E1,8.990282E1,8.1748634E1,1.6406067E1,2.6045301E1,1.1205548E2,4.2399353E1,0E0,6.497284E0,1.5898705E0,1.3562882E0,1.819192E2,1.9178307E2,8.177971E0,2.3729864E1,0E0,0E0,0E0,0E0,0E0,0E0,0E0,0E0,0E0,0E0,0E0,0E0,0E0,0E0],"parents":[2147483647,0,0,1,1,2,2,3,3,4,4,5,5,6,6,8,8,9,9,10,10,11,11,12,12,13,13,14,14],"right_children":[2,4,6,8,10,12,14,-1,16,18,20,22,24,26,28,-1,-1,-1,-1,-1,-1,-1,-1,-1,-1,-1,-1,-1,-1],"split_conditions":[3E0,6E0,1.9E1,2E0,2E0,6E0,5E0,-1.830052E-2,3E0,7E0,7E0,1.6E1,6E0,2.1E1,7E0,-1.5693669E-1,-9.663861E-2,4.7304448E-2,8.7930195E-2,-2.533528E-2,-1.4408412E-3,9.128149E-3,7.271889E-2,-1.04143895E-1,2.0250778E-3,-4.2227663E-2,-2.2504954E-2,7.7835307E-3,-1.9344984E-2],"split_indices":[1,0,1,0,1,0,0,0,0,0,0,1,1,1,0,0,0,0,0,0,0,0,0,0,0,0,0,0,0],"split_type":[0,0,0,0,0,0,0,0,0,0,0,0,0,0,0,0,0,0,0,0,0,0,0,0,0,0,0,0,0],"sum_hessian":[7.237E3,3.12E2,6.925E3,1.6E2,1.52E2,4.468E3,2.457E3,2.4E1,1.36E2,4.9E1,1.03E2,2.575E3,1.893E3,1.034E3,1.423E3,2.5E1,1.11E2,2.2E1,2.7E1,6.6E1,3.7E1,1.995E3,5.8E2,1.88E2,1.705E3,2.97E2,7.37E2,9.31E2,4.92E2],"tree_param":{"num_deleted":"0","num_feature":"2","num_nodes":"29","size_leaf_vector":"1"}},{"base_weights":[-1.0282217E-3,7.541051E-2,-1.0069991E-1,-5.270853E-2,3.570935E-1,-3.5983554E-1,-7.129002E-2,3.6041237E-2,-4.711477E-1,1.4268899E0,1.8202959E-1,-8.638697E-2,-1.3996433E-1,-2.5314247E-2,-2.7630904E-1,-5.7826336E-2,1.0966945E-2,-3.0471876E-2,-3.574508E-1,4.3563973E-2,2.4355204E-1,1.1823428E-1,-8.60796E-3,-3.0671006E-2,-9.750031E-3,1.8040013E-2,-8.587214E-3,-3.488022E-2,-1.6693791E-2],"categories":[],"categories_nodes":[],"categories_segments":[],"categories_sizes":[],"default_left":[0,0,0,0,0,0,0,0,0,0,0,0,0,0,0,0,0,0,0,0,0,0,0,0,0,0,0,0,0],"id":37,"left_children":[1,3,5,7,9,11,13,15,17,19,21,-1,23,25,27,-1,-1,-1,-1,-1,-1,-1,-1,-1,-1,-1,-1,-1,-1],"loss_changes":[5.5152306E1,1.4787526E2,2.392E1,1.0463016E2,2.3964946E2,3.5342323E1,2.6602346E1,1.05223526E2,2.535398E2,1.7890396E2,2.9565063E2,0E0,1.556171E0,2.8755238E1,4.0408897E0,0E0,0E0,0E0,0E0,0E0,0E0,0E0,0E0,0E0,0E0,0E0,0E0,0E0,0E0],"parents":[2147483647,0,0,1,1,2,2,3,3,4,4,5,5,6,6,7,7,8,8,9,9,10,10,12,12,13,13,14,14],"right_children":[2,4,6,8,10,12,14,16,18,20,22,-1,24,26,28,-1,-1,-1,-1,-1,-1,-1,-1,-1,-1,-1,-1,-1,-1],"split_conditions":[1.7E1,1.3E1,2E0,7E0,3E0,1.9E1,2.3E1,3E0,1.2E1,2E0,1.4E1,-8.638697E-2,2.1E1,4E0,6E0,-5.7826336E-2,1.0966945E-2,-3.0471876E-2,-3.574508E-1,4.3563973E-2,2.4355204E-1,1.1823428E-1,-8.60796E-3,-3.0671006E-2,-9.750031E-3,1.8040013E-2,-8.587214E-3,-3.488022E-2,-1.6693791E-2],"split_indices":[1,1,0,0,0,1,1,1,1,0,1,0,1,0,0,0,0,0,0,0,0,0,0,0,0,0,0,0,0],"split_type":[0,0,0,0,0,0,0,0,0,0,0,0,0,0,0,0,0,0,0,0,0,0,0,0,0,0,0,0,0],"sum_hessian":[7.237E3,4.096E3,3.141E3,2.816E3,1.28E3,3.19E2,2.822E3,2.324E3,4.92E2,1.79E2,1.101E3,9.6E1,2.23E2,2.306E3,5.16E2,2.48E2,2.076E3,4.68E2,2.4E1,9.1E1,8.8E1,2.32E2,8.69E2,4.4E1,1.79E2,5.24E2,1.782E3,3.09E2,2.07E2],"tree_param":{"num_deleted":"0","num_feature":"2","num_nodes":"29","size_leaf_vector":"1"}},{"base_weights":[-9.5414434E-4,-2.4007587E-1,2.697182E-2,-8.335448E-1,1.5680717E-2,9.6218966E-2,-1.04656294E-1,-2.666342E-1,-2.0097287E-1,1.9209577E0,-2.6890758E-1,4.5115915E-1,-1.5354014E-2,-2.2715648E-1,4.4145565E-2,-7.485645E-2,1.0879645E-2,9.3841605E-2,2.5302485E-1,-1.0882777E-1,-1.6458604E-2,-9.654532E-3,1.2413496E-1,-3.7398838E-2,1.4822632E-2,-2.8277507E-2,-1.1778432E-2,2.4189012E-2,-1.6371615E-2],"categories":[],"categories_nodes":[],"categories_segments":[],"categories_sizes":[],"default_left":[0,0,0,0,0,0,0,0,0,0,0,0,0,0,0,0,0,0,0,0,0,0,0,0,0,0,0,0,0],"id":38,"left_children":[1,3,5,7,9,11,13,15,-1,17,19,21,23,25,27,-1,-1,-1,-1,-1,-1,-1,-1,-1,-1,-1,-1,-1,-1],"loss_changes":[4.8339706E1,1.14913246E2,5.9092663E1,1.514925E2,2.878929E2,1.6823508E2,4.0750183E1,2.8125813E1,0E0,3.8932663E1,3.93117E1,4.398354E2,1.8972108E2,7.4245987E0,4.1554157E1,0E0,0E0,0E0,0E0,0E0,0E0,0E0,0E0,0E0,0E0,0E0,0E0,0E0,0E0],"parents":[2147483647,0,0,1,1,2,2,3,3,4,4,5,5,6,6,7,7,9,9,10,10,11,11,12,12,13,13,14,14],"right_children":[2,4,6,8,10,12,14,16,-1,18,20,22,24,26,28,-1,-1,-1,-1,-1,-1,-1,-1,-1,-1,-1,-1,-1,-1],"split_conditions":[2E0,1E1,1.9E1,8E0,1.2E1,4E0,6E0,4E0,-2.0097287E-1,1.1E1,1.3E1,1.2E1,9E0,5E0,7E0,-7.485645E-2,1.0879645E-2,9.3841605E-2,2.5302485E-1,-1.0882777E-1,-1.6458604E-2,-9.654532E-3,1.2413496E-1,-3.7398838E-2,1.4822632E-2,-2.8277507E-2,-1.1778432E-2,2.4189012E-2,-1.6371615E-2],"split_indices":[0,1,1,1,1,0,0,1,0,1,1,1,1,0,0,0,0,0,0,0,0,0,0,0,0,0,0,0,0],"split_type":[0,0,0,0,0,0,0,0,0,0,0,0,0,0,0,0,0,0,0,0,0,0,0,0,0,0,0,0,0],"sum_hessian":[7.237E3,7.56E2,6.481E3,2.27E2,5.29E2,4.247E3,2.234E3,1.54E2,7.3E1,6.8E1,4.61E2,1.015E3,3.232E3,1.225E3,1.009E3,6.7E1,8.7E1,2.7E1,4.1E1,5.1E1,4.1E2,6E2,4.15E2,1.012E3,2.22E3,8.11E2,4.14E2,5.17E2,4.92E2],"tree_param":{"num_deleted":"0","num_feature":"2","num_nodes":"29","size_leaf_vector":"1"}},{"base_weights":[-8.561903E-4,6.624581E-2,-8.8353336E-2,-3.521287E-2,2.8930816E-1,-1.759463E-1,-2.3458468E-2,4.4195894E-2,-4.096351E-1,1.2334293E0,1.3483344E-1,-7.08419E-2,-5.0839245E-1,1.700795E-1,-1.0549154E-1,-2.6008984E-2,1.6961534E-2,-2.5759166E-2,-3.2455847E-1,4.0882904E-2,2.0719664E-1,1.0385976E-1,-1.07364105E-2,3.7783753E-2,-2.8788378E-2,-1.3860117E-1,-1.8370232E-3,1.5775833E-1,-1.4308477E-2,-8.4160805E-2,2.011864E-3],"categories":[],"categories_nodes":[],"categories_segments":[],"categories_sizes":[],"default_left":[0,0,0,0,0,0,0,0,0,0,0,0,0,0,0,0,0,0,0,0,0,0,0,0,0,0,0,0,0,0,0],"id":39,"left_children":[1,3,5,7,9,11,13,15,17,19,21,23,25,27,29,-1,-1,-1,-1,-1,-1,-1,-1,-1,-1,-1,-1,-1,-1,-1,-1],"loss_changes":[4.2501842E1,9.273189E1,1.785605E1,8.377429E1,1.8665837E2,4.6680847E1,2.8690926E1,8.8773895E1,2.1173944E2,1.23615326E2,2.413277E2,9.914649E1,1.3802153E2,2.373653E2,1.1735339E2,0E0,0E0,0E0,0E0,0E0,0E0,0E0,0E0,0E0,0E0,0E0,0E0,0E0,0E0,0E0,0E0],"parents":[2147483647,0,0,1,1,2,2,3,3,4,4,5,5,6,6,7,7,8,8,9,9,10,10,11,11,12,12,13,13,14,14],"right_children":[2,4,6,8,10,12,14,16,18,20,22,24,26,28,30,-1,-1,-1,-1,-1,-1,-1,-1,-1,-1,-1,-1,-1,-1,-1,-1],"split_conditions":[1.7E1,1.3E1,5E0,7E0,3E0,4E0,6E0,3E0,1.2E1,2E0,1.4E1,2E1,2E1,1.8E1,1.8E1,-2.6008984E-2,1.6961534E-2,-2.5759166E-2,-3.2455847E-1,4.0882904E-2,2.0719664E-1,1.0385976E-1,-1.07364105E-2,3.7783753E-2,-2.8788378E-2,-1.3860117E-1,-1.8370232E-3,1.5775833E-1,-1.4308477E-2,-8.4160805E-2,2.011864E-3],"split_indices":[1,1,0,0,0,0,0,0,1,0,1,1,1,1,1,0,0,0,0,0,0,0,0,0,0,0,0,0,0,0,0],"split_type":[0,0,0,0,0,0,0,0,0,0,0,0,0,0,0,0,0,0,0,0,0,0,0,0,0,0,0,0,0,0,0],"sum_hessian":[7.237E3,4.096E3,3.141E3,2.816E3,1.28E3,1.336E3,1.805E3,2.324E3,4.92E2,1.79E2,1.101E3,1.016E3,3.2E2,5.37E2,1.268E3,6.78E2,1.646E3,4.68E2,2.4E1,9.1E1,8.8E1,2.32E2,8.69E2,3.31E2,6.85E2,1.14E2,2.06E2,9.7E1,4.4E2,1.84E2,1.084E3],"tree_param":{"num_deleted":"0","num_feature":"2","num_nodes":"31","size_leaf_vector":"1"}},{"base_weights":[-7.828986E-4,-2.0546336E-1,2.3120819E-2,-7.2545743E-1,1.8619878E-2,6.6732384E-2,-1.2667178E-1,-2.1454246E-1,-1.7858139E-1,1.7595205E0,-2.4142507E-1,2.8462902E-1,-1.9233911E-3,-7.329935E-2,-2.2408697E-1,-6.4918235E-2,1.2375361E-2,8.7300576E-2,2.3086372E-1,-9.560345E-2,-1.5042479E-2,8.423441E-2,4.7212146E-4,-3.416363E-2,1.2067408E-2,1.8758064E-2,-1.0962761E-2,-2.557001E-2,-1.100887E-2],"categories":[],"categories_nodes":[],"categories_segments":[],"categories_sizes":[],"default_left":[0,0,0,0,0,0,0,0,0,0,0,0,0,0,0,0,0,0,0,0,0,0,0,0,0,0,0,0,0],"id":40,"left_children":[1,3,5,7,9,11,13,15,-1,17,19,21,23,25,27,-1,-1,-1,-1,-1,-1,-1,-1,-1,-1,-1,-1,-1,-1],"loss_changes":[3.541756E1,8.8220634E1,4.2353348E1,1.231363E2,2.4036238E2,7.511402E1,7.5849323E0,2.2871067E1,0E0,3.1573746E1,2.9899887E1,1.8779489E2,1.5909473E2,8.986104E0,1.8350372E0,0E0,0E0,0E0,0E0,0E0,0E0,0E0,0E0,0E0,0E0,0E0,0E0,0E0,0E0],"parents":[2147483647,0,0,1,1,2,2,3,3,4,4,5,5,6,6,7,7,9,9,10,10,11,11,12,12,13,13,14,14],"right_children":[2,4,6,8,10,12,14,16,-1,18,20,22,24,26,28,-1,-1,-1,-1,-1,-1,-1,-1,-1,-1,-1,-1,-1,-1],"split_conditions":[2E0,1E1,2.1E1,8E0,1.2E1,4E0,2.3E1,4E0,-1.7858139E-1,1.1E1,1.3E1,9E0,9E0,3E0,7E0,-6.4918235E-2,1.2375361E-2,8.7300576E-2,2.3086372E-1,-9.560345E-2,-1.5042479E-2,8.423441E-2,4.7212146E-4,-3.416363E-2,1.2067408E-2,1.8758064E-2,-1.0962761E-2,-2.557001E-2,-1.100887E-2],"split_indices":[0,1,1,1,1,0,1,1,0,1,1,1,1,0,0,0,0,0,0,0,0,0,0,0,0,0,0,0,0],"split_type":[0,0,0,0,0,0,0,0,0,0,0,0,0,0,0,0,0,0,0,0,0,0,0,0,0,0,0,0,0],"sum_hessian":[7.237E3,7.56E2,6.481E3,2.27E2,5.29E2,5.02E3,1.461E3,1.54E2,7.3E1,6.8E1,4.61E2,1.202E3,3.818E3,9.45E2,5.16E2,6.7E1,8.7E1,2.7E1,4.1E1,5.1E1,4.1E2,4.01E2,8.01E2,1.012E3,2.806E3,1.15E2,8.3E2,4.03E2,1.13E2],"tree_param":{"num_deleted":"0","num_feature":"2","num_nodes":"29","size_leaf_vector":"1"}},{"base_weights":[-7.034033E-4,5.722681E-2,-7.6241076E-2,1.5542081E-2,5.134044E-1,-2.8411883E-1,-5.2650176E-2,-2.2257839E-1,5.8050714E-2,1.414035E0,-2.3665817E-1,-7.845912E-2,-6.612802E-2,-2.5266504E-3,-1.554955E-1,-5.47239E-2,4.1869786E-4,1.3547003E-2,-2.5391614E-2,5.333197E-2,6.2357473E-1,-1.0344199E-1,5.5519726E-2,3.3538218E-3,-1.3086455E-2,2.4550712E-2,-7.595375E-3,-5.1884968E-2,-9.807285E-3],"categories":[],"categories_nodes":[],"categories_segments":[],"categories_sizes":[],"default_left":[0,0,0,0,0,0,0,0,0,0,0,0,0,0,0,0,0,0,0,0,0,0,0,0,0,0,0,0,0],"id":41,"left_children":[1,3,5,7,9,11,13,15,17,19,21,-1,23,25,27,-1,-1,-1,-1,-1,-1,-1,-1,-1,-1,-1,-1,-1,-1],"loss_changes":[3.1677223E1,7.78991E1,1.5393484E1,3.802169E1,2.320412E2,3.4859596E1,1.4552088E1,4.189309E1,7.700766E1,6.591371E2,1.1933616E2,0E0,1.4496474E0,3.4603996E1,1.924902E1,0E0,0E0,0E0,0E0,0E0,0E0,0E0,0E0,0E0,0E0,0E0,0E0,0E0,0E0],"parents":[2147483647,0,0,1,1,2,2,3,3,4,4,5,5,6,6,7,7,8,8,9,9,10,10,12,12,13,13,14,14],"right_children":[2,4,6,8,10,12,14,16,18,20,22,-1,24,26,28,-1,-1,-1,-1,-1,-1,-1,-1,-1,-1,-1,-1,-1,-1],"split_conditions":[1.7E1,1.6E1,2E0,4E0,5E0,1.9E1,2.2E1,4E0,7E0,4E0,7E0,-7.845912E-2,2.2E1,4E0,3E0,-5.47239E-2,4.1869786E-4,1.3547003E-2,-2.5391614E-2,5.333197E-2,6.2357473E-1,-1.0344199E-1,5.5519726E-2,3.3538218E-3,-1.3086455E-2,2.4550712E-2,-7.595375E-3,-5.1884968E-2,-9.807285E-3],"split_indices":[1,1,0,1,0,1,1,0,0,0,0,0,1,0,0,0,0,0,0,0,0,0,0,0,0,0,0,0,0],"split_type":[0,0,0,0,0,0,0,0,0,0,0,0,0,0,0,0,0,0,0,0,0,0,0,0,0,0,0,0,0],"sum_hessian":[7.237E3,4.096E3,3.141E3,3.754E3,3.42E2,3.19E2,2.822E3,5.68E2,3.186E3,1.55E2,1.87E2,9.6E1,2.23E2,1.898E3,9.24E2,2.33E2,3.35E2,2.553E3,6.33E2,1.32E2,2.3E1,9.3E1,9.4E1,8.8E1,1.35E2,4.33E2,1.465E3,1.25E2,7.99E2],"tree_param":{"num_deleted":"0","num_feature":"2","num_nodes":"29","size_leaf_vector":"1"}},{"base_weights":[-5.7396205E-4,-1.7698742E-1,2.0028561E-2,-6.473515E-1,2.5691837E-2,-3.1226417E-1,3.552946E-2,-1.7737654E-1,-1.6230106E-1,1.5748278E0,-2.0572823E-1,-9.090659E-1,2.2416784E-1,1.9137198E-1,-1.5457482E-2,-5.3129982E-2,9.812529E-3,7.757583E-2,2.070045E-1,-8.755564E-2,-1.2048057E-2,-1.3569477E-1,-7.969767E-2,7.597792E-2,-3.5493101E-3,1.16855204E-1,-7.900226E-3,-3.7560966E-2,5.8566937E-3],"categories":[],"categories_nodes":[],"categories_segments":[],"categories_sizes":[],"default_left":[0,0,0,0,0,0,0,0,0,0,0,0,0,0,0,0,0,0,0,0,0,0,0,0,0,0,0,0,0],"id":42,"left_children":[1,3,5,7,9,11,13,15,-1,17,19,21,23,25,27,-1,-1,-1,-1,-1,-1,-1,-1,-1,-1,-1,-1,-1,-1],"loss_changes":[2.6310507E1,7.218375E1,3.3398815E1,1.0425817E2,1.903296E2,9.272527E1,4.922007E1,1.5165644E1,0E0,2.5698334E1,2.627531E1,5.796318E0,2.1305805E1,4.0353232E2,1.2447113E2,0E0,0E0,0E0,0E0,0E0,0E0,0E0,0E0,0E0,0E0,0E0,0E0,0E0,0E0],"parents":[2147483647,0,0,1,1,2,2,3,3,4,4,5,5,6,6,7,7,9,9,10,10,11,11,12,12,13,13,14,14],"right_children":[2,4,6,8,10,12,14,16,-1,18,20,22,24,26,28,-1,-1,-1,-1,-1,-1,-1,-1,-1,-1,-1,-1,-1,-1],"split_conditions":[2E0,1E1,3E0,8E0,1.2E1,6E0,4E0,4E0,-1.6230106E-1,1.1E1,1.3E1,3E0,2E0,9E0,9E0,-5.3129982E-2,9.812529E-3,7.757583E-2,2.070045E-1,-8.755564E-2,-1.2048057E-2,-1.3569477E-1,-7.969767E-2,7.597792E-2,-3.5493101E-3,1.16855204E-1,-7.900226E-3,-3.7560966E-2,5.8566937E-3],"split_indices":[0,1,1,1,1,0,0,1,0,1,1,0,1,1,1,0,0,0,0,0,0,0,0,0,0,0,0,0,0],"split_type":[0,0,0,0,0,0,0,0,0,0,0,0,0,0,0,0,0,0,0,0,0,0,0,0,0,0,0,0,0],"sum_hessian":[7.237E3,7.56E2,6.481E3,2.27E2,5.29E2,2.88E2,6.193E3,1.54E2,7.3E1,6.8E1,4.61E2,1.36E2,1.52E2,1.526E3,4.667E3,6.7E1,8.7E1,2.7E1,4.1E1,5.1E1,4.1E2,2.5E1,1.11E2,4.9E1,1.03E2,3.3E2,1.196E3,7.95E2,3.872E3],"tree_param":{"num_deleted":"0","num_feature":"2","num_nodes":"29","size_leaf_vector":"1"}},{"base_weights":[-5.286506E-4,5.2476753E-2,-6.964469E-2,1.4886125E-2,4.6384797E-1,-1.3975978E-1,-1.7699223E-2,-1.9027165E-1,5.1509872E-2,1.2838826E0,-2.190736E-1,-4.047745E-2,-4.5387307E-1,1.5919073E-1,-9.2678815E-2,-4.948134E-2,2.2386222E-3,1.1913438E-2,-2.2098936E-2,4.8950903E-2,5.632541E-1,-9.3787424E-2,4.9446676E-2,3.5856735E-2,-2.3354217E-2,-1.2588559E-1,-4.467819E-4,1.4112096E-1,-1.1939663E-2,-7.681767E-2,2.2583664E-3],"categories":[],"categories_nodes":[],"categories_segments":[],"categories_sizes":[],"default_left":[0,0,0,0,0,0,0,0,0,0,0,0,0,0,0,0,0,0,0,0,0,0,0,0,0,0,0,0,0,0,0],"id":43,"left_children":[1,3,5,7,9,11,13,15,17,19,21,23,25,27,29,-1,-1,-1,-1,-1,-1,-1,-1,-1,-1,-1,-1,-1,-1,-1,-1],"loss_changes":[2.6520237E1,6.3347878E1,1.1441199E1,2.8223541E1,1.9236794E2,4.167717E1,2.3967978E1,3.6861336E1,5.875518E1,5.3613855E2,9.688768E1,7.843492E1,1.16120445E2,1.8782104E2,9.882112E1,0E0,0E0,0E0,0E0,0E0,0E0,0E0,0E0,0E0,0E0,0E0,0E0,0E0,0E0,0E0,0E0],"parents":[2147483647,0,0,1,1,2,2,3,3,4,4,5,5,6,6,7,7,8,8,9,9,10,10,11,11,12,12,13,13,14,14],"right_children":[2,4,6,8,10,12,14,16,18,20,22,24,26,28,30,-1,-1,-1,-1,-1,-1,-1,-1,-1,-1,-1,-1,-1,-1,-1,-1],"split_conditions":[1.7E1,1.6E1,5E0,4E0,5E0,4E0,6E0,4E0,7E0,4E0,7E0,2E1,2E1,1.8E1,1.8E1,-4.948134E-2,2.2386222E-3,1.1913438E-2,-2.2098936E-2,4.8950903E-2,5.632541E-1,-9.3787424E-2,4.9446676E-2,3.5856735E-2,-2.3354217E-2,-1.2588559E-1,-4.467819E-4,1.4112096E-1,-1.1939663E-2,-7.681767E-2,2.2583664E-3],"split_indices":[1,1,0,1,0,0,0,0,0,0,0,1,1,1,1,0,0,0,0,0,0,0,0,0,0,0,0,0,0,0,0],"split_type":[0,0,0,0,0,0,0,0,0,0,0,0,0,0,0,0,0,0,0,0,0,0,0,0,0,0,0,0,0,0,0],"sum_hessian":[7.237E3,4.096E3,3.141E3,3.754E3,3.42E2,1.336E3,1.805E3,5.68E2,3.186E3,1.55E2,1.87E2,1.016E3,3.2E2,5.37E2,1.268E3,2.33E2,3.35E2,2.553E3,6.33E2,1.32E2,2.3E1,9.3E1,9.4E1,3.31E2,6.85E2,1.14E2,2.06E2,9.7E1,4.4E2,1.84E2,1.084E3],"tree_param":{"num_deleted":"0","num_feature":"2","num_nodes":"31","size_leaf_vector":"1"}},{"base_weights":[-4.1336316E-4,-1.6043271E-1,1.827455E-2,-5.7733786E-1,1.9217871E-2,6.599267E-2,-7.243008E-2,-1.4521655E-1,-1.474655E-1,1.4097288E0,-1.8849744E-1,3.1078577E-1,-1.0956226E-2,-2.150505E-1,8.946475E-3,-4.3019738E-2,7.6646092E-3,6.894654E-2,1.8563394E-1,-8.013695E-2,-1.1049782E-2,-1.7908698E-2,1.01776354E-1,-2.8000822E-2,1.1176355E-2,-3.8658615E-2,-1.3672294E-2,9.174058E-3,-1.4759115E-2],"categories":[],"categories_nodes":[],"categories_segments":[],"categories_sizes":[],"default_left":[0,0,0,0,0,0,0,0,0,0,0,0,0,0,0,0,0,0,0,0,0,0,0,0,0,0,0,0,0],"id":44,"left_children":[1,3,5,7,9,11,13,15,-1,17,19,21,23,25,27,-1,-1,-1,-1,-1,-1,-1,-1,-1,-1,-1,-1,-1,-1],"loss_changes":[2.1647648E1,5.6708305E1,2.8060528E1,8.819282E1,1.5334584E2,8.00211E1,2.5941242E1,9.8330965E0,0E0,2.0915848E1,2.1996798E1,3.5205264E2,1.06778496E2,1.0857151E1,1.846914E1,0E0,0E0,0E0,0E0,0E0,0E0,0E0,0E0,0E0,0E0,0E0,0E0,0E0,0E0],"parents":[2147483647,0,0,1,1,2,2,3,3,4,4,5,5,6,6,7,7,9,9,10,10,11,11,12,12,13,13,14,14],"right_children":[2,4,6,8,10,12,14,16,-1,18,20,22,24,26,28,-1,-1,-1,-1,-1,-1,-1,-1,-1,-1,-1,-1,-1,-1],"split_conditions":[2E0,1E1,1.9E1,8E0,1.2E1,4E0,5E0,4E0,-1.474655E-1,1.1E1,1.3E1,1.2E1,9E0,2.1E1,7E0,-4.3019738E-2,7.6646092E-3,6.894654E-2,1.8563394E-1,-8.013695E-2,-1.1049782E-2,-1.7908698E-2,1.01776354E-1,-2.8000822E-2,1.1176355E-2,-3.8658615E-2,-1.3672294E-2,9.174058E-3,-1.4759115E-2],"split_indices":[0,1,1,1,1,0,0,1,0,1,1,1,1,1,0,0,0,0,0,0,0,0,0,0,0,0,0,0,0],"split_type":[0,0,0,0,0,0,0,0,0,0,0,0,0,0,0,0,0,0,0,0,0,0,0,0,0,0,0,0,0],"sum_hessian":[7.237E3,7.56E2,6.481E3,2.27E2,5.29E2,4.247E3,2.234E3,1.54E2,7.3E1,6.8E1,4.61E2,1.015E3,3.232E3,8.11E2,1.423E3,6.7E1,8.7E1,2.7E1,4.1E1,5.1E1,4.1E2,6E2,4.15E2,1.012E3,2.22E3,2.53E2,5.58E2,9.31E2,4.92E2],"tree_param":{"num_deleted":"0","num_feature":"2","num_nodes":"29","size_leaf_vector":"1"}},{"base_weights":[-3.737581E-4,4.6773516E-2,-6.1851162E-2,1.5720084E-2,3.8659525E-1,-9.018001E-2,5.5407275E-2,5.156414E-2,-1.3518481E-1,1.1013061E0,-2.0851906E-1,-2.1723285E-1,-2.0900954E-2,5.631831E-1,-2.5179595E-1,-3.798447E-2,9.008917E-3,-2.426325E-2,8.836344E-2,3.7469674E-2,5.082046E-1,-8.56142E-2,4.3448176E-2,1.4318711E-2,-1.2328737E-1,-1.5023922E-2,3.489035E-2,8.284186E-2,2.7397385E-2,-6.1647564E-2,-1.3563673E-2],"categories":[],"categories_nodes":[],"categories_segments":[],"categories_sizes":[],"default_left":[0,0,0,0,0,0,0,0,0,0,0,0,0,0,0,0,0,0,0,0,0,0,0,0,0,0,0,0,0,0,0],"id":45,"left_children":[1,3,5,7,9,11,13,15,17,19,21,23,25,27,29,-1,-1,-1,-1,-1,-1,-1,-1,-1,-1,-1,-1,-1,-1,-1,-1],"loss_changes":[2.0982178E1,4.322805E1,1.04420805E1,2.0317928E1,1.4611943E2,2.2273579E1,9.560791E1,5.047603E1,7.91421E1,4.4931686E2,7.8659325E1,3.270656E2,7.8445564E1,1.7492706E1,1.609825E1,0E0,0E0,0E0,0E0,0E0,0E0,0E0,0E0,0E0,0E0,0E0,0E0,0E0,0E0,0E0,0E0],"parents":[2147483647,0,0,1,1,2,2,3,3,4,4,5,5,6,6,7,7,8,8,9,9,10,10,11,11,12,12,13,13,14,14],"right_children":[2,4,6,8,10,12,14,16,18,20,22,24,26,28,30,-1,-1,-1,-1,-1,-1,-1,-1,-1,-1,-1,-1,-1,-1,-1,-1],"split_conditions":[1.7E1,1.6E1,7E0,7E0,5E0,2E1,2E1,3E0,1.5E1,4E0,7E0,6E0,6E0,1.9E1,2.1E1,-3.798447E-2,9.008917E-3,-2.426325E-2,8.836344E-2,3.7469674E-2,5.082046E-1,-8.56142E-2,4.3448176E-2,1.4318711E-2,-1.2328737E-1,-1.5023922E-2,3.489035E-2,8.284186E-2,2.7397385E-2,-6.1647564E-2,-1.3563673E-2],"split_indices":[1,1,0,0,0,1,1,1,1,0,0,0,0,1,1,0,0,0,0,0,0,0,0,0,0,0,0,0,0,0,0],"split_type":[0,0,0,0,0,0,0,0,0,0,0,0,0,0,0,0,0,0,0,0,0,0,0,0,0,0,0,0,0,0,0],"sum_hessian":[7.237E3,4.096E3,3.141E3,3.754E3,3.42E2,2.53E3,6.11E2,3.034E3,7.2E2,1.55E2,1.87E2,8.92E2,1.638E3,2.3E2,3.81E2,2.48E2,2.786E3,6.52E2,6.8E1,1.32E2,2.3E1,9.3E1,9.4E1,6.59E2,2.33E2,1.214E3,4.24E2,1.19E2,1.11E2,9.1E1,2.9E2],"tree_param":{"num_deleted":"0","num_feature":"2","num_nodes":"31","size_leaf_vector":"1"}},{"base_weights":[-2.692377E-4,-1.4705725E-1,1.6873434E-2,-5.2442855E-1,1.556107E-2,4.0675763E-2,-1.2616463E-1,-1.3259713E-1,-1.3380696E-1,1.2635671E0,-1.7086312E-1,1.638925E-1,1.7617263E-3,-4.0790164E-1,-8.163335E-2,-3.8010083E-2,6.0162502E-3,6.1429422E-2,1.6663307E-1,-7.316085E-2,-9.950152E-3,7.252749E-2,-7.816496E-3,-2.4464233E-2,7.944786E-3,-7.7536434E-2,-1.7946986E-2,-3.4322572E-4,-3.529152E-2],"categories":[],"categories_nodes":[],"categories_segments":[],"categories_sizes":[],"default_left":[0,0,0,0,0,0,0,0,0,0,0,0,0,0,0,0,0,0,0,0,0,0,0,0,0,0,0,0,0],"id":46,"left_children":[1,3,5,7,9,11,13,15,-1,17,19,21,23,25,27,-1,-1,-1,-1,-1,-1,-1,-1,-1,-1,-1,-1,-1,-1],"loss_changes":[1.821574E1,4.646335E1,2.2074001E1,7.251128E1,1.2352492E2,2.6649548E1,1.1571854E1,7.417719E0,0E0,1.7020126E1,1.8414452E1,1.8132967E2,8.0895134E1,1.0437305E1,1.6970419E1,0E0,0E0,0E0,0E0,0E0,0E0,0E0,0E0,0E0,0E0,0E0,0E0,0E0,0E0],"parents":[2147483647,0,0,1,1,2,2,3,3,4,4,5,5,6,6,7,7,9,9,10,10,11,11,12,12,13,13,14,14],"right_children":[2,4,6,8,10,12,14,16,-1,18,20,22,24,26,28,-1,-1,-1,-1,-1,-1,-1,-1,-1,-1,-1,-1,-1,-1],"split_conditions":[2E0,1E1,2.2E1,8E0,1.2E1,4E0,3E0,4E0,-1.3380696E-1,1.1E1,1.3E1,9E0,9E0,2.3E1,7E0,-3.8010083E-2,6.0162502E-3,6.1429422E-2,1.6663307E-1,-7.316085E-2,-9.950152E-3,7.252749E-2,-7.816496E-3,-2.4464233E-2,7.944786E-3,-7.7536434E-2,-1.7946986E-2,-3.4322572E-4,-3.529152E-2],"split_indices":[0,1,1,1,1,0,0,1,0,1,1,1,1,1,0,0,0,0,0,0,0,0,0,0,0,0,0,0,0],"split_type":[0,0,0,0,0,0,0,0,0,0,0,0,0,0,0,0,0,0,0,0,0,0,0,0,0,0,0,0,0],"sum_hessian":[7.237E3,7.56E2,6.481E3,2.27E2,5.29E2,5.557E3,9.24E2,1.54E2,7.3E1,6.8E1,4.61E2,1.333E3,4.224E3,1.25E2,7.99E2,6.7E1,8.7E1,2.7E1,4.1E1,5.1E1,4.1E2,4.01E2,9.32E2,1.012E3,3.212E3,4.7E1,7.8E1,6.21E2,1.78E2],"tree_param":{"num_deleted":"0","num_feature":"2","num_nodes":"29","size_leaf_vector":"1"}},{"base_weights":[-2.5653638E-4,4.0673938E-2,-5.3627606E-2,1.2608452E-2,3.4780288E-1,-7.9768084E-2,5.456713E-2,4.999044E-2,-1.4862253E-1,1.0006766E0,-1.9579343E-1,-3.054298E-1,-4.6031147E-2,4.9943146E-1,-2.1459053E-1,-1.9609376E-3,8.912467E-2,9.9239804E-2,-3.835712E-2,3.459241E-2,4.5874023E-1,-7.7929914E-2,3.836311E-2,4.01212E-2,-2.1301615E-1,-1.02393385E-2,1.1677487E-2,7.383881E-2,2.3894731E-2,-5.6335695E-2,-1.035902E-2],"categories":[],"categories_nodes":[],"categories_segments":[],"categories_sizes":[],"default_left":[0,0,0,0,0,0,0,0,0,0,0,0,0,0,0,0,0,0,0,0,0,0,0,0,0,0,0,0,0,0,0],"id":47,"left_children":[1,3,5,7,9,11,13,15,17,19,21,23,25,27,29,-1,-1,-1,-1,-1,-1,-1,-1,-1,-1,-1,-1,-1,-1,-1,-1],"loss_changes":[1.5813616E1,3.531062E1,8.890751E0,2.263932E1,1.2192656E2,1.9254787E1,7.338723E1,1.7854034E2,1.8991408E2,3.6476624E2,6.3861298E1,4.250777E2,2.0226929E1,1.4202026E1,1.473008E1,0E0,0E0,0E0,0E0,0E0,0E0,0E0,0E0,0E0,0E0,0E0,0E0,0E0,0E0,0E0,0E0],"parents":[2147483647,0,0,1,1,2,2,3,3,4,4,5,5,6,6,7,7,8,8,9,9,10,10,11,11,12,12,13,13,14,14],"right_children":[2,4,6,8,10,12,14,16,18,20,22,24,26,28,30,-1,-1,-1,-1,-1,-1,-1,-1,-1,-1,-1,-1,-1,-1,-1,-1],"split_conditions":[1.7E1,1.6E1,7E0,1.4E1,5E0,1.8E1,2E1,1.3E1,3E0,4E0,7E0,6E0,6E0,1.9E1,2.1E1,-1.9609376E-3,8.912467E-2,9.9239804E-2,-3.835712E-2,3.459241E-2,4.5874023E-1,-7.7929914E-2,3.836311E-2,4.01212E-2,-2.1301615E-1,-1.02393385E-2,1.1677487E-2,7.383881E-2,2.3894731E-2,-5.6335695E-2,-1.035902E-2],"split_indices":[1,1,0,1,0,1,1,1,0,0,0,0,0,1,1,0,0,0,0,0,0,0,0,0,0,0,0,0,0,0,0],"split_type":[0,0,0,0,0,0,0,0,0,0,0,0,0,0,0,0,0,0,0,0,0,0,0,0,0,0,0,0,0,0,0],"sum_hessian":[7.237E3,4.096E3,3.141E3,3.754E3,3.42E2,2.53E3,6.11E2,3.048E3,7.06E2,1.55E2,1.87E2,3.28E2,2.202E3,2.3E2,3.81E2,2.816E3,2.32E2,1.2E2,5.86E2,1.32E2,2.3E1,9.3E1,9.4E1,2.37E2,9.1E1,1.636E3,5.66E2,1.19E2,1.11E2,9.1E1,2.9E2],"tree_param":{"num_deleted":"0","num_feature":"2","num_nodes":"31","size_leaf_vector":"1"}},{"base_weights":[-1.6719078E-4,-1.3898921E-1,1.6045157E-2,-4.7076073E-1,3.9973846E-3,4.3458477E-2,-7.8112386E-2,-1.1759542E-1,-1.20413736E-1,1.1424475E0,-1.6603953E-1,1.6223471E-1,6.0321195E-3,1.0638841E-1,-1.0625663E-1,-3.407177E-2,5.615356E-3,5.5694897E-2,1.5055786E-1,-3.1072257E-2,6.2356777E-3,-2.0849645E-2,5.314672E-2,-2.1824352E-2,8.696736E-3,9.5233284E-2,-3.5771128E-2,-3.299355E-2,-6.3601458E-3],"categories":[],"categories_nodes":[],"categories_segments":[],"categories_sizes":[],"default_left":[0,0,0,0,0,0,0,0,0,0,0,0,0,0,0,0,0,0,0,0,0,0,0,0,0,0,0,0,0],"id":48,"left_children":[1,3,5,7,9,11,13,15,-1,17,19,21,23,25,27,-1,-1,-1,-1,-1,-1,-1,-1,-1,-1,-1,-1,-1,-1],"loss_changes":[1.6292297E1,3.591312E1,1.6734545E1,5.891112E1,1.0278632E2,2.2319183E1,7.6029377E0,6.028058E0,0E0,1.3831741E1,1.5286195E1,1.6478465E2,6.934071E1,7.6505554E1,1.208662E1,0E0,0E0,0E0,0E0,0E0,0E0,0E0,0E0,0E0,0E0,0E0,0E0,0E0,0E0],"parents":[2147483647,0,0,1,1,2,2,3,3,4,4,5,5,6,6,7,7,9,9,10,10,11,11,12,12,13,13,14,14],"right_children":[2,4,6,8,10,12,14,16,-1,18,20,22,24,26,28,-1,-1,-1,-1,-1,-1,-1,-1,-1,-1,-1,-1,-1,-1],"split_conditions":[2E0,1E1,2.1E1,8E0,1.2E1,4E0,3E0,4E0,-1.20413736E-1,1.1E1,2.1E1,1.2E1,9E0,2.2E1,4E0,-3.407177E-2,5.615356E-3,5.5694897E-2,1.5055786E-1,-3.1072257E-2,6.2356777E-3,-2.0849645E-2,5.314672E-2,-2.1824352E-2,8.696736E-3,9.5233284E-2,-3.5771128E-2,-3.299355E-2,-6.3601458E-3],"split_indices":[0,1,1,1,1,0,0,1,0,1,1,1,1,1,0,0,0,0,0,0,0,0,0,0,0,0,0,0,0],"split_type":[0,0,0,0,0,0,0,0,0,0,0,0,0,0,0,0,0,0,0,0,0,0,0,0,0,0,0,0,0],"sum_hessian":[7.237E3,7.56E2,6.481E3,2.27E2,5.29E2,5.02E3,1.461E3,1.54E2,7.3E1,6.8E1,4.61E2,1.202E3,3.818E3,1.93E2,1.268E3,6.7E1,8.7E1,2.7E1,4.1E1,2.82E2,1.79E2,6E2,6.02E2,1.012E3,2.806E3,6.8E1,1.25E2,2.02E2,1.066E3],"tree_param":{"num_deleted":"0","num_feature":"2","num_nodes":"29","size_leaf_vector":"1"}},{"base_weights":[-1.4078117E-4,5.3389322E-2,-3.90938E-2,-7.495528E-3,7.892659E-1,8.169642E-2,-9.437061E-2,-2.3829891E-1,6.5773755E-2,1.451949E0,6.2292177E-2,1.237477E0,1.5771775E-2,-6.126399E-1,-4.6503615E-2,5.360117E-2,-1.2480321E-1,-1.5828067E-2,3.6796596E-2,5.0712466E-2,2.4596155E-1,1.7978302E-1,8.737655E-2,2.2441175E-2,-1.548737E-2,1.2872094E-1,-8.171114E-2,-1.2905558E-2,1.5193715E-2],"categories":[],"categories_nodes":[],"categories_segments":[],"categories_sizes":[],"default_left":[0,0,0,0,0,0,0,0,0,0,0,0,0,0,0,0,0,0,0,0,0,0,0,0,0,0,0,0,0],"id":49,"left_children":[1,3,5,7,9,11,13,15,17,19,-1,21,23,25,27,-1,-1,-1,-1,-1,-1,-1,-1,-1,-1,-1,-1,-1,-1],"loss_changes":[1.5094469E1,1.366125E2,2.7983913E1,4.7653393E1,2.4779938E1,1.0025234E2,7.1294495E1,5.315432E2,1.448846E2,4.254779E1,0E0,1.2899414E1,4.439667E1,9.544883E1,4.3152557E1,0E0,0E0,0E0,0E0,0E0,0E0,0E0,0E0,0E0,0E0,0E0,0E0,0E0,0E0],"parents":[2147483647,0,0,1,1,2,2,3,3,4,4,5,5,6,6,7,7,8,8,9,9,11,11,12,12,13,13,14,14],"right_children":[2,4,6,8,10,12,14,16,18,20,-1,22,24,26,28,-1,-1,-1,-1,-1,-1,-1,-1,-1,-1,-1,-1,-1,-1],"split_conditions":[1.4E1,1.3E1,4E0,3E0,6E0,1.5E1,1.5E1,9E0,9E0,4E0,6.2292177E-2,2E0,2E1,5E0,7E0,5.360117E-2,-1.2480321E-1,-1.5828067E-2,3.6796596E-2,5.0712466E-2,2.4596155E-1,1.7978302E-1,8.737655E-2,2.2441175E-2,-1.548737E-2,1.2872094E-1,-8.171114E-2,-1.2905558E-2,1.5193715E-2],"split_indices":[1,1,0,0,0,1,1,1,1,0,0,0,1,0,0,0,0,0,0,0,0,0,0,0,0,0,0,0,0],"split_type":[0,0,0,0,0,0,0,0,0,0,0,0,0,0,0,0,0,0,0,0,0,0,0,0,0,0,0,0,0],"sum_hessian":[7.237E3,3.048E3,4.189E3,2.816E3,2.32E2,1.315E3,2.874E3,6.78E2,2.138E3,4.5E1,1.87E2,7E1,1.245E3,2.42E2,2.632E3,3.84E2,2.94E2,1.228E3,9.1E2,2.4E1,2.1E1,2.6E1,4.4E1,5.6E2,6.85E2,2.3E1,2.19E2,1.859E3,7.73E2],"tree_param":{"num_deleted":"0","num_feature":"2","num_nodes":"29","size_leaf_vector":"1"}}]},"name":"gbtree"},"learner_model_param":{"base_score":"[1.3729445E1]","boost_from_average":"1","num_class":"0","num_feature":"2","num_target":"1"},"objective":{"name":"reg:squarederror","reg_loss_param":{"scale_pos_weight":"1"}}},"version":[3,2,0]}